net 
{ 
}
node AnstroemwinkelKern 
{
  states = ( "iO" "niO" );
}
node Artikelgewicht 
{
  states = ( "iO" "zuleicht" "zuschwer" );
}
node Ausstossdruck 
{
  states = ( "hoch" "mittel" "niedrig" );
}
node Ausstossgeschw 
{
  states = ( "hoch" "mittel" "niedrig" );
}
node BeschaedigungDuese 
{
  states = ( "Ja" "Nein" );
}
node BeschaedigungEinzungzone 
{
  states = ( "Ja" "Nein" );
}
node Blasenbildung 
{
  states = ( "Ja" "Nein" );
}
node BrueckeTrichter 
{
  states = ( "Ja" "Nein" );
}
node Darmeffekt 
{
  states = ( "Ja" "Nein" );
}
node DichtigkeitAKKU 
{
  states = ( "iO" "niO" );
}
node DichtigkeitWBK 
{
  states = ( "iO" "niO" );
}
node Drosselventil 
{
  states = ( "iO" "niO" );
}
node DuesenKernkombination 
{
  states = ( "iO" "niO" );
}
node DuesenwerkzugAufNull 
{
  states = ( "iO" "niO" );
}
node DurchhaengenKont 
{
  states = ( "Ja" "Nein" );
}
node Extruderdruck 
{
  states = ( "hoch" "mittel" "niedrig" );
}
node ExtruderRPM 
{
  states = ( "hoch" "mittel" "niedrig" );
}
node Gardineneffekt 
{
  states = ( "Ja" "Nein" );
}
node GegendruckAKKU 
{
  states = ( "hoch" "mittel" "niedrig" );
}
node Heizzone1 
{
  states = ( "hoch" "mittel" "niedrig" );
}
node Heizzone10 
{
  states = ( "hoch" "mittel" "niedrig" );
}
node Heizzone11 
{
  states = ( "hoch" "mittel" "niedrig" );
}
node Heizzone12 
{
  states = ( "hoch" "mittel" "niedrig" );
}
node Heizzone13 
{
  states = ( "hoch" "mittel" "niedrig" );
}
node Heizzone14 
{
  states = ( "hoch" "mittel" "niedrig" );
}
node Heizzone2 
{
  states = ( "hoch" "mittel" "niedrig" );
}
node Heizzone3 
{
  states = ( "hoch" "mittel" "niedrig" );
}
node Heizzone4 
{
  states = ( "hoch" "mittel" "niedrig" );
}
node KontaminationDuese 
{
  states = ( "Ja" "Nein" );
}
node KontaminationExtruder 
{
  states = ( "Ja" "Nein" );
}
node KontaminationKopf 
{
  states = ( "Ja" "Nein" );
}
node Kratzer 
{
  states = ( "Ja" "Nein" );
}
node MatFeuchtigkeit 
{
  states = ( "iO" "niO" );
}
node MilichigKalterSchlauchWolken 
{
  states = ( "Ja" "Nein" );
}
node RauchQualm 
{
  states = ( "Ja" "Nein" );
}
node RegeneratAnteil 
{
  states = ( "hoch" "mittel" "niedrig" );
}
node Regeneratqualitaet 
{
  states = ( "iO" "niO" );
}
node Schlauchkrempeln 
{
  states = ( "Ja" "Nein" );
}
node Schlauchlaengenschwankungen 
{
  states = ( "Ja" "Nein" );
}
node SchlauchlaufGeradeauslauf 
{
  states = ( "Ja" "Nein" );
}
node Schlierenbildung 
{
  states = ( "Ja" "Nein" );
}
node Schmelzbruch 
{
  states = ( "Ja" "Nein" );
}
node Taktzeit 
{
  states = ( "hoch" "mittel" "niedrig" );
}
node TempDuese 
{
  states = ( "iO" "niO" );
}
node TempDueseKopf 
{
  states = ( "iO" "niO" );
}
node TempDueseKopfAussen 
{
  states = ( "iO" "niO" );
}
node TempExtruder 
{
  states = ( "iO" "niO" );
}
node TempExtrudereinfuellzone 
{
  states = ( "iO" "niO" );
}
node TempExtrudereinzug 
{
  states = ( "iO" "niO" );
}
node TempKopf 
{
  states = ( "iO" "niO" );
}
node TempRohstoff 
{
  states = ( "iO" "zuhoch" "zuniedrig" );
}
node UntSchlauchlaengenMehrfachkoepfe 
{
  states = ( "Ja" "Nein" );
}
node VerbrRohstoffDuese 
{
  states = ( "Ja" "Nein" );
}
node VerunreinRohstoff 
{
  states = ( "Ja" "Nein" );
}
node VorformlingGlaenzend 
{
  states = ( "Ja" "Nein" );
}
node WDSAnfangEnde 
{
  states = ( "iO" "niO" );
}
node WDSmanuell 
{
  states = ( "iO" "niO" );
}
node WDSSpruenge 
{
  states = ( "Ja" "Nein" );
}
node WDSzuDuenn 
{
  states = ( "Ja" "Nein" );
}
node ZentrierungDuese 
{
  states = ( "iO" "niO" );
}
potential ( AnstroemwinkelKern | DuesenKernkombination ) 
{
  data = ((0.3963628 0.6036372)(0.3850639 0.6149361)) ;
}
potential ( Artikelgewicht ) 
{
  data = ( 0.7026631 0.0903243 0.2070126 );
}
potential ( Ausstossdruck ) 
{
  data = ( 0.09052428 0.86974636 0.03972936 );
}
potential ( Ausstossgeschw ) 
{
  data = ( 0.19581375 0.72326101 0.08092524 );
}
potential ( BeschaedigungDuese | VerunreinRohstoff ) 
{
  data = ((0.808532 0.191468)(0.8134386 0.1865614)) ;
}
potential ( BeschaedigungEinzungzone ) 
{
  data = ( 0.2359264 0.7640736 );
}
potential ( Blasenbildung | BeschaedigungEinzungzone DuesenKernkombination MatFeuchtigkeit TempExtrudereinfuellzone TempKopf TempRohstoff WDSSpruenge ) 
{
  data = ((((((((0.5312449 0.4687551)(0.5599875 0.4400125))((0.5 0.5)(0.6128937 0.3871063))((0.4827617 0.5172383)(0.608671 0.391329)))(((0.9994797086 0.0005202914)(0.6663778 0.3336222))((0.5713755 0.4286245)(0.4001041 0.5998959))((0.5 0.5)(0.998701299 0.001298701))))((((0.6665221 0.3334779)(0.642804 0.357196))((0.5999653 0.4000347)(0.5142836 0.4857164))((0.6665221 0.3334779)(0.4000521 0.5999479)))(((0.997409326 0.002590674)(0.5 0.5))((0.5 0.5)(0.5 0.5))((0.997409326 0.002590674)(0.002590674 0.997409326)))))(((((0.5727238 0.4272762)(0.5714248 0.4285752))((0.5180176 0.4819824)(0.5730323 0.4269677))((0.5480745 0.4519255)(0.6120639 0.3879361)))(((0.6249593 0.3750407)(0.5333218 0.4666782))((0.6128843 0.3871157)(0.5555475 0.4444525))((0.428598 0.571402)(0.2728348 0.7271652))))((((0.6470363 0.3529637)(0.7272369 0.2727631))((0.4878057 0.5121943)(0.4712661 0.5287339))((0.5714179 0.4285821)(0.4848509 0.5151491)))(((0.3336222 0.6663778)(0.5998959 0.4001041))((0.6153384 0.3846616)(0.6153384 0.3846616))((0.7996878 0.2003122)(0.5 0.5))))))((((((0.5713755 0.4286245)(0.6665944 0.3334056))((0.6666345 0.3333655)(0.5454438 0.4545562))((0.7271652 0.2728348)(0.6665703 0.3334297)))(((0.6663778 0.3336222)(0.5 0.5))((0.001298701 0.998701299)(0.9993498049 0.0006501951))((0.998701299 0.001298701)(0.5 0.5))))((((0.2503251 0.7496749)(0.5 0.5))((0.3334779 0.6665221)(0.6665221 0.3334779))((0.6663778 0.3336222)(0.5998959 0.4001041)))(((0.5 0.5)(0.997409326 0.002590674))((0.5 0.5)(0.5 0.5))((0.5 0.5)(0.002590674 0.997409326)))))(((((0.620668 0.379332)(0.548379 0.451621))((0.6627808 0.3372192)(0.6428483 0.3571517))((0.6128843 0.3871157)(0.5499935 0.4500065)))(((0.6998959 0.3001041)(0.2501627 0.7498373))((0.5555234 0.4444766)(0.6249593 0.3750407))((0.7141264 0.2858736)(0.5998959 0.4001041))))((((0.4286245 0.5713755)(0.571402 0.428598))((0.2631904 0.7368096)(0.6666426 0.3333574))((0.642804 0.357196)(0.454567 0.545433)))(((0.5 0.5)(0.001298701 0.998701299))((0.6663778 0.3336222)(0.9994797086 0.0005202914))((0.002590674 0.997409326)(0.998701299 0.001298701)))))))(((((((0.4719118 0.5280882)(0.5211252 0.4788748))((0.5391295 0.4608705)(0.5624986 0.4375014))((0.4883728 0.5116272)(0.596149 0.403851)))(((0.8330442 0.1669558)(0.8997918 0.1002082))((0.388921 0.611079)(0.5 0.5))((0.7496749 0.2503251)(0.4001041 0.5998959))))((((0.6071229 0.3928771)(0.4800042 0.5199958))((0.538459 0.461541)(0.6029333 0.3970667))((0.5 0.5)(0.5749902 0.4250098)))(((0.998701299 0.001298701)(0.5 0.5))((0.6362991 0.3637009)(0.611079 0.388921))((0.4286245 0.5713755)(0.7496749 0.2503251)))))(((((0.5779804 0.4220196)(0.5493413 0.4506587))((0.5638293 0.4361707)(0.5313651 0.4686349))((0.562146 0.437854)(0.577585 0.422415)))(((0.5 0.5)(0.5471652 0.4528348))((0.5510177 0.4489823)(0.6145771 0.3854229))((0.699974 0.300026)(0.5581325 0.4418675))))((((0.5306106 0.4693894)(0.5 0.5))((0.584312 0.415688)(0.5526307 0.4473693))((0.6134404 0.3865596)(0.4901966 0.5098034)))(((0.571402 0.428598)(0.5 0.5))((0.6333102 0.3666898)(0.6666426 0.3333574))((0.5 0.5)(0.7499458 0.2500542))))))((((((0.5405348 0.4594652)(0.5185149 0.4814851))((0.5737642 0.4262358)(0.5121943 0.4878057))((0.620668 0.379332)(0.6749772 0.3250228)))(((0.6665221 0.3334779)(0.997409326 0.002590674))((0.6249187 0.3750813)(0.6665703 0.3334297))((0.6663778 0.3336222)(0.3336222 0.6663778))))((((0.7998438 0.2001562)(0.7498373 0.2501627))((0.5312449 0.4687551)(0.5999851 0.4000149))((0.6249593 0.3750407)(0.611079 0.388921)))(((0.3336222 0.6663778)(0.5 0.5))((0.7496749 0.2503251)(0.4001041 0.5998959))((0.001298701 0.998701299)(0.5 0.5)))))(((((0.586203 0.413797)(0.5701722 0.4298278))((0.5955398 0.4044602)(0.5379054 0.4620946))((0.6422704 0.3577296)(0.4370395 0.5629605)))(((0.312561 0.687439)(0.5555234 0.4444766))((0.5666551 0.4333449)(0.5789365 0.4210635))((0.3334297 0.6665703)(0.285794 0.714206))))((((0.6333102 0.3666898)(0.5227246 0.4772754))((0.5192298 0.4807702)(0.5517218 0.4482782))((0.6749772 0.3250228)(0.5908983 0.4091017)))(((0.1669558 0.8330442)(0.9993498049 0.0006501951))((0.5882083 0.4117917)(0.5217342 0.4782658))((0.3334297 0.6665703)(0.5 0.5)))))))) ;
}
potential ( BrueckeTrichter ) 
{
  data = ( 0.7311769 0.2688231 );
}
potential ( Darmeffekt | Artikelgewicht Ausstossgeschw BeschaedigungDuese DuesenKernkombination KontaminationDuese TempKopf WDSzuDuenn ZentrierungDuese ) 
{
  data = (((((((((0.8343912 0.1656088)(0.8846102 0.1153898))((0.7419219 0.2580781)(0.8620473 0.1379527)))(((0.8570986 0.1429014)(0.7999653 0.2000347))((0.8332369 0.1667631)(0.7498915 0.2501085))))((((0.8427636 0.1572364)(0.8749952 0.1250048))((0.8610937 0.1389063)(0.8055408 0.1944592)))(((0.8749593 0.1250407)(0.7368205 0.2631795))((0.6665703 0.3334297)(0.8332369 0.1667631)))))(((((0.8153762 0.1846238)(0.8908968 0.1091032))((0.8332851 0.1667149)(0.90902635 0.09097365)))(((0.9998915166 0.0001084834)(0.8999306 0.1000694))((0.5 0.5)(0.5 0.5))))((((0.8749884 0.1250116)(0.8039112 0.1960888))((0.8666242 0.1333758)(0.6999653 0.3000347)))(((0.8332369 0.1667631)(0.9998760228 0.0001239772))((0.5 0.5)(0.5 0.5))))))((((((0.8181651 0.1818349)(0.7916456 0.2083544))((0.6999653 0.3000347)(0.7272369 0.2727631)))(((0.9997830803 0.0002169197)(0.9997108155 0.0002891845))((0.9991334489 0.0008665511)(0.5 0.5))))((((0.7999884 0.2000116)(0.8918735 0.1081265))((0.7142326 0.2857674)(0.6666345 0.3333655)))(((0.6666185 0.3333815)(0.6666185 0.3333815))((0.9991334489 0.0008665511)(0.5 0.5)))))(((((0.7999479 0.2000521)(0.6666474 0.3333526))((0.7498915 0.2501085)(0.7998959 0.2001041)))(((0.6665703 0.3334297)(0.9991334489 0.0008665511))((0.5 0.5)(0.9991334489 0.0008665511))))((((0.8461076 0.1538924)(0.7333063 0.2666937))((0.9997108155 0.0002891845)(0.5 0.5)))(((0.5 0.5)(0.5 0.5))((0.5 0.5)(0.5 0.5)))))))(((((((0.8670508 0.1329492)(0.8412991 0.1587009))((0.8188933 0.1811067)(0.8650743 0.1349257)))(((0.8374927 0.1625073)(0.8636268 0.1363732))((0.842074 0.157926)(9.999380e-01 6.199628e-05))))((((0.859999 0.140001)(0.8414168 0.1585832))((0.8650743 0.1349257)(0.8292636 0.1707364)))(((0.8266591 0.1733409)(0.8245515 0.1754485))((0.7499638 0.2500362)(0.93745253 0.06254747)))))(((((0.8325331 0.1674669)(0.8797778 0.1202222))((0.895819 0.104181)(0.8780328 0.1219672)))(((0.8845897 0.1154103)(0.7894472 0.2105528))((0.8749186 0.1250814)(0.9998760228 0.0001239772))))((((0.8693665 0.1306335)(0.8861353 0.1138647))((0.8846025 0.1153975)(0.8918735 0.1081265)))(((0.6538359 0.3461641)(0.8529232 0.1470768))((0.5 0.5)(0.5714109 0.4285891))))))((((((0.8888839 0.1111161)(0.8148098 0.1851902))((0.93100868 0.06899132)(0.8570986 0.1429014)))(((0.93328318 0.06671682)(9.999332e-01 6.676459e-05))((0.6666185 0.3333815)(0.8332369 0.1667631))))((((0.8584016 0.1415984)(0.8321638 0.1678362))((0.7499864 0.2500136)(0.8571207 0.1428793)))(((0.714268 0.285732)(0.8666242 0.1333758))((0.9997830803 0.0002169197)(0.6665703 0.3334297)))))(((((0.7755004 0.2244996)(0.7555457 0.2444543))((0.7272369 0.2727631)(0.8461076 0.1538924)))(((0.8570543 0.1429457)(0.7499458 0.2500542))((0.9991334489 0.0008665511)(0.9991334489 0.0008665511))))((((0.8936025 0.1063975)(0.90564709 0.09435291))((0.5999826 0.4000174)(0.8332369 0.1667631)))(((0.9998553659 0.0001446341)(0.3334297 0.6665703))((0.7998959 0.2001041)(0.5 0.5)))))))(((((((0.8474474 0.1525526)(0.8399882 0.1600118))((0.93328318 0.06671682)(0.8332851 0.1667149)))(((0.5999653 0.4000347)(0.7998959 0.2001041))((0.9995663487 0.0004336513)(0.9995663487 0.0004336513))))((((0.8382267 0.1617733)(0.91665461 0.08334539))((0.8947008 0.1052992)(0.8570986 0.1429014)))(((0.8332369 0.1667631)(0.8570543 0.1429457))((0.9991334489 0.0008665511)(0.5 0.5)))))(((((0.7999653 0.2000347)(0.8094982 0.1905018))((0.9997108155 0.0002891845)(0.9998553659 0.0001446341)))(((0.8570543 0.1429457)(0.9995663487 0.0004336513))((0.5 0.5)(0.5 0.5))))((((0.8333092 0.1666908)(0.8799736 0.1200264))((0.5 0.5)(0.6666185 0.3333815)))(((0.9998264491 0.0001735509)(0.9997108155 0.0002891845))((0.5 0.5)(0.9991334489 0.0008665511))))))((((((0.8570986 0.1429014)(0.92302043 0.07697957))((0.9997108155 0.0002891845)(0.9997108155 0.0002891845)))(((0.5 0.5)(0.7498915 0.2501085))((0.5 0.5)(0.9991334489 0.0008665511))))((((0.7646789 0.2353211)(0.7999653 0.2000347))((0.9995663487 0.0004336513)(0.9997830803 0.0002169197)))(((0.8332369 0.1667631)(0.9991334489 0.0008665511))((0.9995663487 0.0004336513)(0.5 0.5)))))(((((0.9991334489 0.0008665511)(0.7498915 0.2501085))((0.9991334489 0.0008665511)(0.5 0.5)))(((0.0008665511 0.9991334489)(0.5 0.5))((0.9991334489 0.0008665511)(0.5 0.5))))((((0.8749186 0.1250814)(0.90902635 0.09097365))((0.9991334489 0.0008665511)(0.9991334489 0.0008665511)))(((0.9991334489 0.0008665511)(0.9991334489 0.0008665511))((0.5 0.5)(0.5 0.5))))))))((((((((0.8947008 0.1052992)(0.7692128 0.2307872))((0.9998264491 0.0001735509)(0.5 0.5)))(((0.9991334489 0.0008665511)(0.9997830803 0.0002169197))((0.5 0.5)(0.5 0.5))))((((0.8499696 0.1500304)(0.6666474 0.3333526))((0.9998264491 0.0001735509)(0.9998915166 0.0001084834)))(((0.9995663487 0.0004336513)(0.7498915 0.2501085))((0.9991334489 0.0008665511)(0.9991334489 0.0008665511)))))(((((0.7498915 0.2501085)(0.9998553659 0.0001446341))((0.9991334489 0.0008665511)(0.9995663487 0.0004336513)))(((0.5 0.5)(0.9995663487 0.0004336513))((0.5 0.5)(0.5 0.5))))((((0.5714109 0.4285891)(0.5999653 0.4000347))((0.9995663487 0.0004336513)(0.5 0.5)))(((0.5 0.5)(0.5 0.5))((0.5 0.5)(0.5 0.5))))))((((((0.8570543 0.1429457)(0.8749186 0.1250814))((0.9991334489 0.0008665511)(0.9991334489 0.0008665511)))(((0.5 0.5)(0.5 0.5))((0.0008665511 0.9991334489)(0.9991334489 0.0008665511))))((((0.9997830803 0.0002169197)(0.9998760228 0.0001239772))((0.9991334489 0.0008665511)(0.9991334489 0.0008665511)))(((0.9991334489 0.0008665511)(0.5 0.5))((0.5 0.5)(0.5 0.5)))))(((((0.7498915 0.2501085)(0.5 0.5))((0.5 0.5)(0.5 0.5)))(((0.9991334489 0.0008665511)(0.9991334489 0.0008665511))((0.5 0.5)(0.5 0.5))))((((0.9995663487 0.0004336513)(0.9991334489 0.0008665511))((0.5 0.5)(0.5 0.5)))(((0.5 0.5)(0.5 0.5))((0.5 0.5)(0.5 0.5)))))))(((((((0.8656622 0.1343378)(0.8428486 0.1571514))((0.8749593 0.1250407)(0.7499638 0.2500362)))(((0.7998959 0.2001041)(0.9998915166 0.0001084834))((0.5 0.5)(0.9995663487 0.0004336513))))((((0.845062 0.154938)(0.8732303 0.1267697))((0.8333012 0.1666988)(0.92302043 0.07697957)))(((0.7856789 0.2143211)(0.8332851 0.1667149))((0.5 0.5)(0.5 0.5)))))(((((0.8999769 0.1000231)(0.94996094 0.05003906))((0.7998959 0.2001041)(0.8888139 0.1111861)))(((0.7998959 0.2001041)(0.9995663487 0.0004336513))((0.9991334489 0.0008665511)(0.5 0.5))))((((0.8799736 0.1200264)(0.8461307 0.1538693))((0.9997108155 0.0002891845)(0.9998760228 0.0001239772)))(((0.9997108155 0.0002891845)(0.8332369 0.1667631))((0.9991334489 0.0008665511)(0.5 0.5))))))((((((0.8749593 0.1250407)(0.8234964 0.1765036))((0.6665703 0.3334297)(0.9997108155 0.0002891845)))(((0.5 0.5)(0.9997830803 0.0002169197))((0.9991334489 0.0008665511)(0.5 0.5))))((((0.7618831 0.2381169)(0.8749593 0.1250407))((0.6665703 0.3334297)(0.5 0.5)))(((0.5 0.5)(0.5 0.5))((0.5 0.5)(0.5 0.5)))))(((((0.9998264491 0.0001735509)(0.7498915 0.2501085))((0.5 0.5)(0.5 0.5)))(((0.5 0.5)(0.9991334489 0.0008665511))((0.5 0.5)(0.5 0.5))))((((0.7998959 0.2001041)(0.9997830803 0.0002169197))((0.9997108155 0.0002891845)(0.9991334489 0.0008665511)))(((0.9991334489 0.0008665511)(0.9991334489 0.0008665511))((0.5 0.5)(0.5 0.5)))))))(((((((0.7777242 0.2222758)(0.8570543 0.1429457))((0.7498915 0.2501085)(0.9991334489 0.0008665511)))(((0.5 0.5)(0.5 0.5))((0.5 0.5)(0.5 0.5))))((((0.7691948 0.2308052)(0.90902635 0.09097365))((0.9991334489 0.0008665511)(0.9995663487 0.0004336513)))(((0.5 0.5)(0.5 0.5))((0.5 0.5)(0.5 0.5)))))(((((0.0008665511 0.9991334489)(0.9995663487 0.0004336513))((0.5 0.5)(0.5 0.5)))(((0.5 0.5)(0.5 0.5))((0.5 0.5)(0.0008665511 0.9991334489))))((((0.5 0.5)(0.9995663487 0.0004336513))((0.5 0.5)(0.9991334489 0.0008665511)))(((0.5 0.5)(0.5 0.5))((0.5 0.5)(0.5 0.5))))))((((((0.5 0.5)(0.9997830803 0.0002169197))((0.9991334489 0.0008665511)(0.5 0.5)))(((0.9991334489 0.0008665511)(0.5 0.5))((0.5 0.5)(0.9991334489 0.0008665511))))((((0.6665703 0.3334297)(0.9991334489 0.0008665511))((0.9997830803 0.0002169197)(0.5 0.5)))(((0.9991334489 0.0008665511)(0.5 0.5))((0.5 0.5)(0.5 0.5)))))(((((0.5 0.5)(0.5 0.5))((0.5 0.5)(0.9991334489 0.0008665511)))(((0.5 0.5)(0.5 0.5))((0.5 0.5)(0.9991334489 0.0008665511))))((((0.9991334489 0.0008665511)(0.5 0.5))((0.5 0.5)(0.5 0.5)))(((0.5 0.5)(0.5 0.5))((0.5 0.5)(0.5 0.5))))))))((((((((0.8936025 0.1063975)(0.92498155 0.07501845))((0.8888139 0.1111861)(0.8749186 0.1250814)))(((0.5999653 0.4000347)(0.8570543 0.1429457))((0.5 0.5)(0.9997108155 0.0002891845))))((((0.90907477 0.09092523)(0.8823399 0.1176601))((0.92851829 0.07148171)(0.7999479 0.2000521)))(((0.9997830803 0.0002169197)(0.7142326 0.2857674))((0.5 0.5)(0.9991334489 0.0008665511)))))(((((0.8570986 0.1429014)(0.8461076 0.1538924))((0.7498915 0.2501085)(0.8749186 0.1250814)))(((0.9995663487 0.0004336513)(0.9991334489 0.0008665511))((0.9991334489 0.0008665511)(0.5 0.5))))((((9.999211e-01 7.890169e-05)(0.94440158 0.05559842))((0.9995663487 0.0004336513)(0.9991334489 0.0008665511)))(((0.9995663487 0.0004336513)(0.5 0.5))((0.5 0.5)(0.5 0.5))))))((((((0.7499458 0.2500542)(0.8332369 0.1667631))((0.9995663487 0.0004336513)(0.5 0.5)))(((0.9991334489 0.0008665511)(0.5 0.5))((0.5 0.5)(0.9991334489 0.0008665511))))((((0.7499638 0.2500362)(0.6249729 0.3750271))((0.6665703 0.3334297)(0.0004336513 0.9995663487)))(((0.6665703 0.3334297)(0.5 0.5))((0.5 0.5)(0.5 0.5)))))(((((0.9997830803 0.0002169197)(0.7998959 0.2001041))((0.9991334489 0.0008665511)(0.9991334489 0.0008665511)))(((0.9995663487 0.0004336513)(0.9991334489 0.0008665511))((0.5 0.5)(0.5 0.5))))((((0.9997830803 0.0002169197)(0.9997108155 0.0002891845))((0.5 0.5)(0.9991334489 0.0008665511)))(((0.0008665511 0.9991334489)(0.5 0.5))((0.5 0.5)(0.5 0.5)))))))(((((((0.8639413 0.1360587)(0.8709636 0.1290364))((0.9629332 0.0370668)(0.8571251 0.1428749)))(((0.842074 0.157926)(0.7727058 0.2272942))((0.3333815 0.6666185)(0.9998264491 0.0001735509))))((((0.8769197 0.1230803)(0.8911518 0.1088482))((0.8999826 0.1000174)(0.8235129 0.1764871)))(((0.95234356 0.04765644)(0.8666242 0.1333758))((0.8332369 0.1667631)(0.0008665511 0.9991334489)))))(((((0.876913 0.123087)(0.8823399 0.1176601))((0.90902635 0.09097365)(0.8999306 0.1000694)))(((0.8332369 0.1667631)(0.90902635 0.09097365))((0.9991334489 0.0008665511)(0.9991334489 0.0008665511))))((((0.8235212 0.1764788)(0.9193431 0.0806569))((0.8332851 0.1667149)(0.8499696 0.1500304)))(((0.7142326 0.2857674)(0.9998915166 0.0001084834))((0.5 0.5)(0.5 0.5))))))((((((0.91663653 0.08336347)(0.91889926 0.08110074))((0.8888139 0.1111861)(0.7498915 0.2501085)))(((0.4285891 0.5714109)(0.9998553659 0.0001446341))((0.5 0.5)(0.9991334489 0.0008665511))))((((0.8297751 0.1702249)(0.7872234 0.2127766))((9.999132e-01 8.679049e-05)(0.8749186 0.1250814)))(((0.9998760228 0.0001239772)(0.7498915 0.2501085))((0.9991334489 0.0008665511)(0.5 0.5)))))(((((0.8749186 0.1250814)(0.8666242 0.1333758))((0.9991334489 0.0008665511)(0.6665703 0.3334297)))(((0.9991334489 0.0008665511)(0.5 0.5))((0.5 0.5)(0.5 0.5))))((((0.8260623 0.1739377)(0.7999653 0.2000347))((0.9997830803 0.0002169197)(0.9991334489 0.0008665511)))(((0.9998264491 0.0001735509)(0.9995663487 0.0004336513))((0.5 0.5)(0.5 0.5)))))))(((((((0.7499638 0.2500362)(0.7368205 0.2631795))((0.9998553659 0.0001446341)(0.9995663487 0.0004336513)))(((0.9997830803 0.0002169197)(0.9991334489 0.0008665511))((0.5 0.5)(0.5 0.5))))((((0.6999826 0.3000174)(0.94996094 0.05003906))((0.8332369 0.1667631)(0.6666185 0.3333815)))(((0.9997108155 0.0002891845)(0.9991334489 0.0008665511))((0.9995663487 0.0004336513)(0.5 0.5)))))(((((0.7142326 0.2857674)(0.7142326 0.2857674))((0.9991334489 0.0008665511)(0.9995663487 0.0004336513)))(((0.9995663487 0.0004336513)(0.5 0.5))((0.5 0.5)(0.5 0.5))))((((0.9998264491 0.0001735509)(0.7998959 0.2001041))((0.9995663487 0.0004336513)(0.5 0.5)))(((0.9995663487 0.0004336513)(0.9991334489 0.0008665511))((0.5 0.5)(0.5 0.5))))))((((((0.9997830803 0.0002169197)(0.5 0.5))((0.5 0.5)(0.0008665511 0.9991334489)))(((0.5 0.5)(0.5 0.5))((0.5 0.5)(0.5 0.5))))((((0.9997830803 0.0002169197)(0.6665703 0.3334297))((0.5 0.5)(0.9995663487 0.0004336513)))(((0.5 0.5)(0.9991334489 0.0008665511))((0.5 0.5)(0.5 0.5)))))(((((0.9991334489 0.0008665511)(0.9991334489 0.0008665511))((0.9991334489 0.0008665511)(0.9991334489 0.0008665511)))(((0.0008665511 0.9991334489)(0.9991334489 0.0008665511))((0.5 0.5)(0.9991334489 0.0008665511))))((((0.7998959 0.2001041)(0.5 0.5))((0.5 0.5)(0.5 0.5)))(((0.9991334489 0.0008665511)(0.5 0.5))((0.5 0.5)(0.5 0.5))))))))) ;
}
potential ( DichtigkeitAKKU ) 
{
  data = ( 0.4691031 0.5308969 );
}
potential ( DichtigkeitWBK ) 
{
  data = ( 0.8366663 0.1633337 );
}
potential ( Drosselventil ) 
{
  data = ( 0.5018998 0.4981002 );
}
potential ( DuesenKernkombination ) 
{
  data = ( 0.729877 0.270123 );
}
potential ( DuesenwerkzugAufNull ) 
{
  data = ( 0.7841716 0.2158284 );
}
potential ( DurchhaengenKont | Artikelgewicht Extruderdruck ExtruderRPM RegeneratAnteil Taktzeit TempKopf TempRohstoff ) 
{
  data = ((((((((0.7999941 0.2000059)(0.7821763 0.2178237)(0.7555517 0.2444483))((0.9996572995 0.0003427005)(9.999619e-01 3.810104e-05)(0.5 0.5)))(((0.687496 0.312504)(0.8170705 0.1829295)(0.90321689 0.09678311))((0.9999314223 0.0000685777)(0.8999726 0.1000274)(0.3333714 0.6666286)))(((0.7646952 0.2353048)(0.756752 0.243248)(0.666659 0.333341))((0.999828591 0.000171409)(0.5 0.5)(0.5 0.5))))((((0.8823478 0.1176522)(0.7244082 0.2755918)(0.8541616 0.1458384))((0.7499786 0.2500214)(0.6999863 0.3000137)(0.9999314223 0.0000685777)))(((0.6944407 0.3055593)(0.8555528 0.1444472)(0.7755063 0.2244937))((0.7777566 0.2222434)(0.8420929 0.1579071)(0.7499571 0.2500429)))(((0.94998457 0.05001543)(0.8510587 0.1489413)(0.8799896 0.1200104))((0.9996572995 0.0003427005)(0.999828591 0.000171409)(0.9996572995 0.0003427005))))((((0.8333143 0.1666857)(0.8863576 0.1136424)(0.7999863 0.2000137))((0.9998857143 0.0001142857)(0.7499571 0.2500429)(0.5 0.5)))(((0.6153785 0.3846215)(0.863625 0.136375)(0.7499571 0.2500429))((0.6666286 0.3333714)(0.9998857143 0.0001142857)(0.5 0.5)))(((0.666654 0.333346)(0.5999931 0.4000069)(0.9090654 0.0909346))((0.9996572995 0.0003427005)(0.8332952 0.1667048)(0.5 0.5)))))(((((0.7499893 0.2500107)(0.7894685 0.2105315)(0.8461447 0.1538553))((0.5 0.5)(0.6666286 0.3333714)(0.5 0.5)))(((0.7999794 0.2000206)(0.722218 0.277782)(9.999714e-01 2.857633e-05))((0.999828591 0.000171409)(0.6666286 0.3333714)(0.999828591 0.000171409)))(((0.7777566 0.2222434)(0.8666499 0.1333501)(0.8571254 0.1428746))((0.5 0.5)(0.9996572995 0.0003427005)(0.9996572995 0.0003427005))))((((0.6956463 0.3043537)(0.7719266 0.2280734)(0.849988 0.150012))((0.999828591 0.000171409)(0.7499786 0.2500214)(0.6666286 0.3333714)))(((0.8148068 0.1851932)(0.8305046 0.1694954)(0.7857003 0.2142997))((0.9996572995 0.0003427005)(0.5714216 0.4285784)(0.5 0.5)))(((0.9998857143 0.0001142857)(0.8387022 0.1612978)(0.6363551 0.3636449))((0.9996572995 0.0003427005)(0.5 0.5)(0.5 0.5))))((((0.6666286 0.3333714)(0.7727188 0.2272812)(0.8332952 0.1667048))((0.9996572995 0.0003427005)(0.999828591 0.000171409)(0.5 0.5)))(((0.6249893 0.3750107)(0.7222138 0.2777862)(0.5999931 0.4000069))((0.5 0.5)(0.999828591 0.000171409)(0.999828591 0.000171409)))(((0.999828591 0.000171409)(9.999429e-01 5.714939e-05)(0.9998857143 0.0001142857))((0.5 0.5)(0.5 0.5)(0.5 0.5)))))(((((0.8666499 0.1333501)(0.8297824 0.1702176)(0.8420929 0.1579071))((0.5999863 0.4000137)(0.9999314223 0.0000685777)(0.5 0.5)))(((0.5999966 0.4000034)(0.7804831 0.2195169)(0.7142752 0.2857248))((0.999828591 0.000171409)(0.9998857143 0.0001142857)(0.0003427005 0.9996572995)))(((0.6666476 0.3333524)(0.7999863 0.2000137)(9.999143e-01 8.571918e-05))((0.5 0.5)(0.999828591 0.000171409)(0.0003427005 0.9996572995))))((((0.6470529 0.3529471)(0.91666071 0.08333929)(0.8260772 0.1739228))((0.7499571 0.2500429)(0.9998857143 0.0001142857)(0.6666286 0.3333714)))(((0.8181719 0.1818281)(0.7826045 0.2173955)(0.7692237 0.2307763))((0.5 0.5)(0.9090654 0.0909346)(0.9996572995 0.0003427005)))(((0.7142647 0.2857353)(0.94998457 0.05001543)(0.7499571 0.2500429))((0.9996572995 0.0003427005)(0.4285784 0.5714216)(0.5 0.5))))((((0.7999589 0.2000411)(0.92855043 0.07144957)(0.4000137 0.5999863))((0.9998857143 0.0001142857)(0.6666286 0.3333714)(0.5 0.5)))(((0.9996572995 0.0003427005)(0.7857003 0.2142997)(0.7499571 0.2500429))((0.5 0.5)(0.6666286 0.3333714)(0.9998857143 0.0001142857)))(((0.999828591 0.000171409)(0.7142647 0.2857353)(9.999143e-01 8.571918e-05))((0.5 0.5)(0.0003427005 0.9996572995)(0.9996572995 0.0003427005))))))((((((0.7222194 0.2777806)(0.8095224 0.1904776)(0.8363594 0.1636406))((0.8749679 0.1250321)(0.687492 0.312508)(0.5 0.5)))(((0.7499964 0.2500036)(0.7965104 0.2034896)(0.7454515 0.2545485))((9.999143e-01 8.571918e-05)(0.7272656 0.2727344)(0.818162 0.181838)))(((0.8620604 0.1379396)(0.7777748 0.2222252)(0.6999954 0.3000046))((0.9998857143 0.0001142857)(0.6249893 0.3750107)(0.3333714 0.6666286))))((((0.8461508 0.1538492)(0.7942574 0.2057426)(0.7058803 0.2941197))((0.8999726 0.1000274)(0.8709595 0.1290405)(0.666659 0.333341)))(((0.7733308 0.2266692)(0.8253956 0.1746044)(0.8255788 0.1744212))((0.8888593 0.1111407)(0.8399907 0.1600093)(0.8888593 0.1111407)))(((0.7352894 0.2647106)(0.7692287 0.2307713)(0.7999954 0.2000046))((0.9998857143 0.0001142857)(0.9999314223 0.0000685777)(9.999143e-01 8.571918e-05))))((((0.8214207 0.1785793)(0.7499976 0.2500024)(0.7173881 0.2826119))((0.9998857143 0.0001142857)(0.5999863 0.4000137)(0.6666286 0.3333714)))(((0.91998848 0.08001152)(0.786882 0.213118)(0.8518429 0.1481571))((0.9998857143 0.0001142857)(0.6666476 0.3333524)(0.999828591 0.000171409)))(((0.5555513 0.4444487)(0.7916583 0.2083417)(0.92855043 0.07144957))((0.7499571 0.2500429)(0.8571079 0.1428921)(0.0003427005 0.9996572995)))))(((((0.7586146 0.2413854)(0.8076896 0.1923104)(0.8378316 0.1621684))((0.8749679 0.1250321)(0.8888593 0.1111407)(0.9996572995 0.0003427005)))(((0.7777707 0.2222293)(0.7741905 0.2258095)(0.8205072 0.1794928))((0.7499571 0.2500429)(0.8749679 0.1250321)(0.5 0.5)))(((0.8333206 0.1666794)(0.7499914 0.2500086)(0.8260772 0.1739228))((0.9996572995 0.0003427005)(0.5 0.5)(0.999828591 0.000171409))))((((0.7692272 0.2307728)(0.8787853 0.1212147)(0.6744158 0.3255842))((9.999143e-01 8.571918e-05)(0.8888741 0.1111259)(0.8888593 0.1111407)))(((0.7179449 0.2820551)(0.8749968 0.1250032)(0.6470559 0.3529441))((0.9998857143 0.0001142857)(0.7499786 0.2500214)(0.7999589 0.2000411)))(((0.6470529 0.3529471)(0.8205072 0.1794928)(0.7999897 0.2000103))((0.9998857143 0.0001142857)(0.6249893 0.3750107)(0.6666286 0.3333714))))((((0.8571254 0.1428746)(0.8799896 0.1200104)(0.7142752 0.2857248))((0.0003427005 0.9996572995)(0.9999314223 0.0000685777)(0.999828591 0.000171409)))(((9.999143e-01 8.571918e-05)(0.8275785 0.1724215)(0.7692166 0.2307834))((0.9996572995 0.0003427005)(0.7999589 0.2000411)(0.9996572995 0.0003427005)))(((9.999429e-01 5.714939e-05)(0.8888741 0.1111259)(9.999143e-01 8.571918e-05))((0.5 0.5)(0.9996572995 0.0003427005)(0.5 0.5)))))(((((0.8947226 0.1052774)(0.8571379 0.1428621)(0.8275785 0.1724215))((0.9998857143 0.0001142857)(0.5999931 0.4000069)(0.7499571 0.2500429)))(((0.4090937 0.5909063)(0.7659536 0.2340464)(0.93332343 0.06667657))((0.9999314223 0.0000685777)(0.7142647 0.2857353)(0.9996572995 0.0003427005)))(((0.8888593 0.1111407)(0.733328 0.266672)(0.9090654 0.0909346))((0.9998857143 0.0001142857)(0.7999589 0.2000411)(0.5 0.5))))((((0.7999931 0.2000069)(0.6749985 0.3250015)(0.7659536 0.2340464))((0.8749679 0.1250321)(0.818162 0.181838)(0.5999863 0.4000137)))(((0.8214207 0.1785793)(0.8358175 0.1641825)(0.687496 0.312504))((0.7999589 0.2000411)(0.6922975 0.3077025)(0.5 0.5)))(((0.9230546 0.0769454)(0.8048729 0.1951271)(0.7857003 0.2142997))((0.999828591 0.000171409)(0.7499571 0.2500429)(0.7499571 0.2500429))))((((0.8749839 0.1250161)(0.92306576 0.07693424)(0.7999589 0.2000411))((0.9996572995 0.0003427005)(0.6666476 0.3333524)(0.5 0.5)))(((0.5999931 0.4000069)(0.7857073 0.2142927)(0.8888593 0.1111407))((0.6666286 0.3333714)(0.5 0.5)(0.5 0.5)))(((0.6666286 0.3333714)(0.687492 0.312508)(0.5714216 0.4285784))((0.5 0.5)(0.9996572995 0.0003427005)(0.5 0.5))))))((((((0.5833286 0.4166714)(0.7837785 0.2162215)(0.92855043 0.07144957))((0.9996572995 0.0003427005)(0.7999589 0.2000411)(0.5 0.5)))(((0.6470529 0.3529471)(0.7575704 0.2424296)(0.92855043 0.07144957))((0.6666286 0.3333714)(0.7499571 0.2500429)(0.5 0.5)))(((0.5 0.5)(0.8235164 0.1764836)(0.8571254 0.1428746))((0.5 0.5)(0.999828591 0.000171409)(0.9996572995 0.0003427005))))((((0.92855043 0.07144957)(0.8095188 0.1904812)(0.6399962 0.3600038))((0.999828591 0.000171409)(0.7142647 0.2857353)(0.5 0.5)))(((0.7692166 0.2307834)(0.7446773 0.2553227)(9.999755e-01 2.449419e-05))((0.5 0.5)(9.999143e-01 8.571918e-05)(0.9996572995 0.0003427005)))(((0.8571079 0.1428921)(0.8571312 0.1428688)(0.7777566 0.2222434))((0.9996572995 0.0003427005)(0.999828591 0.000171409)(0.0003427005 0.9996572995))))((((0.6666286 0.3333714)(0.8260772 0.1739228)(9.999143e-01 8.571918e-05))((0.999828591 0.000171409)(0.6666286 0.3333714)(0.0003427005 0.9996572995)))(((0.7499571 0.2500429)(0.8235164 0.1764836)(0.8332952 0.1667048))((0.9996572995 0.0003427005)(0.9996572995 0.0003427005)(0.5 0.5)))(((9.999429e-01 5.714939e-05)(9.999429e-01 5.714939e-05)(0.6666286 0.3333714))((0.5 0.5)(0.999828591 0.000171409)(0.9996572995 0.0003427005)))))(((((0.8332952 0.1667048)(0.7391233 0.2608767)(0.7142647 0.2857353))((0.5 0.5)(9.999143e-01 8.571918e-05)(0.5 0.5)))(((0.5 0.5)(0.7727188 0.2272812)(0.666654 0.333346))((0.5 0.5)(0.999828591 0.000171409)(0.5 0.5)))(((0.9996572995 0.0003427005)(0.7142647 0.2857353)(9.999143e-01 8.571918e-05))((0.5 0.5)(0.999828591 0.000171409)(0.5 0.5))))((((0.5555513 0.4444487)(0.7407346 0.2592654)(0.8999726 0.1000274))((0.7499571 0.2500429)(0.9996572995 0.0003427005)(0.999828591 0.000171409)))(((9.999429e-01 5.714939e-05)(0.8420929 0.1579071)(0.7777566 0.2222434))((0.0003427005 0.9996572995)(0.6666286 0.3333714)(0.999828591 0.000171409)))(((0.7999589 0.2000411)(0.7499786 0.2500214)(9.999143e-01 8.571918e-05))((0.5 0.5)(0.5 0.5)(0.9996572995 0.0003427005))))((((0.9998857143 0.0001142857)(0.8333143 0.1666857)(0.999828591 0.000171409))((0.5 0.5)(0.5 0.5)(0.9996572995 0.0003427005)))(((0.5 0.5)(0.6666476 0.3333524)(0.5 0.5))((0.5 0.5)(0.9996572995 0.0003427005)(0.9996572995 0.0003427005)))(((0.0003427005 0.9996572995)(0.9996572995 0.0003427005)(0.9996572995 0.0003427005))((0.5 0.5)(0.5 0.5)(0.0003427005 0.9996572995)))))(((((0.666654 0.333346)(0.8420929 0.1579071)(0.6999863 0.3000137))((0.5 0.5)(0.9996572995 0.0003427005)(0.5 0.5)))(((0.8749679 0.1250321)(0.8749839 0.1250161)(0.8332952 0.1667048))((0.9996572995 0.0003427005)(0.999828591 0.000171409)(0.5 0.5)))(((0.5 0.5)(0.6249893 0.3750107)(0.6666286 0.3333714))((0.5 0.5)(0.9996572995 0.0003427005)(0.5 0.5))))((((0.818162 0.181838)(0.863625 0.136375)(9.999571e-01 4.286327e-05))((0.5 0.5)(0.5 0.5)(0.0003427005 0.9996572995)))(((0.6666476 0.3333524)(0.7777672 0.2222328)(9.999510e-01 4.898599e-05))((0.5 0.5)(0.5999863 0.4000137)(0.5 0.5)))(((0.8749679 0.1250321)(0.7499857 0.2500143)(0.999828591 0.000171409))((0.0003427005 0.9996572995)(0.9998857143 0.0001142857)(0.5 0.5))))((((0.999828591 0.000171409)(0.6666476 0.3333524)(0.999828591 0.000171409))((0.999828591 0.000171409)(0.5 0.5)(0.5 0.5)))(((0.5 0.5)(9.999429e-01 5.714939e-05)(0.9996572995 0.0003427005))((0.9996572995 0.0003427005)(0.9996572995 0.0003427005)(0.5 0.5)))(((0.999828591 0.000171409)(0.999828591 0.000171409)(0.9996572995 0.0003427005))((0.5 0.5)(0.5 0.5)(0.5 0.5)))))))(((((((0.9998857143 0.0001142857)(0.666654 0.333346)(0.7499571 0.2500429))((0.5 0.5)(0.5 0.5)(0.5 0.5)))(((0.6666476 0.3333524)(0.7499786 0.2500214)(0.8332952 0.1667048))((0.9996572995 0.0003427005)(0.999828591 0.000171409)(0.9996572995 0.0003427005)))(((0.5 0.5)(0.9998857143 0.0001142857)(0.5999863 0.4000137))((0.5 0.5)(0.9996572995 0.0003427005)(0.5 0.5))))((((0.818162 0.181838)(0.7272586 0.2727414)(0.8332952 0.1667048))((9.999143e-01 8.571918e-05)(0.0003427005 0.9996572995)(0.9996572995 0.0003427005)))(((0.9996572995 0.0003427005)(0.7272586 0.2727414)(9.999143e-01 8.571918e-05))((0.5 0.5)(0.9996572995 0.0003427005)(0.9996572995 0.0003427005)))(((0.9996572995 0.0003427005)(0.666654 0.333346)(0.999828591 0.000171409))((0.9996572995 0.0003427005)(0.5 0.5)(0.5 0.5))))((((0.5 0.5)(9.999143e-01 8.571918e-05)(0.6666286 0.3333714))((0.5 0.5)(0.5 0.5)(0.5 0.5)))(((0.9996572995 0.0003427005)(0.999828591 0.000171409)(0.6666286 0.3333714))((0.5 0.5)(0.5 0.5)(0.9996572995 0.0003427005)))(((0.0003427005 0.9996572995)(0.9998857143 0.0001142857)(0.5 0.5))((0.5 0.5)(0.5 0.5)(0.0003427005 0.9996572995)))))(((((9.999143e-01 8.571918e-05)(0.5714216 0.4285784)(0.5 0.5))((0.0003427005 0.9996572995)(0.5 0.5)(0.5 0.5)))(((0.9998857143 0.0001142857)(0.6249893 0.3750107)(0.999828591 0.000171409))((0.5 0.5)(0.5 0.5)(0.5 0.5)))(((0.5 0.5)(0.3333714 0.6666286)(0.999828591 0.000171409))((0.5 0.5)(0.999828591 0.000171409)(0.5 0.5))))((((0.5999863 0.4000137)(0.7999794 0.2000206)(0.9996572995 0.0003427005))((0.5 0.5)(0.5 0.5)(0.5 0.5)))(((0.6666286 0.3333714)(0.8332952 0.1667048)(0.999828591 0.000171409))((0.9996572995 0.0003427005)(0.5 0.5)(0.5 0.5)))(((0.999828591 0.000171409)(0.5 0.5)(0.9996572995 0.0003427005))((0.5 0.5)(0.9996572995 0.0003427005)(0.5 0.5))))((((0.9996572995 0.0003427005)(0.9996572995 0.0003427005)(0.9996572995 0.0003427005))((0.5 0.5)(0.5 0.5)(0.5 0.5)))(((0.9996572995 0.0003427005)(0.9998857143 0.0001142857)(0.9996572995 0.0003427005))((0.5 0.5)(0.9996572995 0.0003427005)(0.5 0.5)))(((0.9996572995 0.0003427005)(0.0003427005 0.9996572995)(0.5 0.5))((0.5 0.5)(0.9996572995 0.0003427005)(0.5 0.5)))))(((((0.5 0.5)(0.5714216 0.4285784)(0.0003427005 0.9996572995))((0.9996572995 0.0003427005)(0.5 0.5)(0.5 0.5)))(((0.9998857143 0.0001142857)(0.5714216 0.4285784)(0.9996572995 0.0003427005))((0.0003427005 0.9996572995)(0.9996572995 0.0003427005)(0.5 0.5)))(((0.9996572995 0.0003427005)(0.9996572995 0.0003427005)(0.7499571 0.2500429))((0.5 0.5)(0.9996572995 0.0003427005)(0.5 0.5))))((((0.999828591 0.000171409)(0.8571079 0.1428921)(0.999828591 0.000171409))((0.9996572995 0.0003427005)(0.5 0.5)(0.5 0.5)))(((0.999828591 0.000171409)(9.999510e-01 4.898599e-05)(0.5999863 0.4000137))((0.5 0.5)(0.5 0.5)(0.5 0.5)))(((0.5 0.5)(0.9996572995 0.0003427005)(0.9996572995 0.0003427005))((0.5 0.5)(0.5 0.5)(0.5 0.5))))((((0.9998857143 0.0001142857)(0.3333714 0.6666286)(0.9996572995 0.0003427005))((0.5 0.5)(0.5 0.5)(0.5 0.5)))(((0.9996572995 0.0003427005)(0.5 0.5)(0.5 0.5))((0.5 0.5)(0.0003427005 0.9996572995)(0.9996572995 0.0003427005)))(((0.9996572995 0.0003427005)(0.5 0.5)(0.5 0.5))((0.5 0.5)(0.5 0.5)(0.5 0.5))))))((((((0.8888593 0.1111407)(0.7777672 0.2222328)(0.7499786 0.2500214))((0.9996572995 0.0003427005)(0.9996572995 0.0003427005)(0.5 0.5)))(((0.5 0.5)(0.7368336 0.2631664)(0.7499571 0.2500429))((0.9996572995 0.0003427005)(0.5 0.5)(0.9996572995 0.0003427005)))(((0.4000137 0.5999863)(0.666654 0.333346)(0.9999314223 0.0000685777))((0.5 0.5)(0.9996572995 0.0003427005)(0.5 0.5))))((((0.8332952 0.1667048)(0.92306576 0.07693424)(0.9090654 0.0909346))((0.5 0.5)(9.999143e-01 8.571918e-05)(0.9996572995 0.0003427005)))(((0.6428501 0.3571499)(0.6521694 0.3478306)(0.8332952 0.1667048))((0.9996572995 0.0003427005)(0.9996572995 0.0003427005)(0.9996572995 0.0003427005)))(((0.7142647 0.2857353)(0.8666499 0.1333501)(0.6666286 0.3333714))((0.9996572995 0.0003427005)(0.999828591 0.000171409)(0.5 0.5))))((((0.999828591 0.000171409)(0.9999657088 0.0000342912)(0.9996572995 0.0003427005))((0.9996572995 0.0003427005)(0.5 0.5)(0.5 0.5)))(((9.999429e-01 5.714939e-05)(0.5999863 0.4000137)(0.9998857143 0.0001142857))((0.5 0.5)(0.9996572995 0.0003427005)(0.0003427005 0.9996572995)))(((0.5 0.5)(0.6666286 0.3333714)(0.5 0.5))((0.5 0.5)(0.5 0.5)(0.5 0.5)))))(((((0.7499571 0.2500429)(0.6666476 0.3333524)(0.999828591 0.000171409))((0.5 0.5)(0.999828591 0.000171409)(0.9996572995 0.0003427005)))(((0.9999314223 0.0000685777)(9.999429e-01 5.714939e-05)(0.5999863 0.4000137))((0.5 0.5)(0.5 0.5)(0.0003427005 0.9996572995)))(((0.9996572995 0.0003427005)(0.9998857143 0.0001142857)(9.999143e-01 8.571918e-05))((0.5 0.5)(0.999828591 0.000171409)(0.5 0.5))))((((0.999828591 0.000171409)(0.5714216 0.4285784)(0.7499571 0.2500429))((0.5 0.5)(0.5 0.5)(0.5 0.5)))(((0.5 0.5)(0.666659 0.333341)(0.5 0.5))((0.5 0.5)(0.9996572995 0.0003427005)(0.9996572995 0.0003427005)))(((0.0003427005 0.9996572995)(9.999619e-01 3.810104e-05)(0.9996572995 0.0003427005))((0.5 0.5)(0.9996572995 0.0003427005)(0.5 0.5))))((((0.9996572995 0.0003427005)(0.5 0.5)(0.000171409 0.999828591))((0.5 0.5)(0.999828591 0.000171409)(0.5 0.5)))(((0.5 0.5)(0.7499571 0.2500429)(0.5 0.5))((0.5 0.5)(0.0003427005 0.9996572995)(0.5 0.5)))(((0.999828591 0.000171409)(0.9998857143 0.0001142857)(0.5 0.5))((0.5 0.5)(0.5 0.5)(0.5 0.5)))))(((((9.999429e-01 5.714939e-05)(0.7777566 0.2222434)(0.999828591 0.000171409))((0.9996572995 0.0003427005)(0.5 0.5)(0.5 0.5)))(((0.5 0.5)(0.7777566 0.2222434)(9.999143e-01 8.571918e-05))((0.9996572995 0.0003427005)(0.6666286 0.3333714)(0.9996572995 0.0003427005)))(((0.5 0.5)(9.999429e-01 5.714939e-05)(0.5 0.5))((0.5 0.5)(0.9996572995 0.0003427005)(0.5 0.5))))((((0.5999863 0.4000137)(0.9230546 0.0769454)(0.6666286 0.3333714))((0.9996572995 0.0003427005)(0.999828591 0.000171409)(0.5 0.5)))(((0.8749679 0.1250321)(0.8124866 0.1875134)(0.8888593 0.1111407))((0.5 0.5)(0.7499571 0.2500429)(0.6666286 0.3333714)))(((0.5 0.5)(0.5 0.5)(0.7999589 0.2000411))((0.5 0.5)(0.5 0.5)(0.9996572995 0.0003427005))))((((0.9998857143 0.0001142857)(0.999828591 0.000171409)(0.5 0.5))((0.9996572995 0.0003427005)(0.5 0.5)(0.5 0.5)))(((0.5 0.5)(9.999429e-01 5.714939e-05)(0.999828591 0.000171409))((0.5 0.5)(0.9996572995 0.0003427005)(0.9996572995 0.0003427005)))(((0.0003427005 0.9996572995)(0.5 0.5)(0.9996572995 0.0003427005))((0.5 0.5)(0.5 0.5)(0.5 0.5))))))((((((0.0003427005 0.9996572995)(0.5 0.5)(0.5 0.5))((0.5 0.5)(0.5 0.5)(0.5 0.5)))(((0.9996572995 0.0003427005)(0.8749679 0.1250321)(0.9998857143 0.0001142857))((0.5 0.5)(0.5 0.5)(0.5 0.5)))(((0.9996572995 0.0003427005)(0.0003427005 0.9996572995)(0.9996572995 0.0003427005))((0.9996572995 0.0003427005)(0.5 0.5)(0.5 0.5))))((((0.999828591 0.000171409)(0.6999863 0.3000137)(0.5 0.5))((0.9996572995 0.0003427005)(0.9996572995 0.0003427005)(0.5 0.5)))(((0.7999589 0.2000411)(0.8749679 0.1250321)(0.9996572995 0.0003427005))((0.9996572995 0.0003427005)(0.5 0.5)(0.5 0.5)))(((0.0003427005 0.9996572995)(0.9999314223 0.0000685777)(0.5 0.5))((0.5 0.5)(0.9996572995 0.0003427005)(0.5 0.5))))((((0.5 0.5)(0.5 0.5)(0.5 0.5))((0.5 0.5)(0.5 0.5)(0.5 0.5)))(((0.5 0.5)(0.0003427005 0.9996572995)(0.9998857143 0.0001142857))((0.5 0.5)(0.5 0.5)(0.5 0.5)))(((0.9996572995 0.0003427005)(0.5 0.5)(0.5 0.5))((0.5 0.5)(0.5 0.5)(0.5 0.5)))))(((((0.5 0.5)(0.999828591 0.000171409)(0.5 0.5))((0.5 0.5)(0.5 0.5)(0.5 0.5)))(((0.9996572995 0.0003427005)(0.6666286 0.3333714)(0.5 0.5))((0.5 0.5)(0.9996572995 0.0003427005)(0.5 0.5)))(((0.5 0.5)(0.5 0.5)(0.5 0.5))((0.5 0.5)(0.5 0.5)(0.5 0.5))))((((0.9996572995 0.0003427005)(0.5 0.5)(0.0003427005 0.9996572995))((0.5 0.5)(0.5 0.5)(0.5 0.5)))(((0.5 0.5)(0.7999589 0.2000411)(0.5 0.5))((0.5 0.5)(0.5 0.5)(0.5 0.5)))(((0.5 0.5)(0.9996572995 0.0003427005)(0.9996572995 0.0003427005))((0.5 0.5)(0.5 0.5)(0.5 0.5))))((((0.5 0.5)(0.5 0.5)(0.5 0.5))((0.5 0.5)(0.5 0.5)(0.5 0.5)))(((0.5 0.5)(0.5 0.5)(0.9996572995 0.0003427005))((0.5 0.5)(0.5 0.5)(0.5 0.5)))(((0.5 0.5)(0.9996572995 0.0003427005)(0.5 0.5))((0.5 0.5)(0.5 0.5)(0.5 0.5)))))(((((0.5 0.5)(0.5 0.5)(0.5 0.5))((0.5 0.5)(0.5 0.5)(0.5 0.5)))(((0.9996572995 0.0003427005)(0.5 0.5)(0.5 0.5))((0.5 0.5)(0.5 0.5)(0.5 0.5)))(((0.5 0.5)(0.999828591 0.000171409)(0.5 0.5))((0.9996572995 0.0003427005)(0.5 0.5)(0.5 0.5))))((((0.9996572995 0.0003427005)(0.9999314223 0.0000685777)(0.9996572995 0.0003427005))((0.9996572995 0.0003427005)(0.5 0.5)(0.5 0.5)))(((0.999828591 0.000171409)(9.999143e-01 8.571918e-05)(0.999828591 0.000171409))((0.9996572995 0.0003427005)(0.5 0.5)(0.5 0.5)))(((0.9996572995 0.0003427005)(0.999828591 0.000171409)(0.9996572995 0.0003427005))((0.5 0.5)(0.5 0.5)(0.0003427005 0.9996572995))))((((0.5 0.5)(0.5 0.5)(0.9996572995 0.0003427005))((0.5 0.5)(0.5 0.5)(0.5 0.5)))(((0.5 0.5)(0.9996572995 0.0003427005)(0.9996572995 0.0003427005))((0.5 0.5)(0.5 0.5)(0.5 0.5)))(((0.5 0.5)(0.999828591 0.000171409)(0.5 0.5))((0.5 0.5)(0.5 0.5)(0.5 0.5)))))))(((((((0.93331352 0.06668648)(0.8214207 0.1785793)(0.5999931 0.4000069))((0.6666286 0.3333714)(0.9996572995 0.0003427005)(0.9998857143 0.0001142857)))(((0.7272586 0.2727414)(0.8965423 0.1034577)(0.818162 0.181838))((0.9996572995 0.0003427005)(0.9999314223 0.0000685777)(0.5 0.5)))(((0.6666476 0.3333524)(0.5833286 0.4166714)(0.5 0.5))((0.5 0.5)(0.5 0.5)(0.999828591 0.000171409))))((((0.7142647 0.2857353)(0.9302257 0.0697743)(0.7499857 0.2500143))((0.5 0.5)(0.999828591 0.000171409)(0.5 0.5)))(((0.8749679 0.1250321)(0.92306576 0.07693424)(0.6922975 0.3077025))((0.5 0.5)(0.7499571 0.2500429)(0.6666286 0.3333714)))(((0.5 0.5)(0.7999794 0.2000206)(0.9999314223 0.0000685777))((0.5 0.5)(0.9996572995 0.0003427005)(0.5 0.5))))((((0.7142647 0.2857353)(0.7999794 0.2000206)(0.7499571 0.2500429))((0.9996572995 0.0003427005)(0.0003427005 0.9996572995)(0.5 0.5)))(((0.5 0.5)(0.91664285 0.08335715)(0.4285784 0.5714216))((0.9996572995 0.0003427005)(0.9996572995 0.0003427005)(0.9996572995 0.0003427005)))(((0.5 0.5)(9.999143e-01 8.571918e-05)(0.9996572995 0.0003427005))((0.5 0.5)(0.5 0.5)(0.9996572995 0.0003427005)))))(((((0.7999589 0.2000411)(0.7499786 0.2500214)(0.9998857143 0.0001142857))((0.5 0.5)(0.9996572995 0.0003427005)(0.5 0.5)))(((9.999143e-01 8.571918e-05)(0.8888593 0.1111407)(0.3333714 0.6666286))((0.9996572995 0.0003427005)(0.9996572995 0.0003427005)(0.5 0.5)))(((0.999828591 0.000171409)(0.999828591 0.000171409)(0.999828591 0.000171409))((0.5 0.5)(0.5 0.5)(0.5 0.5))))((((0.5 0.5)(0.7499893 0.2500107)(0.5714216 0.4285784))((0.9996572995 0.0003427005)(0.9999314223 0.0000685777)(0.999828591 0.000171409)))(((0.5999863 0.4000137)(0.7777672 0.2222328)(0.5714216 0.4285784))((0.9996572995 0.0003427005)(0.9996572995 0.0003427005)(0.5 0.5)))(((0.9996572995 0.0003427005)(0.5999931 0.4000069)(0.7499571 0.2500429))((0.5 0.5)(0.9996572995 0.0003427005)(0.5 0.5))))((((0.9996572995 0.0003427005)(0.7999794 0.2000206)(9.999143e-01 8.571918e-05))((0.5 0.5)(0.9998857143 0.0001142857)(0.5 0.5)))(((0.6666286 0.3333714)(0.6666286 0.3333714)(0.999828591 0.000171409))((0.5 0.5)(0.5 0.5)(0.5 0.5)))(((0.9996572995 0.0003427005)(9.999510e-01 4.898599e-05)(0.999828591 0.000171409))((0.5 0.5)(0.5 0.5)(0.5 0.5)))))(((((0.6666286 0.3333714)(0.6666571 0.3333429)(9.999143e-01 8.571918e-05))((0.5 0.5)(0.5 0.5)(0.5 0.5)))(((0.9999314223 0.0000685777)(0.7272586 0.2727414)(0.9999657088 0.0000342912))((0.5 0.5)(0.5 0.5)(0.5 0.5)))(((0.9996572995 0.0003427005)(0.7999589 0.2000411)(0.0003427005 0.9996572995))((0.5 0.5)(0.9996572995 0.0003427005)(0.5 0.5))))((((0.6666286 0.3333714)(0.7142787 0.2857213)(9.999619e-01 3.810104e-05))((0.9996572995 0.0003427005)(0.5 0.5)(0.9998857143 0.0001142857)))(((0.8332952 0.1667048)(0.7999863 0.2000137)(0.9996572995 0.0003427005))((0.5 0.5)(0.9999314223 0.0000685777)(0.5 0.5)))(((0.6666286 0.3333714)(0.8888593 0.1111407)(0.9996572995 0.0003427005))((0.5 0.5)(0.9996572995 0.0003427005)(0.5 0.5))))((((0.5 0.5)(0.5999863 0.4000137)(0.5 0.5))((0.5 0.5)(0.0003427005 0.9996572995)(0.5 0.5)))(((0.999828591 0.000171409)(9.999429e-01 5.714939e-05)(0.7999589 0.2000411))((0.9996572995 0.0003427005)(0.5 0.5)(0.5 0.5)))(((0.0003427005 0.9996572995)(0.9998857143 0.0001142857)(0.5 0.5))((0.5 0.5)(0.5 0.5)(0.5 0.5))))))((((((0.7222138 0.2777862)(0.790693 0.209307)(0.8749839 0.1250161))((0.8749679 0.1250321)(9.999510e-01 4.898599e-05)(0.6666286 0.3333714)))(((9.999688e-01 3.117401e-05)(0.7666606 0.2333394)(0.863625 0.136375))((0.9996572995 0.0003427005)(0.999828591 0.000171409)(0.9998857143 0.0001142857)))(((9.999571e-01 4.286327e-05)(0.8148068 0.1851932)(0.9999657088 0.0000342912))((0.5 0.5)(0.7999589 0.2000411)(0.5 0.5))))((((0.94998457 0.05001543)(0.8055526 0.1944474)(0.7307631 0.2692369))((0.9998857143 0.0001142857)(0.8888593 0.1111407)(0.999828591 0.000171409)))(((0.6956463 0.3043537)(0.8536526 0.1463474)(0.8518429 0.1481571))((0.999828591 0.000171409)(0.7499571 0.2500429)(0.9996572995 0.0003427005)))(((0.8571254 0.1428746)(0.7499914 0.2500086)(0.6922975 0.3077025))((0.9996572995 0.0003427005)(0.999828591 0.000171409)(0.5 0.5))))((((0.5999863 0.4000137)(0.7692166 0.2307834)(0.7999589 0.2000411))((0.9996572995 0.0003427005)(0.9996572995 0.0003427005)(0.9996572995 0.0003427005)))(((9.999619e-01 3.810104e-05)(0.8235164 0.1764836)(0.7142647 0.2857353))((0.5 0.5)(0.9996572995 0.0003427005)(0.5 0.5)))(((0.999828591 0.000171409)(9.999688e-01 3.117401e-05)(0.5 0.5))((0.5 0.5)(0.5 0.5)(0.9996572995 0.0003427005)))))(((((0.8571079 0.1428921)(0.90474869 0.09525131)(9.999510e-01 4.898599e-05))((0.5 0.5)(0.7499571 0.2500429)(0.5 0.5)))(((0.4285784 0.5714216)(0.6249973 0.3750027)(0.7857003 0.2142997))((0.0003427005 0.9996572995)(0.9996572995 0.0003427005)(0.9996572995 0.0003427005)))(((0.9998857143 0.0001142857)(0.6666476 0.3333524)(0.999828591 0.000171409))((0.5 0.5)(0.9996572995 0.0003427005)(0.5 0.5))))((((0.7368336 0.2631664)(0.7307631 0.2692369)(0.6470529 0.3529471))((0.5 0.5)(0.5 0.5)(0.6666286 0.3333714)))(((0.8333143 0.1666857)(0.8518429 0.1481571)(0.818162 0.181838))((0.5 0.5)(0.999828591 0.000171409)(0.0003427005 0.9996572995)))(((0.9998857143 0.0001142857)(0.8571254 0.1428746)(0.0003427005 0.9996572995))((0.9996572995 0.0003427005)(0.9996572995 0.0003427005)(0.5 0.5))))((((0.5999863 0.4000137)(9.999429e-01 5.714939e-05)(0.6666476 0.3333524))((0.5 0.5)(0.9996572995 0.0003427005)(0.5 0.5)))(((0.3333714 0.6666286)(0.8333143 0.1666857)(0.2500429 0.7499571))((0.5 0.5)(0.999828591 0.000171409)(0.5 0.5)))(((0.5 0.5)(0.7499571 0.2500429)(0.999828591 0.000171409))((0.5 0.5)(0.5 0.5)(0.5 0.5)))))(((((9.999510e-01 4.898599e-05)(0.687492 0.312508)(0.8332952 0.1667048))((0.0003427005 0.9996572995)(0.9998857143 0.0001142857)(0.5999863 0.4000137)))(((0.7142647 0.2857353)(0.7692166 0.2307834)(9.999571e-01 4.286327e-05))((0.5 0.5)(0.9996572995 0.0003427005)(0.9996572995 0.0003427005)))(((0.6666286 0.3333714)(9.999429e-01 5.714939e-05)(0.9999314223 0.0000685777))((0.5 0.5)(0.6666286 0.3333714)(0.5 0.5))))((((0.5714216 0.4285784)(0.8399907 0.1600093)(0.8333143 0.1666857))((0.5 0.5)(0.9998857143 0.0001142857)(0.5 0.5)))(((0.5 0.5)(0.95453128 0.04546872)(0.7692166 0.2307834))((0.9998857143 0.0001142857)(0.0003427005 0.9996572995)(0.000171409 0.999828591)))(((0.5 0.5)(0.6363551 0.3636449)(0.999828591 0.000171409))((0.5 0.5)(0.5 0.5)(0.999828591 0.000171409))))((((0.9998857143 0.0001142857)(0.6666476 0.3333524)(0.7499786 0.2500214))((0.5 0.5)(0.0003427005 0.9996572995)(0.9996572995 0.0003427005)))(((0.2500429 0.7499571)(0.5 0.5)(0.9998857143 0.0001142857))((0.5 0.5)(0.9998857143 0.0001142857)(0.5 0.5)))(((0.5 0.5)(0.0003427005 0.9996572995)(0.9996572995 0.0003427005))((0.5 0.5)(0.9996572995 0.0003427005)(0.999828591 0.000171409))))))((((((0.5999863 0.4000137)(0.5 0.5)(0.7999794 0.2000206))((0.5 0.5)(0.9996572995 0.0003427005)(0.9998857143 0.0001142857)))(((0.5 0.5)(0.8571254 0.1428746)(0.5714216 0.4285784))((0.9996572995 0.0003427005)(0.9996572995 0.0003427005)(0.5 0.5)))(((0.7499571 0.2500429)(0.999828591 0.000171409)(0.9998857143 0.0001142857))((0.5 0.5)(0.999828591 0.000171409)(0.5 0.5))))((((0.9999314223 0.0000685777)(0.7894632 0.2105368)(9.999619e-01 3.810104e-05))((0.5 0.5)(0.9998857143 0.0001142857)(0.9996572995 0.0003427005)))(((0.7999794 0.2000206)(0.8749679 0.1250321)(0.2500429 0.7499571))((0.5 0.5)(0.9996572995 0.0003427005)(0.5 0.5)))(((0.5 0.5)(0.7499786 0.2500214)(0.6666286 0.3333714))((0.5 0.5)(0.5 0.5)(0.9996572995 0.0003427005))))((((0.6666286 0.3333714)(0.6249893 0.3750107)(0.9996572995 0.0003427005))((0.5 0.5)(0.9996572995 0.0003427005)(0.9996572995 0.0003427005)))(((0.9996572995 0.0003427005)(0.7499571 0.2500429)(0.0003427005 0.9996572995))((0.5 0.5)(0.9996572995 0.0003427005)(0.9996572995 0.0003427005)))(((0.5 0.5)(0.0003427005 0.9996572995)(0.5 0.5))((0.5 0.5)(0.5 0.5)(0.5 0.5)))))(((((0.9996572995 0.0003427005)(0.5 0.5)(0.9996572995 0.0003427005))((0.9996572995 0.0003427005)(0.999828591 0.000171409)(0.9996572995 0.0003427005)))(((0.6666286 0.3333714)(0.7999589 0.2000411)(0.999828591 0.000171409))((0.5 0.5)(0.9996572995 0.0003427005)(0.9996572995 0.0003427005)))(((0.5 0.5)(0.999828591 0.000171409)(0.5 0.5))((0.5 0.5)(0.5 0.5)(0.5 0.5))))((((0.999828591 0.000171409)(0.8571079 0.1428921)(0.999828591 0.000171409))((0.5 0.5)(0.5 0.5)(0.6666286 0.3333714)))(((0.5 0.5)(0.5 0.5)(0.5 0.5))((0.5 0.5)(0.5 0.5)(0.5 0.5)))(((0.999828591 0.000171409)(0.6666286 0.3333714)(0.9996572995 0.0003427005))((0.5 0.5)(0.5 0.5)(0.5 0.5))))((((0.999828591 0.000171409)(0.9998857143 0.0001142857)(0.5 0.5))((0.5 0.5)(0.5 0.5)(0.5 0.5)))(((0.5 0.5)(0.0003427005 0.9996572995)(0.5 0.5))((0.5 0.5)(0.9996572995 0.0003427005)(0.5 0.5)))(((0.5 0.5)(0.5 0.5)(0.5 0.5))((0.5 0.5)(0.5 0.5)(0.5 0.5)))))(((((0.7999589 0.2000411)(9.999429e-01 5.714939e-05)(0.7499571 0.2500429))((0.999828591 0.000171409)(0.5 0.5)(0.5 0.5)))(((0.9996572995 0.0003427005)(0.6666286 0.3333714)(0.5 0.5))((0.5 0.5)(0.0003427005 0.9996572995)(0.5 0.5)))(((0.9996572995 0.0003427005)(0.9996572995 0.0003427005)(0.999828591 0.000171409))((0.5 0.5)(0.5 0.5)(0.5 0.5))))((((0.999828591 0.000171409)(9.999143e-01 8.571918e-05)(0.7499571 0.2500429))((0.9996572995 0.0003427005)(0.5 0.5)(0.9996572995 0.0003427005)))(((0.2500429 0.7499571)(0.7142647 0.2857353)(0.5 0.5))((0.5 0.5)(0.9996572995 0.0003427005)(0.5 0.5)))(((0.5 0.5)(0.5 0.5)(0.9996572995 0.0003427005))((0.5 0.5)(0.5 0.5)(0.9996572995 0.0003427005))))((((0.5 0.5)(0.5 0.5)(0.5 0.5))((0.5 0.5)(0.0003427005 0.9996572995)(0.9996572995 0.0003427005)))(((0.0003427005 0.9996572995)(0.999828591 0.000171409)(0.9996572995 0.0003427005))((0.5 0.5)(0.9996572995 0.0003427005)(0.9996572995 0.0003427005)))(((0.5 0.5)(0.5 0.5)(0.5 0.5))((0.9996572995 0.0003427005)(0.5 0.5)(0.0003427005 0.9996572995)))))))) ;
}
potential ( Extruderdruck | ExtruderRPM ) 
{
  data = ((0.3105055 0.5546222 0.1348723)(0.3123792 0.5582938 0.1293270)(0.3264418 0.5331867 0.1403715)) ;
}
potential ( ExtruderRPM ) 
{
  data = ( 0.5197814 0.2529080 0.2273106 );
}
potential ( Gardineneffekt | AnstroemwinkelKern Artikelgewicht Ausstossgeschw DuesenKernkombination Extruderdruck ExtruderRPM TempDueseKopf ) 
{
  data = ((((((((0.142867 0.857133)(0.2500482 0.7499518))((0.4000051 0.5999949)(0.5 0.5))((0.1852032 0.8147968)(0.0001542734 0.9998457266)))(((0.2826123 0.7173877)(0.3636459 0.6363541))((0.2381049 0.7618951)(0.2308012 0.7691988))((0.2142962 0.7857038)(0.1333711 0.8666289)))(((0.1818405 0.8181595)(0.666581 0.333419))((0.09096647 0.90903353)(0.2500964 0.7499036))((0.2500964 0.7499036)(0.000770416 0.999229584))))((((0.4000077 0.5999923)(0.4000309 0.5999691))((0.5 0.5)(0.999229584 0.000770416))((0.2222698 0.7777302)(0.5 0.5)))(((0.2619135 0.7380865)(0.1250723 0.8749277))((0.1111778 0.8888222)(0.000110205 0.999889795))((0.3750121 0.6249879)(0.5 0.5)))(((0.0001285678 0.9998714322)(0.000770416 0.999229584))((0.2000926 0.7999074)(0.000770416 0.999229584))((0.999229584 0.000770416)(0.000385505 0.999614495)))))(((((0.2209969 0.7790031)(0.2381049 0.7618951))((0.2659613 0.7340387)(0.4285793 0.5714207))((0.2352989 0.7647011)(0.2500241 0.7499759)))(((0.2794128 0.7205872)(0.1910166 0.8089834))((0.2643699 0.7356301)(0.3000077 0.6999923))((0.2585059 0.7414941)(0.2500096 0.7499904)))(((0.2133392 0.7866608)(0.2000231 0.7999769))((0.3142939 0.6857061)(0.2857615 0.7142385))((0.1875151 0.8124849)(0.1250723 0.8749277))))((((0.2168727 0.7831273)(0.2500193 0.7499807))((0.2580766 0.7419234)(0.1429359 0.8570641))((0.2500121 0.7499879)(0.0002570694 0.9997429306)))(((0.2335796 0.7664204)(0.3846222 0.6153778))((0.307698 0.692302)(0.2500482 0.7499518))((0.1764804 0.8235196)(0.1667095 0.8332905)))(((0.3077037 0.6922963)(0.5 0.5))((0.3077151 0.6922849)(0.1667524 0.8332476))((0.2500321 0.7499679)(0.000385505 0.999614495)))))(((((0.1935636 0.8064364)(0.000770416 0.999229584))((0.1667095 0.8332905)(0.0001542734 0.9998457266))((0.2222698 0.7777302)(0.0002570694 0.9997429306)))(((0.2702799 0.7297201)(0.4285872 0.5714128))((0.1904989 0.8095011)(0.2857615 0.7142385))((0.2143172 0.7856828)(0.000385505 0.999614495)))(((0.2857615 0.7142385)(0.5 0.5))((0.5 0.5)(0.5 0.5))((0.444454 0.555546)(0.000770416 0.999229584))))((((0.3750241 0.6249759)(0.999229584 0.000770416))((0.000385505 0.999614495)(0.000770416 0.999229584))((0.5 0.5)(0.000385505 0.999614495)))(((0.3333548 0.6666452)(0.7499036 0.2500964))((0.2857615 0.7142385)(0.000385505 0.999614495))((0.5 0.5)(0.000385505 0.999614495)))(((0.333419 0.666581)(0.000770416 0.999229584))((0.333419 0.666581)(0.5 0.5))((0.000770416 0.999229584)(0.5 0.5))))))((((((0.2500964 0.7499036)(0.000385505 0.999614495))((0.333419 0.666581)(0.000770416 0.999229584))((0.5 0.5)(0.000385505 0.999614495)))(((0.2727592 0.7272408)(0.0001928268 0.9998071732))((0.4000309 0.5999691)(0.5 0.5))((0.000110205 0.999889795)(0.5 0.5)))(((0.2857615 0.7142385)(0.000385505 0.999614495))((0.000385505 0.999614495)(0.000770416 0.999229584))((0.5 0.5)(0.000770416 0.999229584))))((((0.5 0.5)(0.999229584 0.000770416))((0.666581 0.333419)(0.5 0.5))((0.000770416 0.999229584)(0.5 0.5)))(((0.2500964 0.7499036)(0.999229584 0.000770416))((0.000385505 0.999614495)(0.000770416 0.999229584))((0.000385505 0.999614495)(0.5 0.5)))(((0.5 0.5)(0.000770416 0.999229584))((0.5 0.5)(0.5 0.5))((0.999229584 0.000770416)(0.5 0.5)))))(((((0.2727432 0.7272568)(0.4000309 0.5999691))((0.1818628 0.8181372)(0.999229584 0.000770416))((5.934718e-05 9.999407e-01)(0.0002570694 0.9997429306)))(((0.1579086 0.8420914)(0.2857615 0.7142385))((0.160021 0.839979)(0.1429359 0.8570641))((0.1875301 0.8124699)(0.07697329 0.92302671)))(((0.2222698 0.7777302)(0.666581 0.333419))((0.5 0.5)(0.5 0.5))((0.2857615 0.7142385)(0.5 0.5))))((((0.4000154 0.5999846)(0.2500964 0.7499036))((0.5 0.5)(0.5 0.5))((0.2500964 0.7499036)(0.000770416 0.999229584)))(((0.09096647 0.90903353)(0.2000926 0.7999074))((0.0001928268 0.9998071732)(0.333419 0.666581))((0.000110205 0.999889795)(0.999229584 0.000770416)))(((0.4000309 0.5999691)(0.999229584 0.000770416))((0.5 0.5)(0.5 0.5))((0.5 0.5)(0.999229584 0.000770416)))))(((((0.0001928268 0.9998071732)(0.999614495 0.000385505))((0.000385505 0.999614495)(0.5 0.5))((0.0001542734 0.9998457266)(0.5 0.5)))(((0.5 0.5)(0.000385505 0.999614495))((0.5 0.5)(0.000770416 0.999229584))((0.5 0.5)(0.5 0.5)))(((0.5 0.5)(0.5 0.5))((0.5 0.5)(0.5 0.5))((0.5 0.5)(0.5 0.5))))((((0.5 0.5)(0.000770416 0.999229584))((0.000770416 0.999229584)(0.5 0.5))((0.5 0.5)(0.5 0.5)))(((0.000770416 0.999229584)(0.000770416 0.999229584))((0.000385505 0.999614495)(0.5 0.5))((0.000770416 0.999229584)(0.5 0.5)))(((0.5 0.5)(0.5 0.5))((0.5 0.5)(0.5 0.5))((0.5 0.5)(0.5 0.5))))))((((((0.4500039 0.5499961)(0.5 0.5))((0.0001542734 0.9998457266)(0.0001928268 0.9998071732))((0.5 0.5)(0.000770416 0.999229584)))(((0.5238078 0.4761922)(0.0001928268 0.9998071732))((0.2000309 0.7999691)(0.1667524 0.8332476))((0.2222698 0.7777302)(0.999614495 0.000385505)))(((0.5999846 0.4000154)(0.5 0.5))((0.000385505 0.999614495)(0.5 0.5))((0.0001928268 0.9998071732)(0.5 0.5))))((((0.5 0.5)(0.000770416 0.999229584))((0.2500964 0.7499036)(0.5 0.5))((0.5 0.5)(0.5 0.5)))(((0.2000463 0.7999537)(0.333419 0.666581))((0.0001285678 0.9998714322)(0.5 0.5))((0.666581 0.333419)(0.000770416 0.999229584)))(((0.5 0.5)(0.000770416 0.999229584))((0.000770416 0.999229584)(0.5 0.5))((0.000385505 0.999614495)(0.5 0.5)))))(((((0.2777841 0.7222159)(0.3000154 0.6999846))((0.1154074 0.8845926)(0.2500482 0.7499518))((0.3103549 0.6896451)(0.6249759 0.3750241)))(((0.2568842 0.7431158)(0.4000077 0.5999923))((0.4081662 0.5918338)(0.2143172 0.7856828))((0.4359 0.5641)(0.07697329 0.92302671)))(((0.2963079 0.7036921)(0.4000309 0.5999691))((0.3571586 0.6428414)(0.333419 0.666581))((0.2666907 0.7333093)(0.0002570694 0.9997429306))))((((0.3478363 0.6521637)(0.1667524 0.8332476))((0.2143172 0.7856828)(0.333419 0.666581))((0.2777968 0.7222032)(0.5 0.5)))(((0.3000103 0.6999897)(0.5 0.5))((0.1428965 0.8571035)(0.2000926 0.7999074))((0.2000309 0.7999691)(0.2000926 0.7999074)))(((0.4000154 0.5999846)(0.000385505 0.999614495))((0.333419 0.666581)(0.5 0.5))((0.0002570694 0.9997429306)(0.000770416 0.999229584)))))(((((0.444454 0.555546)(0.333419 0.666581))((0.666581 0.333419)(0.5 0.5))((0.333419 0.666581)(0.5 0.5)))(((0.1000617 0.8999383)(0.666581 0.333419))((0.0001928268 0.9998071732)(0.000770416 0.999229584))((0.2000926 0.7999074)(0.000770416 0.999229584)))(((0.000385505 0.999614495)(0.000770416 0.999229584))((0.000770416 0.999229584)(0.5 0.5))((0.000770416 0.999229584)(0.999229584 0.000770416))))((((0.0001542734 0.9998457266)(0.000770416 0.999229584))((0.999229584 0.000770416)(0.5 0.5))((0.0002570694 0.9997429306)(0.5 0.5)))(((0.5 0.5)(0.5 0.5))((0.2500964 0.7499036)(0.5 0.5))((0.000385505 0.999614495)(0.000770416 0.999229584)))(((0.5 0.5)(0.5 0.5))((0.5 0.5)(0.5 0.5))((0.000770416 0.999229584)(0.5 0.5)))))))(((((((0.223887 0.776113)(0.3158044 0.6841956))((0.2631675 0.7368325)(0.3571586 0.6428414))((0.2580766 0.7419234)(0.1000617 0.8999383)))(((0.1729361 0.8270639)(0.2174008 0.7825992))((0.2343814 0.7656186)(0.1904989 0.8095011))((0.1636458 0.8363542)(0.3333505 0.6666495)))(((0.2666787 0.7333213)(0.4285872 0.5714128))((0.1538872 0.8461128)(0.5 0.5))((0.222246 0.777754)(0.0001285678 0.9998714322))))((((0.2857261 0.7142739)(0.666581 0.333419))((0.2777968 0.7222032)(0.0001928268 0.9998071732))((0.3571586 0.6428414)(0.5 0.5)))(((0.2727336 0.7272664)(0.1333711 0.8666289))((0.3529545 0.6470455)(0.1111778 0.8888222))((0.3000103 0.6999897)(0.1667524 0.8332476)))(((0.3000154 0.6999846)(0.000770416 0.999229584))((0.0001542734 0.9998457266)(0.0002570694 0.9997429306))((0.2857615 0.7142385)(0.5 0.5)))))(((((0.240804 0.759196)(0.2098821 0.7901179))((0.1538503 0.8461497)(0.3947411 0.6052589))((0.2686594 0.7313406)(0.1315939 0.8684061)))(((0.2294784 0.7705216)(0.2647086 0.7352914))((0.255557 0.744443)(0.2297354 0.7702646))((0.2487067 0.7512933)(0.2500107 0.7499893)))(((0.2682956 0.7317044)(0.1111333 0.8888667))((0.2187568 0.7812432)(0.2308012 0.7691988))((0.1896634 0.8103366)(0.06671124 0.93328876))))((((0.2818212 0.7181788)(0.1579225 0.8420775))((0.2830252 0.7169748)(0.1579225 0.8420775))((0.1428684 0.8571316)(0.1538872 0.8461128)))(((0.273226 0.726774)(0.2264231 0.7735769))((0.2526356 0.7473644)(0.2222381 0.7777619))((0.2159141 0.7840859)(0.2143015 0.7856985)))(((0.2264231 0.7735769)(0.2500321 0.7499679))((0.2666787 0.7333213)(0.0002570694 0.9997429306))((0.3500116 0.6499884)(0.7499036 0.2500964)))))(((((0.2857237 0.7142763)(0.1111778 0.8888222))((0.06671124 0.93328876)(0.5 0.5))((0.4117727 0.5882273)(0.2500964 0.7499036)))(((0.1428684 0.8571316)(0.3333548 0.6666452))((0.3571507 0.6428493)(0.2000926 0.7999074))((0.2727592 0.7272408)(0.2500482 0.7499518)))(((0.1111778 0.8888222)(0.3750241 0.6249759))((0.3000309 0.6999691)(0.000385505 0.999614495))((6.429214e-05 9.999357e-01)(0.000385505 0.999614495))))((((0.2143172 0.7856828)(0.5714128 0.4285872))((0.5 0.5)(0.5 0.5))((0.2000926 0.7999074)(0.000770416 0.999229584)))(((0.2381145 0.7618855)(0.000110205 0.999889795))((0.3333762 0.6666238)(0.2857615 0.7142385))((0.3000309 0.6999691)(0.000385505 0.999614495)))(((0.1818628 0.8181372)(0.5 0.5))((0.999614495 0.000385505)(0.5 0.5))((0.999229584 0.000770416)(0.5 0.5))))))((((((0.555546 0.444454)(0.000770416 0.999229584))((0.2500964 0.7499036)(0.5 0.5))((0.2222698 0.7777302)(0.5 0.5)))(((0.2000309 0.7999691)(0.5 0.5))((0.2500321 0.7499679)(0.999229584 0.000770416))((0.1250362 0.8749638)(0.5 0.5)))(((8.571918e-05 9.999143e-01)(0.5 0.5))((0.000385505 0.999614495)(0.5 0.5))((0.5 0.5)(0.000385505 0.999614495))))((((0.999229584 0.000770416)(0.5 0.5))((0.000385505 0.999614495)(0.5 0.5))((0.000770416 0.999229584)(0.5 0.5)))(((0.2857615 0.7142385)(0.5 0.5))((0.333419 0.666581)(0.5 0.5))((0.333419 0.666581)(0.999229584 0.000770416)))(((0.5 0.5)(0.5 0.5))((0.5 0.5)(0.000770416 0.999229584))((0.5 0.5)(0.5 0.5)))))(((((0.2105381 0.7894619)(0.0001542734 0.9998457266))((0.2307852 0.7692148)(0.3333762 0.6666238))((0.2222698 0.7777302)(0.3333762 0.6666238)))(((0.3200037 0.6799963)(0.2143172 0.7856828))((0.1481683 0.8518317)(0.0001928268 0.9998071732))((0.2424363 0.7575637)(7.714859e-05 9.999229e-01)))(((0.08338691 0.91661309)(0.4000309 0.5999691))((0.4285872 0.5714128)(0.5 0.5))((0.1000617 0.8999383)(0.5 0.5))))((((0.3529545 0.6470455)(0.999229584 0.000770416))((0.4000309 0.5999691)(0.0002570694 0.9997429306))((0.2500482 0.7499518)(0.5 0.5)))(((0.1000309 0.8999691)(0.0001928268 0.9998071732))((0.2500964 0.7499036)(0.999614495 0.000385505))((0.222246 0.777754)(0.000385505 0.999614495)))(((0.2000926 0.7999074)(0.5 0.5))((0.666581 0.333419)(0.5 0.5))((0.2500964 0.7499036)(0.000770416 0.999229584)))))(((((0.5 0.5)(0.5 0.5))((0.000385505 0.999614495)(0.000770416 0.999229584))((0.7499036 0.2500964)(0.5 0.5)))(((0.1538872 0.8461128)(0.999229584 0.000770416))((0.0002570694 0.9997429306)(0.999229584 0.000770416))((0.666581 0.333419)(0.5 0.5)))(((0.5 0.5)(0.000385505 0.999614495))((0.5 0.5)(0.5 0.5))((0.000770416 0.999229584)(0.000770416 0.999229584))))((((0.5 0.5)(0.5 0.5))((0.999229584 0.000770416)(0.5 0.5))((0.5 0.5)(0.5 0.5)))(((0.000770416 0.999229584)(0.5 0.5))((0.5 0.5)(0.5 0.5))((0.5 0.5)(0.5 0.5)))(((0.5 0.5)(0.000770416 0.999229584))((0.5 0.5)(0.5 0.5))((0.5 0.5)(0.5 0.5))))))((((((0.2143015 0.7856985)(0.1667524 0.8332476))((0.5 0.5)(0.2857615 0.7142385))((0.2500482 0.7499518)(0.333419 0.666581)))(((0.2619135 0.7380865)(0.1667524 0.8332476))((0.2941363 0.7058637)(0.3333619 0.6666381))((0.1724312 0.8275688)(0.5 0.5)))(((0.3000309 0.6999691)(0.5 0.5))((0.000385505 0.999614495)(0.5 0.5))((0.5 0.5)(0.000385505 0.999614495))))((((0.5 0.5)(0.999229584 0.000770416))((0.5 0.5)(0.000770416 0.999229584))((0.7499036 0.2500964)(0.000770416 0.999229584)))(((0.2500482 0.7499518)(0.5 0.5))((0.2000463 0.7999537)(0.5 0.5))((0.5 0.5)(0.5 0.5)))(((0.2500964 0.7499036)(0.5 0.5))((0.000385505 0.999614495)(0.5 0.5))((0.5999691 0.4000309)(0.5 0.5)))))(((((0.268662 0.731338)(0.2174103 0.7825897))((0.1818331 0.8181669)(0.3333548 0.6666452))((0.3250068 0.6749932)(0.3333548 0.6666452)))(((0.2278508 0.7721492)(0.2258201 0.7741799))((0.3157932 0.6842068)(0.1333711 0.8666289))((0.3272776 0.6727224)(0.1875301 0.8124699)))(((0.1956624 0.8043376)(0.3077151 0.6922849))((0.3846291 0.6153709)(0.1429359 0.8570641))((0.5 0.5)(0.999614495 0.000385505))))((((0.2647166 0.7352834)(0.3333762 0.6666238))((0.2941363 0.7058637)(0.4000309 0.5999691))((0.09096647 0.90903353)(0.000385505 0.999614495)))(((0.2264231 0.7735769)(0.2631771 0.7368229))((0.275874 0.724126)(0.1667524 0.8332476))((0.05003472 0.94996528)(0.1111778 0.8888222)))(((0.07147581 0.92852419)(0.333419 0.666581))((9.643202e-05 9.999036e-01)(0.5 0.5))((0.1818628 0.8181372)(0.000385505 0.999614495)))))(((((0.2857615 0.7142385)(0.000385505 0.999614495))((0.2000926 0.7999074)(0.5 0.5))((0.2500964 0.7499036)(0.000770416 0.999229584)))(((0.06671124 0.93328876)(0.0001285678 0.9998714322))((0.1250723 0.8749277)(0.000385505 0.999614495))((0.1250723 0.8749277)(0.5 0.5)))(((0.333419 0.666581)(0.666581 0.333419))((0.000385505 0.999614495)(0.5 0.5))((0.000770416 0.999229584)(0.5 0.5))))((((0.0002570694 0.9997429306)(0.000770416 0.999229584))((0.000385505 0.999614495)(0.5 0.5))((0.0002570694 0.9997429306)(0.5 0.5)))(((0.2500482 0.7499518)(0.000385505 0.999614495))((0.333419 0.666581)(0.000770416 0.999229584))((0.0002570694 0.9997429306)(0.5 0.5)))(((0.666581 0.333419)(0.000770416 0.999229584))((0.5 0.5)(0.000770416 0.999229584))((0.5 0.5)(0.5 0.5)))))))) ;
}
potential ( GegendruckAKKU ) 
{
  data = ( 0.16731660 0.75885745 0.07382595 );
}
potential ( Heizzone1 ) 
{
  data = ( 0.2491084 0.6449689 0.1059227 );
}
potential ( Heizzone10 ) 
{
  data = ( 0.3135020 0.5520781 0.1344199 );
}
potential ( Heizzone11 ) 
{
  data = ( 0.5061827 0.2787055 0.2151118 );
}
potential ( Heizzone12 ) 
{
  data = ( 0.3997934 0.4248908 0.1753158 );
}
potential ( Heizzone13 ) 
{
  data = ( 0.4458887 0.3682965 0.1858148 );
}
potential ( Heizzone14 ) 
{
  data = ( 0.3441989 0.5068827 0.1489184 );
}
potential ( Heizzone2 ) 
{
  data = ( 0.4307903 0.3778955 0.1913142 );
}
potential ( Heizzone3 ) 
{
  data = ( 0.4541879 0.3563977 0.1894144 );
}
potential ( Heizzone4 ) 
{
  data = ( 0.4304903 0.3792954 0.1902143 );
}
potential ( KontaminationDuese | VerunreinRohstoff ) 
{
  data = ((0.4789716 0.5210284)(0.486908 0.513092)) ;
}
potential ( KontaminationExtruder | VerunreinRohstoff ) 
{
  data = ((0.1727377 0.8272623)(0.1596072 0.8403928)) ;
}
potential ( KontaminationKopf | VerunreinRohstoff ) 
{
  data = ((0.1211433 0.8788567)(0.125722 0.874278)) ;
}
potential ( Kratzer | BeschaedigungDuese TempDuese VerbrRohstoffDuese VerunreinRohstoff ) 
{
  data = (((((0.4823369 0.5176631)(0.4547575 0.5452425))((0.4730959 0.5269041)(0.4564646 0.5435354)))(((0.4800402 0.5199598)(0.5253064 0.4746936))((0.4885136 0.5114864)(0.4878111 0.5121889))))((((0.477593 0.522407)(0.4423423 0.5576577))((0.4538799 0.5461201)(0.4079704 0.5920296)))(((0.4348003 0.5651997)(0.3825688 0.6174312))((0.4944464 0.5055536)(0.5 0.5))))) ;
}
potential ( MatFeuchtigkeit ) 
{
  data = ( 0.2122288 0.7877712 );
}
potential ( MilichigKalterSchlauchWolken | BeschaedigungDuese DuesenKernkombination ExtruderRPM KontaminationDuese KontaminationExtruder KontaminationKopf TempExtruder TempKopf WDSSpruenge ) 
{
  data = ((((((((((0.999674691 0.000325309)(9.999458e-01 5.424759e-05))((0.5 0.5)(0.5 0.5)))(((0.0006501951 0.9993498049)(0.9997830803 0.0002169197))((0.5 0.5)(0.9993498049 0.0006501951))))((((0.7910391 0.2089609)(0.7792161 0.2207839))((0.7499593 0.2500407)(9.999070e-01 9.298866e-05)))(((0.90320887 0.09679113)(0.93546558 0.06453442))((0.8888326 0.1111674)(0.9998915166 0.0001084834)))))(((((0.8823432 0.1176568)(0.9333208 0.0666792))((0.000325309 0.999674691)(0.874939 0.125061)))(((0.8947098 0.1052902)(0.8333092 0.1666908))((0.9997830803 0.0002169197)(0.999674691 0.000325309))))((((0.8386062 0.1613938)(0.8181806 0.1818194))((0.8604542 0.1395458)(0.840899 0.159101)))(((0.8591516 0.1408484)(0.8823497 0.1176503))((0.8420818 0.1579182)(0.8749695 0.1250305))))))((((((0.8570764 0.1429236)(0.6470476 0.3529524))((0.9993498049 0.0006501951)(0.9997830803 0.0002169197)))(((0.7499186 0.2500814)(0.5 0.5))((0.5 0.5)(0.5 0.5))))((((0.8837151 0.1162849)(0.7536184 0.2463816))((0.9998915166 0.0001084834)(0.9999276725 0.0000723275)))(((0.8157787 0.1842213)(0.94115958 0.05884042))((0.9997830803 0.0002169197)(0.9997830803 0.0002169197)))))(((((0.8627358 0.1372642)(0.8292578 0.1707422))((0.9998698256 0.0001301744)(0.9998915166 0.0001084834)))(((0.8749797 0.1250203)(0.8499772 0.1500228))((0.6665944 0.3334056)(0.5 0.5))))((((0.8319316 0.1680684)(0.8253509 0.1746491))((0.8043392 0.1956608)(0.8499886 0.1500114)))(((0.7987397 0.2012603)(0.8595479 0.1404521))((0.92853157 0.07146843)(0.7692038 0.2307962)))))))(((((((0.7499186 0.2500814)(0.8570764 0.1429236))((0.9993498049 0.0006501951)(0.9993498049 0.0006501951)))(((0.0006501951 0.9993498049)(0.5 0.5))((0.5 0.5)(0.5 0.5))))((((0.794862 0.205138)(0.8386955 0.1613045))((0.7999219 0.2000781)(0.5 0.5)))(((9.999593e-01 4.068679e-05)(0.92303455 0.07696545))((0.7499186 0.2500814)(0.9993498049 0.0006501951)))))(((((0.7856877 0.2143123)(0.8799802 0.1200198))((0.6665944 0.3334056)(0.9997830803 0.0002169197)))(((0.833261 0.166739)(0.8888326 0.1111674))((0.6665944 0.3334056)(0.9997830803 0.0002169197))))((((0.8727243 0.1272757)(0.8493948 0.1506052))((0.8124746 0.1875254)(0.7999844 0.2000156)))(((0.8333273 0.1666727)(0.8227795 0.1772205))((9.999070e-01 9.298866e-05)(0.9997830803 0.0002169197))))))((((((0.8999479 0.1000521)(0.7142459 0.2857541))((0.9993498049 0.0006501951)(0.9993498049 0.0006501951)))(((0.5 0.5)(0.5 0.5))((0.5 0.5)(0.9993498049 0.0006501951))))((((0.823517 0.176483)(0.7777697 0.2222303))((0.999674691 0.000325309)(0.7999219 0.2000781)))(((0.90904249 0.09095751)(0.8333092 0.1666908))((0.9993498049 0.0006501951)(0.9993498049 0.0006501951)))))(((((0.8420818 0.1579182)(0.94733776 0.05266224))((0.7499593 0.2500407)(0.7499186 0.2500814)))(((0.6666426 0.3333574)(0.92853157 0.07146843))((0.5 0.5)(0.9997830803 0.0002169197))))((((0.8238612 0.1761388)(0.8222199 0.1777801))((0.7856877 0.2143123)(0.8823237 0.1176763)))(((0.8313201 0.1686799)(0.7590321 0.2409679))((0.9998698256 0.0001301744)(0.7692038 0.2307962)))))))(((((((0.0006501951 0.9993498049)(0.7499186 0.2500814))((0.5 0.5)(0.5 0.5)))(((0.5 0.5)(0.6665944 0.3334056))((0.9993498049 0.0006501951)(0.5 0.5))))((((0.8214136 0.1785864)(0.7599865 0.2400135))((0.7999219 0.2000781)(0.9998372925 0.0001627075)))(((0.6363475 0.3636525)(9.999186e-01 8.136697e-05))((0.5 0.5)(0.0006501951 0.9993498049)))))(((((0.8695443 0.1304557)(0.799974 0.200026))((0.9993498049 0.0006501951)(0.599974 0.400026)))(((0.8461192 0.1538808)(0.7142459 0.2857541))((0.3334056 0.6665944)(0.9993498049 0.0006501951))))((((0.8248144 0.1751856)(0.8175648 0.1824352))((0.6874847 0.3125153)(0.8695443 0.1304557)))(((0.8082137 0.1917863)(0.8974293 0.1025707))((0.8570764 0.1429236)(0.833261 0.166739))))))((((((0.3333695 0.6666305)(0.7999219 0.2000781))((0.5 0.5)(0.999674691 0.000325309)))(((0.599974 0.400026)(0.999674691 0.000325309))((0.5 0.5)(0.5 0.5))))((((9.999759e-01 2.411149e-05)(0.774991 0.225009))((0.5 0.5)(0.7999219 0.2000781)))(((0.9374644 0.0625356)(0.8888326 0.1111674))((0.9997830803 0.0002169197)(0.6665944 0.3334056)))))(((((0.818163 0.181837)(0.8076769 0.1923231))((0.7499186 0.2500814)(0.6665944 0.3334056)))(((0.91662146 0.08337854)(0.5555475 0.4444525))((0.5 0.5)(0.999674691 0.000325309))))((((0.8968213 0.1031787)(0.8394128 0.1605872))((0.7777577 0.2222423)(0.8147996 0.1852004)))(((0.8648584 0.1351416)(0.8205075 0.1794925))((0.6249797 0.3750203)(0.7999609 0.2000391))))))))((((((((0.9998372925 0.0001627075)(0.9998698256 0.0001301744))((0.5 0.5)(0.9993498049 0.0006501951)))(((0.6665944 0.3334056)(0.0006501951 0.9993498049))((0.5 0.5)(0.5 0.5))))((((0.8333152 0.1666848)(0.8518349 0.1481651))((0.999674691 0.000325309)(0.5 0.5)))(((0.999674691 0.000325309)(0.8332972 0.1667028))((0.5 0.5)(0.9993498049 0.0006501951)))))(((((0.90473681 0.09526319)(0.94733776 0.05266224))((0.9997830803 0.0002169197)(0.9997830803 0.0002169197)))(((0.6249797 0.3750203)(0.8570764 0.1429236))((0.9993498049 0.0006501951)(0.5 0.5))))((((0.8028141 0.1971859)(0.8153815 0.1846185))((0.8235046 0.1764954)(0.8124746 0.1875254)))(((0.7719236 0.2280764)(0.8958226 0.1041774))((0.9998698256 0.0001301744)(0.6666305 0.3333695))))))((((((0.833261 0.166739)(0.5 0.5))((0.5 0.5)(0.5 0.5)))(((0.999674691 0.000325309)(0.9993498049 0.0006501951))((0.5 0.5)(0.5 0.5))))((((0.7777644 0.2222356)(0.8461365 0.1538635))((0.6666305 0.3333695)(0.9998915166 0.0001084834)))(((0.91662146 0.08337854)(0.874939 0.125061))((0.9998372925 0.0001627075)(0.9997830803 0.0002169197)))))(((((0.899974 0.100026)(0.8235046 0.1764954))((0.5 0.5)(0.9993498049 0.0006501951)))(((0.7777376 0.2222624)(0.833261 0.166739))((0.5 0.5)(0.5 0.5))))((((0.8389793 0.1610207)(0.8805933 0.1194067))((0.7856877 0.2143123)(9.999458e-01 5.424759e-05)))(((0.8281183 0.1718817)(0.7857076 0.2142924))((0.9998372925 0.0001627075)(0.7999219 0.2000781)))))))(((((((0.0006501951 0.9993498049)(0.7499186 0.2500814))((0.5 0.5)(0.5 0.5)))(((0.0006501951 0.9993498049)(0.5 0.5))((0.5 0.5)(0.9993498049 0.0006501951))))((((0.874939 0.125061)(0.8461192 0.1538808))((0.5 0.5)(0.9993498049 0.0006501951)))(((0.9997830803 0.0002169197)(9.999070e-01 9.298866e-05))((0.9993498049 0.0006501951)(0.9993498049 0.0006501951)))))(((((0.9998915166 0.0001084834)(0.833261 0.166739))((0.5 0.5)(0.5 0.5)))(((0.833261 0.166739)(0.6665944 0.3334056))((0.5 0.5)(0.9993498049 0.0006501951))))((((0.96077255 0.03922745)(0.8620608 0.1379392))((0.699974 0.300026)(0.5 0.5)))(((0.6562436 0.3437564)(0.749991 0.250009))((0.999674691 0.000325309)(0.9998372925 0.0001627075))))))((((((0.6665944 0.3334056)(0.000325309 0.999674691))((0.999674691 0.000325309)(0.5 0.5)))(((0.5 0.5)(0.5 0.5))((0.5 0.5)(0.5 0.5))))((((0.7272458 0.2727542)(9.999186e-01 8.136697e-05))((0.7499186 0.2500814)(0.9993498049 0.0006501951)))(((0.9998698256 0.0001301744)(0.5 0.5))((0.5 0.5)(0.5 0.5)))))(((((0.8570764 0.1429236)(0.7499593 0.2500407))((0.5 0.5)(0.9993498049 0.0006501951)))(((0.7777376 0.2222624)(0.8570764 0.1429236))((0.9993498049 0.0006501951)(0.5 0.5))))((((0.7970958 0.2029042)(0.824554 0.175446))((0.5833243 0.4166757)(0.7142459 0.2857541)))(((0.9090667 0.0909333)(0.8333152 0.1666848))((0.9997830803 0.0002169197)(0.6665944 0.3334056)))))))(((((((0.9993498049 0.0006501951)(0.0006501951 0.9993498049))((0.5 0.5)(0.999674691 0.000325309)))(((0.9993498049 0.0006501951)(0.9993498049 0.0006501951))((0.5 0.5)(0.5 0.5))))((((0.8888326 0.1111674)(0.9998698256 0.0001301744))((0.9997830803 0.0002169197)(0.0006501951 0.9993498049)))(((0.9998372925 0.0001627075)(0.6666305 0.3333695))((0.5 0.5)(0.999674691 0.000325309)))))(((((9.999070e-01 9.298866e-05)(0.9998698256 0.0001301744))((0.5 0.5)(0.9997830803 0.0002169197)))(((0.999674691 0.000325309)(0.7999219 0.2000781))((0.5 0.5)(0.5 0.5))))((((0.7954458 0.2045542)(0.8392778 0.1607222))((0.90904249 0.09095751)(9.999070e-01 9.298866e-05)))(((0.8695443 0.1304557)(0.7777644 0.2222356))((0.9998698256 0.0001301744)(9.999070e-01 9.298866e-05))))))((((((0.9993498049 0.0006501951)(0.999674691 0.000325309))((0.5 0.5)(0.5 0.5)))(((0.0006501951 0.9993498049)(0.9993498049 0.0006501951))((0.5 0.5)(0.5 0.5))))((((0.8749695 0.1250305)(0.5833243 0.4166757))((0.9993498049 0.0006501951)(0.999674691 0.000325309)))(((0.9998372925 0.0001627075)(0.699974 0.300026))((0.9993498049 0.0006501951)(0.5 0.5)))))(((((0.7999219 0.2000781)(0.6249797 0.3750203))((0.999674691 0.000325309)(0.9997830803 0.0002169197)))(((0.7999219 0.2000781)(0.9993498049 0.0006501951))((0.9993498049 0.0006501951)(0.5 0.5))))((((0.8627358 0.1372642)(0.8196653 0.1803347))((0.7499186 0.2500814)(0.92853157 0.07146843)))(((0.7419253 0.2580747)(0.8064387 0.1935613))((0.5 0.5)(0.5 0.5)))))))))(((((((((0.9993498049 0.0006501951)(0.9993498049 0.0006501951))((0.5 0.5)(0.5 0.5)))(((0.5 0.5)(0.5 0.5))((0.5 0.5)(0.5 0.5))))((((0.7999609 0.2000391)(0.8124746 0.1875254))((0.999674691 0.000325309)(0.9993498049 0.0006501951)))(((0.8570764 0.1429236)(0.9998915166 0.0001084834))((0.5 0.5)(0.999674691 0.000325309)))))(((((0.999674691 0.000325309)(0.7499729 0.2500271))((0.7499186 0.2500814)(0.5 0.5)))(((0.7499593 0.2500407)(0.833261 0.166739))((0.9993498049 0.0006501951)(0.5 0.5))))((((0.863631 0.136369)(0.8333282 0.1666718))((0.9998372925 0.0001627075)(0.8571096 0.1428904)))(((0.8518349 0.1481651)(0.90623347 0.09376653))((0.9998372925 0.0001627075)(0.7499186 0.2500814))))))((((((0.9998698256 0.0001301744)(0.7499186 0.2500814))((0.5 0.5)(0.9993498049 0.0006501951)))(((0.9993498049 0.0006501951)(0.5 0.5))((0.5 0.5)(0.0006501951 0.9993498049))))((((0.5909037 0.4090963)(0.9444123 0.0555877))((0.9997830803 0.0002169197)(0.9993498049 0.0006501951)))(((0.8570764 0.1429236)(0.8461192 0.1538808))((0.5 0.5)(0.9993498049 0.0006501951)))))(((((0.8181442 0.1818558)(0.8888326 0.1111674))((0.9993498049 0.0006501951)(0.999674691 0.000325309)))(((0.9997830803 0.0002169197)(0.9998698256 0.0001301744))((0.5 0.5)(0.5 0.5))))((((0.8108053 0.1891947)(0.7976144 0.2023856))((0.92303455 0.07696545)(9.999070e-01 9.298866e-05)))(((0.8048684 0.1951316)(0.8636256 0.1363744))((0.9998372925 0.0001627075)(0.6665944 0.3334056)))))))(((((((0.5 0.5)(0.6665944 0.3334056))((0.5 0.5)(0.9993498049 0.0006501951)))(((0.5 0.5)(0.5 0.5))((0.5 0.5)(0.5 0.5))))((((0.8570764 0.1429236)(0.7999219 0.2000781))((0.9993498049 0.0006501951)(0.5 0.5)))(((0.9997830803 0.0002169197)(0.5 0.5))((0.5 0.5)(0.999674691 0.000325309)))))(((((0.7999219 0.2000781)(0.400026 0.599974))((0.9993498049 0.0006501951)(0.5 0.5)))(((0.6665944 0.3334056)(0.7499186 0.2500814))((0.9993498049 0.0006501951)(0.9993498049 0.0006501951))))((((0.7599865 0.2400135)(0.8749847 0.1250153))((0.9998372925 0.0001627075)(0.7272458 0.2727542)))(((0.93329572 0.06670428)(0.799974 0.200026))((0.2500814 0.7499186)(0.999674691 0.000325309))))))((((((0.5 0.5)(0.5 0.5))((0.5 0.5)(0.5 0.5)))(((0.5 0.5)(0.5 0.5))((0.5 0.5)(0.5 0.5))))((((0.6666426 0.3333574)(0.699974 0.300026))((0.5 0.5)(0.9993498049 0.0006501951)))(((0.9997830803 0.0002169197)(0.7142459 0.2857541))((0.5 0.5)(0.5 0.5)))))(((((0.6665944 0.3334056)(0.5 0.5))((0.9993498049 0.0006501951)(0.3334056 0.6665944)))(((0.999674691 0.000325309)(0.999674691 0.000325309))((0.9993498049 0.0006501951)(0.5 0.5))))((((0.7727192 0.2272808)(0.7666609 0.2333391))((9.999070e-01 9.298866e-05)(0.7999219 0.2000781)))(((0.899974 0.100026)(0.92303455 0.07696545))((0.6665944 0.3334056)(0.9998372925 0.0001627075)))))))(((((((0.9993498049 0.0006501951)(0.5 0.5))((0.5 0.5)(0.5 0.5)))(((0.5 0.5)(0.5 0.5))((0.5 0.5)(0.5 0.5))))((((0.6249797 0.3750203)(0.833261 0.166739))((0.5 0.5)(0.9993498049 0.0006501951)))(((0.9998372925 0.0001627075)(0.999674691 0.000325309))((0.5 0.5)(0.5 0.5)))))(((((0.5714153 0.4285847)(0.9998698256 0.0001301744))((0.5 0.5)(0.9993498049 0.0006501951)))(((0.6665944 0.3334056)(0.9997830803 0.0002169197))((0.5 0.5)(0.9993498049 0.0006501951))))((((0.7428481 0.2571519)(0.7999888 0.2000112))((0.9998698256 0.0001301744)(0.599974 0.400026)))(((0.8332972 0.1667028)(0.8999479 0.1000521))((0.9993498049 0.0006501951)(0.5 0.5))))))((((((0.9993498049 0.0006501951)(0.999674691 0.000325309))((0.5 0.5)(0.5 0.5)))(((0.5 0.5)(0.9993498049 0.0006501951))((0.5 0.5)(0.5 0.5))))((((9.999186e-01 8.136697e-05)(0.5714153 0.4285847))((0.9997830803 0.0002169197)(0.999674691 0.000325309)))(((0.9993498049 0.0006501951)(0.999674691 0.000325309))((0.9993498049 0.0006501951)(0.9993498049 0.0006501951)))))(((((0.7499593 0.2500407)(0.999674691 0.000325309))((0.5 0.5)(0.9993498049 0.0006501951)))(((0.9997830803 0.0002169197)(0.7499186 0.2500814))((0.5 0.5)(0.5 0.5))))((((0.8709522 0.1290478)(0.8157787 0.1842213))((0.999674691 0.000325309)(0.7499593 0.2500407)))(((0.8947098 0.1052902)(0.8333092 0.1666908))((0.9997830803 0.0002169197)(0.999674691 0.000325309))))))))((((((((0.5 0.5)(0.9997830803 0.0002169197))((0.5 0.5)(0.5 0.5)))(((0.9993498049 0.0006501951)(0.5 0.5))((0.5 0.5)(0.5 0.5))))((((0.7499186 0.2500814)(0.833261 0.166739))((0.999674691 0.000325309)(0.5 0.5)))(((0.0006501951 0.9993498049)(0.9997830803 0.0002169197))((0.5 0.5)(0.5 0.5)))))(((((0.6665944 0.3334056)(0.9997830803 0.0002169197))((0.0006501951 0.9993498049)(0.5 0.5)))(((0.9993498049 0.0006501951)(0.6665944 0.3334056))((0.9993498049 0.0006501951)(0.5 0.5))))((((0.7499884 0.2500116)(0.8749847 0.1250153))((0.9998372925 0.0001627075)(0.9998698256 0.0001301744)))(((0.7692038 0.2307962)(0.7272458 0.2727542))((0.9993498049 0.0006501951)(0.9993498049 0.0006501951))))))((((((0.9993498049 0.0006501951)(0.5 0.5))((0.5 0.5)(0.5 0.5)))(((0.5 0.5)(0.9993498049 0.0006501951))((0.5 0.5)(0.5 0.5))))((((0.7999219 0.2000781)(0.7499186 0.2500814))((0.9993498049 0.0006501951)(0.9993498049 0.0006501951)))(((0.9998372925 0.0001627075)(0.9998372925 0.0001627075))((0.9993498049 0.0006501951)(0.9993498049 0.0006501951)))))(((((0.9997830803 0.0002169197)(0.5 0.5))((0.5 0.5)(0.0006501951 0.9993498049)))(((0.9997830803 0.0002169197)(0.7499186 0.2500814))((0.5 0.5)(0.9993498049 0.0006501951))))((((0.823517 0.176483)(0.8529277 0.1470723))((0.7499186 0.2500814)(0.6666305 0.3333695)))(((0.8888326 0.1111674)(0.9444123 0.0555877))((0.0006501951 0.9993498049)(0.999674691 0.000325309)))))))(((((((0.999674691 0.000325309)(0.5 0.5))((0.5 0.5)(0.9993498049 0.0006501951)))(((0.5 0.5)(0.5 0.5))((0.5 0.5)(0.5 0.5))))((((0.5 0.5)(0.9993498049 0.0006501951))((0.5 0.5)(0.9993498049 0.0006501951)))(((0.5 0.5)(0.0006501951 0.9993498049))((0.5 0.5)(0.5 0.5)))))(((((0.999674691 0.000325309)(0.9993498049 0.0006501951))((0.5 0.5)(0.5 0.5)))(((0.5 0.5)(0.5 0.5))((0.5 0.5)(0.5 0.5))))((((0.7646856 0.2353144)(0.7333131 0.2666869))((0.5 0.5)(0.9997830803 0.0002169197)))(((0.9998372925 0.0001627075)(0.6666426 0.3333574))((0.5 0.5)(0.9993498049 0.0006501951))))))((((((0.5 0.5)(0.9993498049 0.0006501951))((0.5 0.5)(0.5 0.5)))(((0.5 0.5)(0.5 0.5))((0.5 0.5)(0.5 0.5))))((((0.7499186 0.2500814)(0.999674691 0.000325309))((0.5 0.5)(0.5 0.5)))(((0.9993498049 0.0006501951)(0.9997830803 0.0002169197))((0.5 0.5)(0.5 0.5)))))(((((0.000325309 0.999674691)(0.5 0.5))((0.5 0.5)(0.5 0.5)))(((0.999674691 0.000325309)(0.5 0.5))((0.5 0.5)(0.5 0.5))))((((0.7692038 0.2307962)(0.90904249 0.09095751))((0.5 0.5)(0.9993498049 0.0006501951)))(((0.6922884 0.3077116)(0.8888326 0.1111674))((0.0006501951 0.9993498049)(0.5 0.5)))))))(((((((0.0006501951 0.9993498049)(0.9993498049 0.0006501951))((0.5 0.5)(0.5 0.5)))(((0.5 0.5)(0.9993498049 0.0006501951))((0.5 0.5)(0.5 0.5))))((((0.9993498049 0.0006501951)(0.999674691 0.000325309))((0.999674691 0.000325309)(0.9993498049 0.0006501951)))(((0.9997830803 0.0002169197)(0.9993498049 0.0006501951))((0.5 0.5)(0.5 0.5)))))(((((0.999674691 0.000325309)(0.5 0.5))((0.5 0.5)(0.0006501951 0.9993498049)))(((0.0006501951 0.9993498049)(0.5 0.5))((0.5 0.5)(0.5 0.5))))((((0.8888326 0.1111674)(0.7499729 0.2500271))((0.5 0.5)(0.9997830803 0.0002169197)))(((0.0006501951 0.9993498049)(0.8181442 0.1818558))((0.9993498049 0.0006501951)(0.5 0.5))))))((((((0.5 0.5)(0.5 0.5))((0.5 0.5)(0.5 0.5)))(((0.5 0.5)(0.5 0.5))((0.5 0.5)(0.5 0.5))))((((0.9997830803 0.0002169197)(0.6249797 0.3750203))((0.5 0.5)(0.5 0.5)))(((0.9993498049 0.0006501951)(0.9993498049 0.0006501951))((0.5 0.5)(0.5 0.5)))))(((((0.999674691 0.000325309)(0.0006501951 0.9993498049))((0.5 0.5)(0.5 0.5)))(((0.5 0.5)(0.999674691 0.000325309))((0.5 0.5)(0.5 0.5))))((((0.7999609 0.2000391)(0.93329572 0.06670428))((0.9993498049 0.0006501951)(0.9993498049 0.0006501951)))(((0.9999276725 0.0000723275)(0.9998372925 0.0001627075))((0.5 0.5)(0.5 0.5)))))))))) ;
}
potential ( RauchQualm | DichtigkeitAKKU DichtigkeitWBK Extruderdruck ExtruderRPM TempKopf ) 
{
  data = ((((((0.2607973 0.7392027)(0.2581187 0.7418813))((0.3018972 0.6981028)(0.3889317 0.6110683))((0.2123706 0.7876294)(0.1945623 0.8054377)))(((0.2351776 0.7648224)(0.2400289 0.7599711))((0.2539437 0.7460563)(0.2464279 0.7535721))((0.2625377 0.7374623)(0.382377 0.617623)))(((0.2911989 0.7088011)(0.2070369 0.7929631))((0.2105616 0.7894384)(0.2502168 0.7497832))((0.2182174 0.7817826)(0.3638083 0.6361917))))((((0.2717736 0.7282264)(0.3126626 0.6873374))((0.23735 0.76265)(0.1435644 0.8564356))((0.288518 0.711482)(0.4287129 0.5712871)))(((0.240661 0.759339)(0.1306578 0.8693422))((0.2947668 0.7052332)(0.1114109 0.8885891))((0.2209753 0.7790247)(0.1542156 0.8457844)))(((0.2037799 0.7962201)(0.200831 0.799169))((0.259383 0.740617)(0.001730104 0.998269896))((0.3913699 0.6086301)(0.006849315 0.993150685)))))(((((0.261199 0.738801)(0.2568024 0.7431976))((0.2319389 0.7680611)(0.2759694 0.7240306))((0.2972126 0.7027874)(0.1668209 0.8331791)))(((0.2568522 0.7431478)(0.2887531 0.7112469))((0.2523255 0.7476745)(0.2500542 0.7499458))((0.2643993 0.7356007)(0.3098963 0.6901037)))(((0.2548394 0.7451606)(0.2858205 0.7141795))((0.1917023 0.8082977)(0.2942857 0.7057143))((0.1520387 0.8479613)(0.1820189 0.8179811))))((((0.2381241 0.7618759)(0.2779491 0.7220509))((0.2982948 0.7017052)(0.200831 0.799169))((0.1774916 0.8225084)(0.2004161 0.7995839)))(((0.2194257 0.7805743)(0.3044659 0.6955341))((0.2018729 0.7981271)(0.2004161 0.7995839))((0.2192315 0.7807685)(0.1542156 0.8457844)))(((0.2105968 0.7894032)(0.1256499 0.8743501))((0.2382683 0.7617317)(0.2504333 0.7495667))((0.3044659 0.6955341)(0.5 0.5)))))) ;
}
potential ( RegeneratAnteil | Regeneratqualitaet ) 
{
  data = ((0.3672374 0.4751905 0.1575722)(0.3634541 0.4867199 0.1498261)) ;
}
potential ( Regeneratqualitaet ) 
{
  data = ( 0.5927907 0.4072093 );
}
potential ( Schlauchkrempeln | Artikelgewicht DuesenKernkombination Extruderdruck ExtruderRPM GegendruckAKKU TempKopf WDSAnfangEnde ) 
{
  data = ((((((((0.783326 0.216674)(0.8363542 0.1636458))((0.7333093 0.2666907)(0.7999074 0.2000926)))(((0.83954 0.16046)(0.8525321 0.1474679))((0.7999884 0.2000116)(0.8461333 0.1538667)))(((0.8823356 0.1176644)(0.90906222 0.09093778))((0.7999074 0.2000926)(0.999229584 0.000770416))))((((0.8437334 0.1562666)(0.93745781 0.06254219))((0.7999074 0.2000926)(0.666581 0.333419)))(((0.8024663 0.1975337)(0.8270639 0.1729361))((0.6666452 0.3333548)(0.8461128 0.1538872)))(((0.8571035 0.1428965)(0.8570641 0.1429359))((0.999229584 0.000770416)(0.5 0.5))))((((0.7999846 0.2000154)(0.8845926 0.1154074))((0.8332476 0.1667524)(0.999229584 0.000770416)))(((0.8581521 0.1418479)(0.7870329 0.2129671))((0.95234771 0.04765229)(0.7499759 0.2500241)))(((0.7058637 0.2941363)(0.6922849 0.3077151))((0.5 0.5)(0.5 0.5)))))(((((0.8449571 0.1550429)(0.7999942 0.2000058))((9.999407e-01 5.934718e-05)(0.8888222 0.1111778)))(((0.809682 0.190318)(0.8072278 0.1927722))((0.7887261 0.2112739)(0.786878 0.213122)))(((0.8484767 0.1515233)(0.95650642 0.04349358))((9.999036e-01 9.643202e-05)(0.999614495 0.000385505))))((((0.8192712 0.1807288)(0.90907656 0.09092344))((0.7777302 0.2222698)(0.999889795 0.000110205)))(((0.811845 0.188155)(0.8168991 0.1831009))((0.7837719 0.2162281)(0.8333162 0.1666838)))(((0.6896451 0.3103549)(0.8666289 0.1333711))((0.9998457266 0.0001542734)(0.5 0.5))))((((0.8636236 0.1363764)(0.8823356 0.1176644))((0.8461128 0.1538872)(0.6666238 0.3333762)))(((0.8157873 0.1842127)(0.79245 0.20755))((0.8386928 0.1613072)(0.5555508 0.4444492)))(((0.8799765 0.1200235)(0.92852419 0.07147581))((0.9998071732 0.0001928268)(0.5 0.5)))))(((((0.7631472 0.2368528)(0.8333048 0.1666952))((0.666581 0.333419)(0.3333762 0.6666238)))(((0.8345826 0.1654174)(0.7912039 0.2087961))((0.6363445 0.3636555)(0.7142385 0.2857615)))(((0.7856828 0.2143172)(0.8570641 0.1429359))((0.999614495 0.000385505)(0.999229584 0.000770416))))((((0.8571035 0.1428965)(0.9998071732 0.0001928268))((0.9997429306 0.0002570694)(0.5 0.5)))(((0.8333262 0.1666738)(0.7560879 0.2439121))((0.7999537 0.2000463)(0.9997429306 0.0002570694)))(((0.7142385 0.2857615)(0.6666238 0.3333762))((0.5 0.5)(0.9997429306 0.0002570694))))((((0.8571035 0.1428965)(0.6428414 0.3571586))((0.999614495 0.000385505)(0.999614495 0.000385505)))(((0.7794054 0.2205946)(0.7316986 0.2683014))((0.8570641 0.1429359)(0.7999074 0.2000926)))(((0.9998714322 0.0001285678)(0.8332476 0.1667524))((0.999229584 0.000770416)(0.5 0.5))))))((((((0.8610956 0.1389044)(0.8636109 0.1363891))((0.7999074 0.2000926)(0.5 0.5)))(((0.7999964 0.2000036)(0.8295397 0.1704603))((0.8888222 0.1111778)(0.8999383 0.1000617)))(((0.999889795 0.000110205)(0.8749277 0.1250723))((0.5 0.5)(0.999229584 0.000770416))))((((0.7999537 0.2000463)(0.7142385 0.2857615))((0.000385505 0.999614495)(0.000770416 0.999229584)))(((0.7970948 0.2029052)(0.7179401 0.2820599))((0.5 0.5)(0.7999074 0.2000926)))(((0.9998457266 0.0001542734)(0.5999691 0.4000309))((0.5 0.5)(0.999229584 0.000770416))))((((0.7499679 0.2500321)(0.90903353 0.09096647))((0.999614495 0.000385505)(0.999229584 0.000770416)))(((0.7708246 0.2291754)(0.684203 0.315797))((0.999889795 0.000110205)(0.8332476 0.1667524)))(((0.9997429306 0.0002570694)(0.666581 0.333419))((0.999229584 0.000770416)(0.5 0.5)))))(((((0.81249 0.18751)(0.756746 0.243254))((0.5714128 0.4285872)(0.9998071732 0.0001928268)))(((0.8225087 0.1774913)(0.7828919 0.2171081))((0.8484686 0.1515314)(0.8235 0.1765)))(((0.8749638 0.1250362)(9.999486e-01 5.143504e-05))((0.999229584 0.000770416)(0.5 0.5))))((((0.7825897 0.2174103)(0.7856828 0.2143172))((0.999614495 0.000385505)(0.8332476 0.1667524)))(((0.7473644 0.2526356)(0.7999923 0.2000077))((0.8823182 0.1176818)(0.555546 0.444454)))(((0.92302671 0.07697329)(0.999889795 0.000110205))((0.5 0.5)(0.5 0.5))))((((9.999407e-01 5.934718e-05)(0.7272408 0.2727592))((0.9998457266 0.0001542734)(0.999614495 0.000385505)))(((0.8299949 0.1700051)(0.7837779 0.2162221))((0.8571035 0.1428965)(0.8999383 0.1000617)))(((0.7999537 0.2000463)(0.8332476 0.1667524))((0.9997429306 0.0002570694)(0.999229584 0.000770416)))))(((((0.8332905 0.1667095)(9.999036e-01 9.643202e-05))((0.333419 0.666581)(0.999229584 0.000770416)))(((0.7924443 0.2075557)(0.7948601 0.2051399))((0.7499518 0.2500482)(0.7499036 0.2500964)))(((0.9998714322 0.0001285678)(0.9998457266 0.0001542734))((0.5 0.5)(0.999229584 0.000770416))))((((0.8570641 0.1429359)(0.6666238 0.3333762))((0.000770416 0.999229584)(0.5 0.5)))(((0.7307555 0.2692445)(0.8181595 0.1818405))((0.7499036 0.2500964)(0.5 0.5)))(((0.999229584 0.000770416)(0.999614495 0.000385505))((0.5 0.5)(0.5 0.5))))((((0.333419 0.666581)(0.000770416 0.999229584))((0.5 0.5)(0.5 0.5)))(((0.759984 0.240016)(0.8666289 0.1333711))((0.999229584 0.000770416)(0.666581 0.333419)))(((0.999229584 0.000770416)(0.999229584 0.000770416))((0.5 0.5)(0.5 0.5)))))))(((((((0.91661309 0.08338691)(0.8749277 0.1250723))((0.9998071732 0.0001928268)(0.5 0.5)))(((0.7586069 0.2413931)(0.7692148 0.2307852))((0.8332476 0.1667524)(0.999229584 0.000770416)))(((0.8749277 0.1250723)(0.9998071732 0.0001928268))((0.5 0.5)(0.5 0.5))))((((0.7142385 0.2857615)(0.999614495 0.000385505))((0.999229584 0.000770416)(0.999229584 0.000770416)))(((0.7499807 0.2500193)(0.8124699 0.1875301))((0.5 0.5)(0.666581 0.333419)))(((0.999614495 0.000385505)(0.666581 0.333419))((0.5 0.5)(0.5 0.5))))((((0.9998457266 0.0001542734)(0.7499036 0.2500964))((0.999229584 0.000770416)(0.5 0.5)))(((0.777754 0.222246)(0.8124699 0.1875301))((0.9997429306 0.0002570694)(0.999614495 0.000385505)))(((0.999614495 0.000385505)(0.999614495 0.000385505))((0.5 0.5)(0.5 0.5)))))(((((0.7894502 0.2105498)(9.999486e-01 5.143504e-05))((0.999614495 0.000385505)(0.5 0.5)))(((0.8611034 0.1388966)(0.8148058 0.1851942))((0.8332476 0.1667524)(0.8332476 0.1667524)))(((9.999229e-01 7.714859e-05)(0.7999074 0.2000926))((0.5 0.5)(0.999229584 0.000770416))))((((0.7999537 0.2000463)(0.9997429306 0.0002570694))((0.999229584 0.000770416)(0.5 0.5)))(((0.6562425 0.3437575)(0.8636109 0.1363891))((0.8570641 0.1429359)(0.999614495 0.000385505)))(((0.7499518 0.2500482)(0.7999074 0.2000926))((0.5 0.5)(0.5 0.5))))((((0.7999537 0.2000463)(0.6666238 0.3333762))((0.5 0.5)(0.5 0.5)))(((0.6571359 0.3428641)(0.7199864 0.2800136))((9.999143e-01 8.571918e-05)(0.9998457266 0.0001542734)))(((0.9998071732 0.0001928268)(0.9998714322 0.0001285678))((0.000770416 0.999229584)(0.999229584 0.000770416)))))(((((0.9998457266 0.0001542734)(0.999614495 0.000385505))((0.999229584 0.000770416)(0.5 0.5)))(((0.7058637 0.2941363)(0.8947048 0.1052952))((0.666581 0.333419)(0.999229584 0.000770416)))(((0.000770416 0.999229584)(0.5 0.5))((0.5 0.5)(0.5 0.5))))((((0.999614495 0.000385505)(0.7999074 0.2000926))((0.5 0.5)(0.5 0.5)))(((0.9998457266 0.0001542734)(0.7499036 0.2500964))((0.999614495 0.000385505)(0.5 0.5)))(((0.999229584 0.000770416)(0.999229584 0.000770416))((0.5 0.5)(0.5 0.5))))((((0.999614495 0.000385505)(0.999614495 0.000385505))((0.5 0.5)(0.5 0.5)))(((9.999357e-01 6.429214e-05)(0.9998071732 0.0001928268))((0.999229584 0.000770416)(0.999614495 0.000385505)))(((0.5 0.5)(0.999229584 0.000770416))((0.5 0.5)(0.5 0.5))))))((((((0.666581 0.333419)(0.9997429306 0.0002570694))((0.5 0.5)(0.5 0.5)))(((0.7691988 0.2308012)(0.8749277 0.1250723))((0.9997429306 0.0002570694)(0.5 0.5)))(((0.666581 0.333419)(0.5 0.5))((0.5 0.5)(0.999614495 0.000385505))))((((0.999229584 0.000770416)(0.5 0.5))((0.000770416 0.999229584)(0.5 0.5)))(((9.999143e-01 8.571918e-05)(0.7142385 0.2857615))((0.5 0.5)(0.999229584 0.000770416)))(((0.000770416 0.999229584)(0.999229584 0.000770416))((0.5 0.5)(0.5 0.5))))((((0.999229584 0.000770416)(0.999229584 0.000770416))((0.5 0.5)(0.5 0.5)))(((0.6363445 0.3636555)(0.7999074 0.2000926))((0.5 0.5)(0.999229584 0.000770416)))(((0.5 0.5)(0.5 0.5))((0.5 0.5)(0.5 0.5)))))(((((0.6666238 0.3333762)(0.9997429306 0.0002570694))((0.5 0.5)(0.5 0.5)))(((0.8749759 0.1250241)(0.7691988 0.2308012))((0.9998071732 0.0001928268)(0.9998071732 0.0001928268)))(((0.999614495 0.000385505)(0.999229584 0.000770416))((0.5 0.5)(0.5 0.5))))((((0.5 0.5)(0.999229584 0.000770416))((0.5 0.5)(0.999614495 0.000385505)))(((9.999143e-01 8.571918e-05)(0.8570641 0.1429359))((0.999614495 0.000385505)(0.5 0.5)))(((0.5 0.5)(0.5 0.5))((0.5 0.5)(0.5 0.5))))((((0.9998457266 0.0001542734)(0.9997429306 0.0002570694))((0.5 0.5)(0.5 0.5)))(((9.999546e-01 4.538441e-05)(0.666581 0.333419))((0.7499036 0.2500964)(0.000770416 0.999229584)))(((0.5 0.5)(0.5 0.5))((0.5 0.5)(0.5 0.5)))))(((((0.5 0.5)(0.5 0.5))((0.5 0.5)(0.5 0.5)))(((0.6999691 0.3000309)(0.7999074 0.2000926))((0.5 0.5)(0.5 0.5)))(((0.5 0.5)(0.5 0.5))((0.5 0.5)(0.5 0.5))))((((0.999229584 0.000770416)(0.5 0.5))((0.5 0.5)(0.5 0.5)))(((0.999614495 0.000385505)(0.999229584 0.000770416))((0.999229584 0.000770416)(0.5 0.5)))(((0.000770416 0.999229584)(0.5 0.5))((0.5 0.5)(0.5 0.5))))((((0.5 0.5)(0.999229584 0.000770416))((0.5 0.5)(0.5 0.5)))(((0.7499036 0.2500964)(0.333419 0.666581))((0.999229584 0.000770416)(0.5 0.5)))(((0.5 0.5)(0.5 0.5))((0.5 0.5)(0.5 0.5)))))))(((((((0.8095011 0.1904989)(0.8461128 0.1538872))((0.9998071732 0.0001928268)(0.7499036 0.2500964)))(((0.7920747 0.2079253)(0.7970948 0.2029052))((0.8181372 0.1818628)(0.5999691 0.4000309)))(((0.8749277 0.1250723)(0.9998457266 0.0001542734))((0.5 0.5)(0.5 0.5))))((((0.93745781 0.06254219)(0.90903353 0.09096647))((0.999614495 0.000385505)(0.0002570694 0.9997429306)))(((0.7749894 0.2250106)(0.8571166 0.1428834))((9.999036e-01 9.643202e-05)(0.9998071732 0.0001928268)))(((0.9998071732 0.0001928268)(0.7499036 0.2500964))((0.5 0.5)(0.5 0.5))))((((0.8749638 0.1250362)(0.9998071732 0.0001928268))((0.999229584 0.000770416)(0.5 0.5)))(((0.7115322 0.2884678)(0.7307555 0.2692445))((0.9997429306 0.0002570694)(0.5 0.5)))(((0.5 0.5)(0.6666238 0.3333762))((0.000770416 0.999229584)(0.5 0.5)))))(((((0.91426745 0.08573255)(0.8181595 0.1818405))((9.999036e-01 9.643202e-05)(0.666581 0.333419)))(((0.8305983 0.1694017)(0.7913004 0.2086996))((0.8571166 0.1428834)(0.8571035 0.1428965)))(((0.8749277 0.1250723)(0.7691988 0.2308012))((0.5 0.5)(0.666581 0.333419))))((((0.5555508 0.4444492)(9.999036e-01 9.643202e-05))((0.999229584 0.000770416)(0.5 0.5)))(((0.8602091 0.1397909)(0.8360571 0.1639429))((0.7499518 0.2500482)(0.8332476 0.1667524)))(((0.6666381 0.3333619)(9.999229e-01 7.714859e-05))((0.5 0.5)(0.5 0.5))))((((0.8888222 0.1111778)(0.6666238 0.3333762))((0.5 0.5)(0.9997429306 0.0002570694)))(((0.7199955 0.2800045)(0.857133 0.142867))((0.8332905 0.1667095)(0.9998457266 0.0001542734)))(((0.7999074 0.2000926)(9.999229e-01 7.714859e-05))((0.5 0.5)(0.5 0.5)))))(((((0.6666381 0.3333619)(0.8181372 0.1818628))((0.999614495 0.000385505)(0.5 0.5)))(((0.8076832 0.1923168)(0.8181669 0.1818331))((0.7499518 0.2500482)(0.999614495 0.000385505)))(((0.7499036 0.2500964)(0.999614495 0.000385505))((0.999229584 0.000770416)(0.5 0.5))))((((0.8570641 0.1429359)(0.999614495 0.000385505))((0.5 0.5)(0.5 0.5)))(((0.555546 0.444454)(9.999486e-01 5.143504e-05))((0.9998714322 0.0001285678)(0.000770416 0.999229584)))(((0.9998071732 0.0001928268)(0.000770416 0.999229584))((0.999229584 0.000770416)(0.5 0.5))))((((0.9998071732 0.0001928268)(0.9998457266 0.0001542734))((0.5 0.5)(0.000770416 0.999229584)))(((0.6841956 0.3158044)(0.8749277 0.1250723))((0.9998071732 0.0001928268)(0.9997429306 0.0002570694)))(((0.5 0.5)(0.999229584 0.000770416))((0.5 0.5)(0.5 0.5))))))((((((0.8570641 0.1429359)(0.666581 0.333419))((0.999229584 0.000770416)(0.000770416 0.999229584)))(((0.7674323 0.2325677)(0.8333119 0.1666881))((0.5999691 0.4000309)(0.9998071732 0.0001928268)))(((0.9998071732 0.0001928268)(0.999229584 0.000770416))((0.5 0.5)(0.5 0.5))))((((0.5999691 0.4000309)(0.5 0.5))((0.999229584 0.000770416)(0.5 0.5)))(((0.849973 0.150027)(0.8235 0.1765))((0.5 0.5)(0.999229584 0.000770416)))(((0.999229584 0.000770416)(0.9998071732 0.0001928268))((0.5 0.5)(0.5 0.5))))((((0.333419 0.666581)(0.9997429306 0.0002570694))((0.5 0.5)(0.999229584 0.000770416)))(((0.777754 0.222246)(0.7856828 0.2143172))((0.999229584 0.000770416)(0.999614495 0.000385505)))(((0.999614495 0.000385505)(0.5 0.5))((0.5 0.5)(0.5 0.5)))))(((((0.92302671 0.07697329)(0.8749277 0.1250723))((0.999229584 0.000770416)(0.000770416 0.999229584)))(((0.7894658 0.2105342)(0.7755015 0.2244985))((0.999889795 0.000110205)(0.9997429306 0.0002570694)))(((0.5 0.5)(0.9998457266 0.0001542734))((0.5 0.5)(0.999229584 0.000770416))))((((0.9998071732 0.0001928268)(0.5 0.5))((0.5 0.5)(0.5 0.5)))(((0.8787702 0.1212298)(0.8518317 0.1481683))((0.8332476 0.1667524)(0.999229584 0.000770416)))(((0.666581 0.333419)(0.666581 0.333419))((0.999229584 0.000770416)(0.5 0.5))))((((0.5999691 0.4000309)(0.8332476 0.1667524))((0.000770416 0.999229584)(0.5 0.5)))(((0.6249879 0.3750121)(0.95234771 0.04765229))((0.7499036 0.2500964)(0.6666238 0.3333762)))(((0.7499036 0.2500964)(0.5 0.5))((0.5 0.5)(0.5 0.5)))))(((((0.8332476 0.1667524)(0.9998457266 0.0001542734))((0.999229584 0.000770416)(0.999229584 0.000770416)))(((0.6922849 0.3077151)(0.8999383 0.1000617))((0.999614495 0.000385505)(0.999229584 0.000770416)))(((0.999229584 0.000770416)(0.5 0.5))((0.5 0.5)(0.5 0.5))))((((0.5 0.5)(0.999229584 0.000770416))((0.5 0.5)(0.5 0.5)))(((0.9997429306 0.0002570694)(0.7999074 0.2000926))((0.999614495 0.000385505)(0.999229584 0.000770416)))(((0.9997429306 0.0002570694)(0.000770416 0.999229584))((0.5 0.5)(0.999229584 0.000770416))))((((0.9998071732 0.0001928268)(0.5 0.5))((0.999614495 0.000385505)(0.5 0.5)))(((0.7499518 0.2500482)(0.999889795 0.000110205))((0.999614495 0.000385505)(0.5 0.5)))(((0.999229584 0.000770416)(0.5 0.5))((0.5 0.5)(0.999229584 0.000770416)))))))) ;
}
potential ( Schlauchlaengenschwankungen | BrueckeTrichter Extruderdruck ExtruderRPM RegeneratAnteil TempExtrudereinzug TempKopf TempRohstoff ) 
{
