net 
{
    node_size = (76 36);
}

node VerunreinRohstoff
{
    label = "VerunreinRohstoff";
    position = (818 390);
    states = ("Ja"  "Nein");
}

node BeschaedigungDuese
{
    label = "BeschaedigungDuese";
    position = (354 354);
    states = ("Ja"  "Nein");
}

node ExtruderRPM
{
    label = "ExtruderRPM";
    position = (354 354);
    states = ("hoch"  "mittel"  "niedrig");
}

node Extruderdruck
{
    label = "Extruderdruck";
    position = (354 354);
    states = ("hoch"  "mittel"  "niedrig");
}

node Heizzone10
{
    label = "Heizzone10";
    position = (354 354);
    states = ("hoch"  "mittel"  "niedrig");
}

node Heizzone11
{
    label = "Heizzone11";
    position = (984 176);
    states = ("hoch"  "mittel"  "niedrig");
}

node Heizzone12
{
    label = "Heizzone12";
    position = (1014 331);
    states = ("hoch"  "mittel"  "niedrig");
}

node Heizzone13
{
    label = "Heizzone13";
    position = (701 451);
    states = ("hoch"  "mittel"  "niedrig");
}

node Heizzone14
{
    label = "Heizzone14";
    position = (512 486);
    states = ("hoch"  "mittel"  "niedrig");
}

node KontaminationKopf
{
    label = "KontaminationKopf";
    position = (147 435);
    states = ("Ja"  "Nein");
}

node TempDuese
{
    label = "TempDuese";
    position = (620 -18);
    states = ("iO"  "niO");
}

node VerbrRohstoffDuese
{
    label = "VerbrRohstoffDuese";
    position = (338 455);
    states = ("Ja"  "Nein");
}

node Kratzer
{
    label = "Kratzer";
    position = (742 60);
    states = ("Ja"  "Nein");
}

node Regeneratqualitaet
{
    label = "Regeneratqualitaet";
    position = (476 72);
    states = ("iO"  "niO");
}

node RegeneratAnteil
{
    label = "RegeneratAnteil";
    position = (176 126);
    states = ("hoch"  "mittel"  "niedrig");
}

node TempKopf
{
    label = "TempKopf";
    position = (977 -4);
    states = ("iO"  "niO");
}

node TempRohstoff
{
    label = "TempRohstoff";
    position = (238 314);
    states = ("iO"  "zuhoch"  "zuniedrig");
}

node ZentrierungDuese
{
    label = "ZentrierungDuese";
    position = (759 318);
    states = ("iO"  "niO");
}

node SchlauchlaufGeradeauslauf
{
    label = "SchlauchlaufGeradeauslauf";
    position = (729 171);
    states = ("Ja"  "Nein");
}

node VorformlingGlaenzend
{
    label = "VorformlingGlaenzend";
    position = (578 425);
    states = ("Ja"  "Nein");
}

potential (VerunreinRohstoff |)
{
    data = (0.03310000 0.96690000);
}

potential (BeschaedigungDuese | VerunreinRohstoff)
{
    data = ((0.86102720 0.13897280)
        (0.05346985 0.94653015));
}

potential (ExtruderRPM |)
{
    data = (0.47380000 0.27110000 0.25510000);
}

potential (Extruderdruck | ExtruderRPM)
{
    data = ((0.69100887 0.21844660 0.09054453)
        (0.12578381 0.68240507 0.19181112)
        (0.03175225 0.19874559 0.76950216));
}

potential (Heizzone10 |)
{
    data = (0.23050000 0.51270000 0.25680000);
}

potential (Heizzone11 |)
{
    data = (0.18230000 0.55020000 0.26750000);
}

potential (Heizzone12 |)
{
    data = (0.38890000 0.40540000 0.20570000);
}

potential (Heizzone13 |)
{
    data = (0.38860000 0.41060000 0.20080000);
}

potential (Heizzone14 |)
{
    data = (0.10570000 0.76460000 0.12970000);
}

potential (KontaminationKopf | VerunreinRohstoff)
{
    data = ((0.80060420 0.19939580)
        (0.18554140 0.81445860));
}

potential (TempDuese | Heizzone14)
{
    data = ((0.01000000 0.99000000)
        (0.99000000 0.01000000)
        (0.01000000 0.99000000));
}

potential (VerbrRohstoffDuese | TempDuese)
{
    data = ((0.04472927 0.95527073)
        (0.72387430 0.27612570));
}

potential (Kratzer | BeschaedigungDuese TempDuese VerbrRohstoffDuese VerunreinRohstoff)
{
    data = (((((1.00000000 0.00000000)
        (0.95238095 0.04761905))
        ((0.91346154 0.08653846)
        (0.87634410 0.12365590)))
        (((1.00000000 0.00000000)
        (0.94565217 0.05434783))
        ((0.82608700 0.17391300)
        (0.87500000 0.12500000))))
        ((((0.50000000 0.50000000)
        (0.10576920 0.89423080))
        ((0.14285710 0.85714290)
        (0.03378681 0.96621319)))
        (((0.70000000 0.30000000)
        (0.34425180 0.65574820))
        ((0.00000000 1.00000000)
        (0.05892256 0.94107744)))));
}

potential (Regeneratqualitaet |)
{
    data = (0.90550000 0.09450000);
}

potential (RegeneratAnteil | Regeneratqualitaet)
{
    data = ((0.73616786 0.25643291 0.00739923)
        (0.09523810 0.27724870 0.62751320));
}

potential (TempKopf | Heizzone10 Heizzone11 Heizzone12 Heizzone13)
{
    data = (((((0.12857140 0.87142860)
        (0.11111110 0.88888890)
        (0.08823529 0.91176471))
        ((0.16901410 0.83098590)
        (0.40579710 0.59420290)
        (0.20000000 0.80000000))
        ((0.20000000 0.80000000)
        (0.24324320 0.75675680)
        (0.04166667 0.95833333)))
        (((0.15270940 0.84729060)
        (0.48704660 0.51295340)
        (0.14606740 0.85393260))
        ((0.24509800 0.75490200)
        (0.97222222 0.02777778)
        (0.17582420 0.82417580))
        ((0.16000000 0.84000000)
        (0.73469390 0.26530610)
        (0.27450980 0.72549020)))
        (((0.07368421 0.92631579)
        (0.53932580 0.46067420)
        (0.18604650 0.81395350))
        ((0.14150940 0.85849060)
        (0.66666670 0.33333330)
        (0.08510638 0.91489362))
        ((0.09677419 0.90322581)
        (0.39285710 0.60714290)
        (0.04347826 0.95652174))))
        ((((0.16379310 0.83620690)
        (0.20134230 0.79865770)
        (0.18918920 0.81081080))
        ((0.22818790 0.77181210)
        (0.18713450 0.81286550)
        (0.24657530 0.75342470))
        ((0.15625000 0.84375000)
        (0.23076920 0.76923080)
        (0.17777780 0.82222220)))
        (((0.32345680 0.67654320)
        (0.65546220 0.34453780)
        (0.52727270 0.47272730))
        ((0.89721630 0.10278370)
        (0.97210300 0.02789700)
        (0.83856500 0.16143500))
        ((0.67982460 0.32017540)
        (0.87280700 0.12719300)
        (0.73484850 0.26515150)))
        (((0.43478260 0.56521740)
        (0.52777780 0.47222220)
        (0.31355930 0.68644070))
        ((0.61214950 0.38785050)
        (0.75206610 0.24793390)
        (0.65420560 0.34579440))
        ((0.17142860 0.82857140)
        (0.44554460 0.55445540)
        (0.49056600 0.50943400))))
        ((((0.17204300 0.82795700)
        (0.28205130 0.71794870)
        (0.03333333 0.96666667))
        ((0.25333330 0.74666670)
        (0.63768120 0.36231880)
        (0.15151520 0.84848480))
        ((0.32142860 0.67857140)
        (0.35714290 0.64285710)
        (0.04545455 0.95454545)))
        (((0.32535890 0.67464110)
        (0.69709540 0.30290460)
        (0.21929820 0.78070180))
        ((0.38709680 0.61290320)
        (0.89686100 0.10313900)
        (0.35344830 0.64655170))
        ((0.33613450 0.66386550)
        (0.73636360 0.26363640)
        (0.28571430 0.71428570)))
        (((0.17708330 0.82291670)
        (0.37815130 0.62184870)
        (0.15517240 0.84482760))
        ((0.17021280 0.82978720)
        (0.43220340 0.56779660)
        (0.28301890 0.71698110))
        ((0.16326530 0.83673470)
        (0.06451613 0.93548387)
        (0.10810810 0.89189190)))));
}

potential (TempRohstoff |)
{
    data = (0.85570000 0.03450000 0.10980000);
}

potential (ZentrierungDuese |)
{
    data = (0.82490000 0.17510000);
}

potential (SchlauchlaufGeradeauslauf | BeschaedigungDuese KontaminationKopf TempKopf TempRohstoff ZentrierungDuese)
{
    data = ((((((0.36283190 0.63716810)
        (0.80769230 0.19230770))
        ((0.20000000 0.80000000)
        (0.00000000 1.00000000))
        ((0.20000000 0.80000000)
        (0.00000000 1.00000000)))
        (((0.33870970 0.66129030)
        (0.81250000 0.18750000))
        ((1.00000000 0.00000000)
        (1.00000000 0.00000000))
        ((0.46666670 0.53333330)
        (0.75000000 0.25000000))))
        ((((0.40559440 0.59440560)
        (0.68750000 0.31250000))
        ((0.14285710 0.85714290)
        (0.50000000 0.50000000))
        ((0.26923080 0.73076920)
        (0.40000000 0.60000000)))
        (((0.17714290 0.82285710)
        (0.68000000 0.32000000))
        ((0.00000000 1.00000000)
        (1.00000000 0.00000000))
        ((0.50000000 0.50000000)
        (0.66666670 0.33333330)))))
        (((((0.28987990 0.71012010)
        (0.72881360 0.27118640))
        ((0.26315790 0.73684210)
        (0.87500000 0.12500000))
        ((0.32530120 0.67469880)
        (0.71428570 0.28571430)))
        (((0.27361560 0.72638440)
        (0.80916030 0.19083970))
        ((0.10000000 0.90000000)
        (0.81818180 0.18181820))
        ((0.37113400 0.62886600)
        (0.65000000 0.35000000))))
        ((((0.02579365 0.97420635)
        (0.65504590 0.34495410))
        ((0.25619830 0.74380170)
        (0.86666670 0.13333330))
        ((0.17684890 0.82315110)
        (0.55932200 0.44067800)))
        (((0.20618930 0.79381070)
        (0.54895100 0.45104900))
        ((0.16346150 0.83653850)
        (0.82608700 0.17391300))
        ((0.29859150 0.70140850)
        (0.63157890 0.36842110))))));
}

potential (VorformlingGlaenzend | Extruderdruck ExtruderRPM RegeneratAnteil TempKopf)
{
    data = (((((0.13140100 0.86859900)
        (0.18430030 0.81569970))
        ((0.16136920 0.83863080)
        (0.20712690 0.79287310))
        ((0.16831680 0.83168320)
        (0.21296300 0.78703700)))
        (((0.15200000 0.84800000)
        (0.24390240 0.75609760))
        ((0.21621620 0.78378380)
        (0.45714290 0.54285710))
        ((0.09090909 0.90909091)
        (0.50000000 0.50000000)))
        (((0.20000000 0.80000000)
        (0.27586210 0.72413790))
        ((0.30769230 0.69230770)
        (0.50000000 0.50000000))
        ((0.50000000 0.50000000)
        (0.00000000 1.00000000))))
        ((((0.19452050 0.80547950)
        (0.22560980 0.77439020))
        ((0.26229510 0.73770490)
        (0.28082190 0.71917810))
        ((0.15151520 0.84848480)
        (0.56097560 0.43902440)))
        (((0.24820140 0.75179860)
        (0.33792050 0.66207950))
        ((0.29527560 0.70472440)
        (0.41960780 0.58039220))
        ((0.41791040 0.58208960)
        (0.45312500 0.54687500)))
        (((0.33116880 0.66883120)
        (0.35869570 0.64130430))
        ((0.42622950 0.57377050)
        (0.41538460 0.58461540))
        ((0.38888890 0.61111110)
        (0.56000000 0.44000000))))
        ((((0.51063830 0.48936170)
        (0.61212120 0.38787880))
        ((0.64814810 0.35185190)
        (0.62500000 0.37500000))
        ((0.60000000 0.40000000)
        (0.72727270 0.27272730)))
        (((0.65868260 0.34131740)
        (0.66120220 0.33879780))
        ((0.69565220 0.30434780)
        (0.74603170 0.25396830))
        ((0.66666670 0.33333330)
        (0.70000000 0.30000000)))
        (((0.43302180 0.56697820)
        (0.47510670 0.52489330))
        ((0.72727270 0.27272730)
        (0.82397000 0.17603000))
        ((0.77083330 0.22916670)
        (0.94444444 0.05555556)))));
}
