net 
{ 
}
node AbstandDueseForm 
{
  states = ( "iO" "niO" );
}
node Artikelgewicht 
{
  states = ( "iO" "zuleicht" "zuschwer" );
}
node ArtikelhaengtFrom 
{
  states = ( "Ja" "Nein" );
}
node Artikelwand 
{
  states = ( "iO" "niO" );
}
node Auswerferzeit 
{
  states = ( "hoch" "mittel" "niedrig" );
}
node BeschaedigungButzenk 
{
  states = ( "Ja" "Nein" );
}
node BeschaedigungDuese 
{
  states = ( "Ja" "Nein" );
}
node BeschaedigungForm 
{
  states = ( "Ja" "Nein" );
}
node BeschaedigungKalibrdo 
{
  states = ( "Ja" "Nein" );
}
node BeschaedigungSchneid 
{
  states = ( "Ja" "Nein" );
}
node BeschaedigungTragbild 
{
  states = ( "Ja" "Nein" );
}
node BeschaedigungVerschl 
{
  states = ( "Ja" "Nein" );
}
node Blasdorneinschub 
{
  states = ( "Ja" "Nein" );
}
node Blasdruck 
{
  states = ( "hoch" "mittel" "niedrig" );
}
node Blasen 
{
  states = ( "Ja" "Nein" );
}
node BlasformteilLeckage 
{
  states = ( "Ja" "Nein" );
}
node Blaszeit 
{
  states = ( "hoch" "mittel" "niedrig" );
}
node Butzenabfall 
{
  states = ( "Ja" "Nein" );
}
node Butzenkammer 
{
  states = ( "iO" "niO" );
}
node Butzenkammervol 
{
  states = ( "iO" "niO" );
}
node DickeBodenschweissnaht 
{
  states = ( "Ja" "Nein" );
}
node DuennstellenFormtrennnaht 
{
  states = ( "Ja" "Nein" );
}
node Duesegeometrie 
{
  states = ( "iO" "niO" );
}
node Duesengroesse 
{
  states = ( "iO" "niO" );
}
node DurchgangBlasdorn 
{
  states = ( "iO" "niO" );
}
node Entformungselemente 
{
  states = ( "iO" "niO" );
}
node Entformungshilfe 
{
  states = ( "iO" "niO" );
}
node Entlueftungsventil 
{
  states = ( "iO" "niO" );
}
node Entlueftungszeit 
{
  states = ( "hoch" "mittel" "niedrig" );
}
node ExtruderRPM 
{
  states = ( "hoch" "mittel" "niedrig" );
}
node Extrusionsdruck 
{
  states = ( "hoch" "mittel" "niedrig" );
}
node FaltenArtikel 
{
  states = ( "Ja" "Nein" );
}
node Form_Sandstrahlung 
{
  states = ( "iO" "niO" );
}
node Formaufspannung 
{
  states = ( "iO" "niO" );
}
node FormEntlueftung 
{
  states = ( "iO" "niO" );
}
node FormoberflFeuchtigkeit 
{
  states = ( "Ja" "Nein" );
}
node Formtrennflaeche 
{
  states = ( "iO" "niO" );
}
node Formversaeulung 
{
  states = ( "iO" "niO" );
}
node FormWasserleckagen 
{
  states = ( "Ja" "Nein" );
}
node FunktionStanze 
{
  states = ( "iO" "niO" );
}
node FunktionVenturi 
{
  states = ( "iO" "niO" );
}
node Geschw_Blasdornein 
{
  states = ( "hoch" "mittel" "niedrig" );
}
node Geschw_Formschliess 
{
  states = ( "hoch" "mittel" "niedrig" );
}
node GratbildungFormtrennbereich 
{
  states = ( "Ja" "Nein" );
}
node Heizzone10 
{
  states = ( "hoch" "mittel" "niedrig" );
}
node Heizzone11 
{
  states = ( "hoch" "mittel" "niedrig" );
}
node Heizzone12 
{
  states = ( "hoch" "mittel" "niedrig" );
}
node Heizzone13 
{
  states = ( "hoch" "mittel" "niedrig" );
}
node Heizzone14 
{
  states = ( "hoch" "mittel" "niedrig" );
}
node KlebestellenArtikel 
{
  states = ( "Ja" "Nein" );
}
node Kontamination_Duese 
{
  states = ( "Ja" "Nein" );
}
node Konturversatz 
{
  states = ( "Ja" "Nein" );
}
node KopfwerkzOvalisieren 
{
  states = ( "Ja" "Nein" );
}
node Kuehlkanaele 
{
  states = ( "iO" "niO" );
}
node langeZykluszeit 
{
  states = ( "Ja" "Nein" );
}
node Orangenhaut 
{
  states = ( "Ja" "Nein" );
}
node Regeneratanteil 
{
  states = ( "iO" "niO" );
}
node Regeneratqualitaet 
{
  states = ( "iO" "niO" );
}
node Rohstofffeuchtigkeit 
{
  states = ( "iO" "niO" );
}
node Schlauchlaufrichtung 
{
  states = ( "iO" "niO" );
}
node Schlauchquetsche 
{
  states = ( "iO" "niO" );
}
node SchlauchquetscheFunkt 
{
  states = ( "iO" "niO" );
}
node SchlauchquetscheHub 
{
  states = ( "hoch" "mittel" "niedrig" );
}
node SchlauchquetscheZeit 
{
  states = ( "hoch" "mittel" "niedrig" );
}
node SchlechteBodenschweissnaht 
{
  states = ( "Ja" "Nein" );
}
node SchlechteSchweissnahtbildung 
{
  states = ( "Ja" "Nein" );
}
node Schliessdruck 
{
  states = ( "hoch" "mittel" "niedrig" );
}
node Schneidkantenschaerfe 
{
  states = ( "iO" "niO" );
}
node Spuelluft 
{
  states = ( "iO" "niO" );
}
node Spuelluftbohrung 
{
  states = ( "iO" "niO" );
}
node Standzeit 
{
  states = ( "hoch" "mittel" "niedrig" );
}
node starkerSchrumpf 
{
  states = ( "Ja" "Nein" );
}
node Stuetzluft 
{
  states = ( "hoch" "mittel" "niedrig" );
}
node Taktzeit 
{
  states = ( "hoch" "mittel" "niedrig" );
}
node Temp_Duese 
{
  states = ( "iO" "niO" );
}
node Temp_Kopf 
{
  states = ( "iO" "niO" );
}
node Temp_Rohstoff 
{
  states = ( "iO" "niO" );
}
node Temp_Schmelze 
{
  states = ( "hoch" "mittel" "niedrig" );
}
node Temp_Trennmesser 
{
  states = ( "hoch" "mittel" "niedrig" );
}
node UneinheitlicheWanddickenverteilung 
{
  states = ( "Ja" "Nein" );
}
node VerunreinRohstoff 
{
  states = ( "Ja" "Nein" );
}
node VerwerfungVerzugEinfallstellen 
{
  states = ( "Ja" "Nein" );
}
node Vorblasdruck 
{
  states = ( "hoch" "mittel" "niedrig" );
}
node Vorblaszeit 
{
  states = ( "hoch" "mittel" "niedrig" );
}
node Vorformling_zukurz 
{
  states = ( "Ja" "Nein" );
}
node WDS 
{
  states = ( "iO" "niO" );
}
node Weissbruch 
{
  states = ( "Ja" "Nein" );
}
node Werkzeugentlueftung 
{
  states = ( "iO" "niO" );
}
node Werkzeugkuehlung 
{
  states = ( "iO" "niO" );
}
node Zykluszeit 
{
  states = ( "iO" "niO" );
}
potential ( AbstandDueseForm ) 
{
  data = ( 0.25949 0.74051 );
}
potential ( Artikelgewicht ) 
{
  data = ( 0.47002 0.15872 0.37126 );
}
potential ( ArtikelhaengtFrom | Auswerferzeit BeschaedigungForm Blaszeit Entformungshilfe Entlueftungszeit Form_Sandstrahlung Schlauchlaufrichtung ) 
{
  data = ((((((((0.295302 0.704698)(0.2490706 0.7509294))((0.3082707 0.6917293)(0.2438017 0.7561983)))(((0.2839721 0.7160279)(0.2704591 0.7295409))((0.2656514 0.7343486)(0.2782875 0.7217125)))(((0.3035714 0.6964286)(0.2941176 0.7058824))((0.2622951 0.7377049)(0.1846154 0.8153846))))((((0.2692308 0.7307692)(0.2297735 0.7702265))((0.3036649 0.6963351)(0.2686084 0.7313916)))(((0.2711111 0.7288889)(0.2609819 0.7390181))((0.2639885 0.7360115)(0.2722603 0.7277397)))(((0.296875 0.703125)(0.2402597 0.7597403))((0.2 0.8)(0.2519685 0.7480315)))))(((((0.2241379 0.7758621)(0.1818182 0.8181818))((0.2142857 0.7857143)(0.2314815 0.7685185)))(((0.2295082 0.7704918)(0.3025751 0.6974249))((0.3104839 0.6895161)(0.2613909 0.7386091)))(((0.4166667 0.5833333)(0.2439024 0.7560976))((0.3076923 0.6923077)(0.15625 0.84375))))((((0.3055556 0.6944444)(0.2517007 0.7482993))((0.2820513 0.7179487)(0.296 0.704)))(((0.3132911 0.6867089)(0.2696629 0.7303371))((0.2598684 0.7401316)(0.2568627 0.7431373)))(((0.1521739 0.8478261)(0.3484848 0.6515152))((0.1666667 0.8333333)(0.3157895 0.6842105)))))(((((0.3090909 0.6909091)(0.2385321 0.7614679))((0.2666667 0.7333333)(0.2540984 0.7459016)))(((0.256705 0.743295)(0.244389 0.755611))((0.3011152 0.6988848)(0.2671756 0.7328244)))(((0.2 0.8)(0.3333333 0.6666667))((0.15 0.85)(0.3333333 0.6666667))))((((0.3152174 0.6847826)(0.2619048 0.7380952))((0.3432836 0.6567164)(0.2818182 0.7181818)))(((0.2724138 0.7275862)(0.2784314 0.7215686))((0.3255034 0.6744966)(0.280303 0.719697)))(((0.07407407 0.92592593)(0.1923077 0.8076923))((0.2432432 0.7567568)(0.2075472 0.7924528))))))((((((0.1888889 0.8111111)(0.2605634 0.7394366))((0.2539683 0.7460317)(0.2555911 0.7444089)))(((0.2665615 0.7334385)(0.2767402 0.7232598))((0.2601504 0.7398496)(0.2405063 0.7594937)))(((0.3230769 0.6769231)(0.2578125 0.7421875))((0.2380952 0.7619048)(0.3037037 0.6962963))))((((0.2690355 0.7309645)(0.2780899 0.7219101))((0.2243902 0.7756098)(0.3323782 0.6676218)))(((0.2630303 0.7369697)(0.2651357 0.7348643))((0.2915633 0.7084367)(0.2697642 0.7302358)))(((0.2380952 0.7619048)(0.2868217 0.7131783))((0.3736264 0.6263736)(0.2671756 0.7328244)))))(((((0.2345679 0.7654321)(0.2519685 0.7480315))((0.1971831 0.8028169)(0.3185185 0.6814815)))(((0.2809365 0.7190635)(0.2437722 0.7562278))((0.2915254 0.7084746)(0.2771318 0.7228682)))(((0.2325581 0.7674419)(0.2037037 0.7962963))((0.326087 0.673913)(0.2580645 0.7419355))))((((0.2307692 0.7692308)(0.2352941 0.7647059))((0.2222222 0.7777778)(0.2411348 0.7588652)))(((0.2767123 0.7232877)(0.2749638 0.7250362))((0.2686981 0.7313019)(0.2519201 0.7480799)))(((0.3333333 0.6666667)(0.2857143 0.7142857))((0.2608696 0.7391304)(0.2166667 0.7833333)))))(((((0.2222222 0.7777778)(0.2063492 0.7936508))((0.1935484 0.8064516)(0.2892562 0.7107438)))(((0.2751678 0.7248322)(0.238835 0.761165))((0.2716981 0.7283019)(0.2601626 0.7398374)))(((0.1111111 0.8888889)(0.2083333 0.7916667))((0.1428571 0.8571429)(0.2608696 0.7391304))))((((0.2929293 0.7070707)(0.2732558 0.7267442))((0.2395833 0.7604167)(0.2631579 0.7368421)))(((0.2672414 0.7327586)(0.2533784 0.7466216))((0.2942779 0.7057221)(0.2833052 0.7166948)))(((0.1785714 0.8214286)(0.3026316 0.6973684))((0.3414634 0.6585366)(0.3289474 0.6710526)))))))(((((((0.258427 0.741573)(0.3003534 0.6996466))((0.2628571 0.7371429)(0.2926829 0.7073171)))(((0.2545969 0.7454031)(0.271028 0.728972))((0.2567783 0.7432217)(0.2731092 0.7268908)))(((0.2380952 0.7619048)(0.2352941 0.7647059))((0.2253521 0.7746479)(0.2644628 0.7355372))))((((0.2489627 0.7510373)(0.2920354 0.7079646))((0.2736318 0.7263682)(0.2666667 0.7333333)))(((0.2685644 0.7314356)(0.2715867 0.7284133))((0.2374101 0.7625899)(0.2652015 0.7347985)))(((0.2282609 0.7717391)(0.3125 0.6875))((0.2658228 0.7341772)(0.292517 0.707483)))))(((((0.3061224 0.6938776)(0.2713178 0.7286822))((0.1604938 0.8395062)(0.2786885 0.7213115)))(((0.2372881 0.7627119)(0.2607843 0.7392157))((0.2764505 0.7235495)(0.2443992 0.7556008)))(((0.2173913 0.7826087)(0.2459016 0.7540984))((0.1851852 0.8148148)(0.2391304 0.7608696))))((((0.1604938 0.8395062)(0.2795031 0.7204969))((0.2616822 0.7383178)(0.2397661 0.7602339)))(((0.283237 0.716763)(0.2923875 0.7076125))((0.234957 0.765043)(0.2754919 0.7245081)))(((0.09375 0.90625)(0.2923077 0.7076923))((0.1935484 0.8064516)(0.2166667 0.7833333)))))(((((0.238806 0.761194)(0.2086331 0.7913669))((0.2105263 0.7894737)(0.2986111 0.7013889)))(((0.286645 0.713355)(0.2722117 0.7277883))((0.2465753 0.7534247)(0.278626 0.721374)))(((0.2325581 0.7674419)(0.358209 0.641791))((0.2758621 0.7241379)(0.3125 0.6875))))((((0.2111111 0.7888889)(0.2993631 0.7006369))((0.2790698 0.7209302)(0.294964 0.705036)))(((0.2342342 0.7657658)(0.2369281 0.7630719))((0.2528736 0.7471264)(0.2649842 0.7350158)))(((0.2884615 0.7115385)(0.34375 0.65625))((0.3 0.7)(0.2394366 0.7605634))))))((((((0.1857143 0.8142857)(0.2840237 0.7159763))((0.2718447 0.7281553)(0.3079096 0.6920904)))(((0.2849807 0.7150193)(0.2548148 0.7451852))((0.2452351 0.7547649)(0.2664336 0.7335664)))(((0.278481 0.721519)(0.2971014 0.7028986))((0.2857143 0.7142857)(0.2777778 0.7222222))))((((0.2310606 0.7689394)(0.2488688 0.7511312))((0.2139535 0.7860465)(0.2923434 0.7076566)))(((0.2610442 0.7389558)(0.2630662 0.7369338))((0.270073 0.729927)(0.2713777 0.7286223)))(((0.2037037 0.7962963)(0.2908163 0.7091837))((0.3027523 0.6972477)(0.2587065 0.7412935)))))(((((0.2073171 0.7926829)(0.2625 0.7375))((0.2592593 0.7407407)(0.3333333 0.6666667)))(((0.2956522 0.7043478)(0.2637931 0.7362069))((0.2857143 0.7142857)(0.2736318 0.7263682)))(((0.3658537 0.6341463)(0.1803279 0.8196721))((0.2857143 0.7142857)(0.3 0.7))))((((0.3396226 0.6603774)(0.2251309 0.7748691))((0.34 0.66)(0.2666667 0.7333333)))(((0.2718894 0.7281106)(0.2560322 0.7439678))((0.2559367 0.7440633)(0.2733918 0.7266082)))(((0.2653061 0.7346939)(0.2826087 0.7173913))((0.2222222 0.7777778)(0.3950617 0.6049383)))))(((((0.2022472 0.7977528)(0.2564103 0.7435897))((0.1976744 0.8023256)(0.2992701 0.7007299)))(((0.2452229 0.7547771)(0.281362 0.718638))((0.2716763 0.7283237)(0.2504472 0.7495528)))(((0.2758621 0.7241379)(0.2380952 0.7619048))((0.2352941 0.7647059)(0.1929825 0.8070175))))((((0.2056075 0.7943925)(0.3103448 0.6896552))((0.2857143 0.7142857)(0.2984293 0.7015707)))(((0.2921615 0.7078385)(0.2968338 0.7031662))((0.2420091 0.7579909)(0.3004292 0.6995708)))(((0.25 0.75)(0.2325581 0.7674419))((0.2291667 0.7708333)(0.3373494 0.6626506)))))))(((((((0.2985075 0.7014925)(0.226087 0.773913))((0.25 0.75)(0.2897196 0.7102804)))(((0.2371542 0.7628458)(0.2387707 0.7612293))((0.2586873 0.7413127)(0.2934537 0.7065463)))(((0.2692308 0.7307692)(0.18 0.82))((0.1034483 0.8965517)(0.4042553 0.5957447))))((((0.1868132 0.8131868)(0.2283465 0.7716535))((0.2638889 0.7361111)(0.2824427 0.7175573)))(((0.2945736 0.7054264)(0.2505176 0.7494824))((0.2561404 0.7438596)(0.2504673 0.7495327)))(((0.2619048 0.7380952)(0.2372881 0.7627119))((0.2051282 0.7948718)(0.2830189 0.7169811)))))(((((0.1904762 0.8095238)(0.3902439 0.6097561))((0.2 0.8)(0.2765957 0.7234043)))(((0.2307692 0.7692308)(0.2984293 0.7015707))((0.255102 0.744898)(0.2105263 0.7894737)))(((0.3571429 0.6428571)(0.5 0.5))((0.125 0.875)(0.2857143 0.7142857))))((((0.28 0.72)(0.3181818 0.6818182))((0.1538462 0.8461538)(0.25 0.75)))(((0.2457627 0.7542373)(0.3066667 0.6933333))((0.3076923 0.6923077)(0.2857143 0.7142857)))(((0.1052632 0.8947368)(0.4166667 0.5833333))((0.3333333 0.6666667)(0.2941176 0.7058824)))))(((((0.2162162 0.7837838)(0.3617021 0.6382979))((0.125 0.875)(0.255814 0.744186)))(((0.2897196 0.7102804)(0.29375 0.70625))((0.3083333 0.6916667)(0.3399015 0.6600985)))(((0.2 0.8)(0.1428571 0.8571429))((0.5 0.5)(0.3181818 0.6818182))))((((0.3030303 0.6969697)(0.2542373 0.7457627))((0.25 0.75)(0.2222222 0.7777778)))(((0.2237762 0.7762238)(0.2454545 0.7545455))((0.2682927 0.7317073)(0.305 0.695)))(((0.1333333 0.8666667)(0.2592593 0.7407407))((0.1538462 0.8461538)(0.2307692 0.7692308))))))((((((0.1866667 0.8133333)(0.2612613 0.7387387))((0.2857143 0.7142857)(0.2402597 0.7597403)))(((0.3146853 0.6853147)(0.259332 0.740668))((0.2262774 0.7737226)(0.2842942 0.7157058)))(((0.2352941 0.7647059)(0.2857143 0.7142857))((0.2058824 0.7941176)(0.3461538 0.6538462))))((((0.3186813 0.6813187)(0.2781457 0.7218543))((0.3488372 0.6511628)(0.3851351 0.6148649)))(((0.254386 0.745614)(0.2541806 0.7458194))((0.2594752 0.7405248)(0.2596315 0.7403685)))(((0.3023256 0.6976744)(0.328125 0.671875))((0.28 0.72)(0.2352941 0.7647059)))))(((((0.2424242 0.7575758)(0.28125 0.71875))((0.4193548 0.5806452)(0.3333333 0.6666667)))(((0.2535211 0.7464789)(0.2700422 0.7299578))((0.2982456 0.7017544)(0.245283 0.754717)))(((0.125 0.875)(0.2608696 0.7391304))((0.1666667 0.8333333)(0.1111111 0.8888889))))((((0.3777778 0.6222222)(0.254902 0.745098))((0.1818182 0.8181818)(0.2105263 0.7894737)))(((0.1768707 0.8231293)(0.2262774 0.7737226))((0.3116883 0.6883117)(0.3033708 0.6966292)))(((0.2352941 0.7647059)(0.1851852 0.8148148))((0.3333333 0.6666667)(0.3055556 0.6944444)))))(((((0.2307692 0.7692308)(0.3833333 0.6166667))((0.2580645 0.7419355)(0.375 0.625)))(((0.2598425 0.7401575)(0.3105023 0.6894977))((0.2307692 0.7692308)(0.2179487 0.7820513)))(((0.3333333 0.6666667)(0.1388889 0.8611111))((0.2 0.8)(0.2962963 0.7037037))))((((0.2105263 0.7894737)(0.2297297 0.7702703))((0.2307692 0.7692308)(0.2307692 0.7692308)))(((0.2484472 0.7515528)(0.2362205 0.7637795))((0.3051948 0.6948052)(0.2862319 0.7137681)))(((0.1666667 0.8333333)(0.2857143 0.7142857))((0.3333333 0.6666667)(0.1724138 0.8275862)))))))) ;
}
potential ( Artikelwand | Blasdruck ) 
{
  data = ((0.2040973 0.7959027)(0.203758 0.796242)(0.2013999 0.7986001)) ;
}
potential ( Auswerferzeit ) 
{
  data = ( 0.38496 0.45056 0.16448 );
}
potential ( BeschaedigungButzenk ) 
{
  data = ( 0.67411 0.32589 );
}
potential ( BeschaedigungDuese ) 
{
  data = ( 0.24303 0.75697 );
}
potential ( BeschaedigungForm ) 
{
  data = ( 0.45542 0.54458 );
}
potential ( BeschaedigungKalibrdo ) 
{
  data = ( 0.21916 0.78084 );
}
potential ( BeschaedigungSchneid ) 
{
  data = ( 0.55763 0.44237 );
}
potential ( BeschaedigungTragbild ) 
{
  data = ( 0.63195 0.36805 );
}
potential ( BeschaedigungVerschl ) 
{
  data = ( 0.22587 0.77413 );
}
potential ( Blasdorneinschub | BeschaedigungForm BeschaedigungKalibrdo Geschw_Blasdornein Schlauchquetsche Stuetzluft Temp_Trennmesser Vorblasdruck ) 
{
  data = ((((((((0.3829787 0.6170213)(0.4057971 0.5942029)(0.4 0.6))((0.4435484 0.5564516)(0.4642857 0.5357143)(0.4318182 0.5681818))((0.3809524 0.6190476)(0.3653846 0.6346154)(0.7 0.3)))(((0.4444444 0.5555556)(0.4319527 0.5680473)(0.3529412 0.6470588))((0.4124294 0.5875706)(0.4593301 0.5406699)(0.4347826 0.5652174))((0.3478261 0.6521739)(0.5138889 0.4861111)(0.6 0.4)))(((0.3333333 0.6666667)(0.4736842 0.5263158)(0.3333333 0.6666667))((0.296875 0.703125)(0.5034965 0.4965035)(0.4 0.6))((0.5 0.5)(0.3571429 0.6428571)(0.5 0.5))))((((0.4133333 0.5866667)(0.4502618 0.5497382)(0.5 0.5))((0.408805 0.591195)(0.4943567 0.5056433)(0.5243902 0.4756098))((0.6896552 0.3103448)(0.483871 0.516129)(0.3809524 0.6190476)))(((0.4814815 0.5185185)(0.3891213 0.6108787)(0.46875 0.53125))((0.464455 0.535545)(0.4371773 0.5628227)(0.4883721 0.5116279))((0.4255319 0.5744681)(0.4157303 0.5842697)(0.2857143 0.7142857)))(((0.4242424 0.5757576)(0.3058824 0.6941176)(0.6666667 0.3333333))((0.402439 0.597561)(0.4371859 0.5628141)(0.4444444 0.5555556))((0.1 0.9)(0.4482759 0.5517241)(0.5714286 0.4285714)))))(((((0.4285714 0.5714286)(0.4769231 0.5230769)(0.3333333 0.6666667))((0.4305556 0.5694444)(0.3965517 0.6034483)(0.3043478 0.6956522))((0.5 0.5)(0.6285714 0.3714286)(0.7777778 0.2222222)))(((0.5 0.5)(0.4301075 0.5698925)(0.4545455 0.5454545))((0.3846154 0.6153846)(0.5073892 0.4926108)(0.4 0.6))((0.3571429 0.6428571)(0.44 0.56)(0.5 0.5)))(((0.6666667 0.3333333)(0.4 0.6)(0.75 0.25))((0.4516129 0.5483871)(0.5454545 0.4545455)(0.4285714 0.5714286))((0.75 0.25)(0.8 0.2)(1.0 0.0))))((((0.3823529 0.6176471)(0.4666667 0.5333333)(0.25 0.75))((0.4382022 0.5617978)(0.4148472 0.5851528)(0.4444444 0.5555556))((0.5 0.5)(0.5365854 0.4634146)(0.5555556 0.4444444)))(((0.4047619 0.5952381)(0.4741379 0.5258621)(0.5 0.5))((0.4174757 0.5825243)(0.4107143 0.5892857)(0.4545455 0.5454545))((0.4444444 0.5555556)(0.6170213 0.3829787)(0.5555556 0.4444444)))(((0.3333333 0.6666667)(0.3611111 0.6388889)(0.5714286 0.4285714))((0.4857143 0.5142857)(0.4 0.6)(0.5909091 0.4090909))((1.0 0.0)(0.5294118 0.4705882)(0.3333333 0.6666667)))))(((((0.5909091 0.4090909)(0.4931507 0.5068493)(0.4 0.6))((0.4642857 0.5357143)(0.4567901 0.5432099)(0.4482759 0.5517241))((0.2727273 0.7272727)(0.3939394 0.6060606)(0.0 1.0)))(((0.6153846 0.3846154)(0.5555556 0.4444444)(0.3333333 0.6666667))((0.4393939 0.5606061)(0.4301075 0.5698925)(0.3548387 0.6451613))((0.5384615 0.4615385)(0.4594595 0.5405405)(0.6666667 0.3333333)))(((0.5714286 0.4285714)(0.2631579 0.7368421)(0.5 0.5))((0.4210526 0.5789474)(0.3809524 0.6190476)(0.7142857 0.2857143))((0.4 0.6)(0.2666667 0.7333333)(0.0 1.0))))((((0.5757576 0.4242424)(0.4512195 0.5487805)(0.125 0.875))((0.3661972 0.6338028)(0.4191919 0.5808081)(0.5 0.5))((0.5555556 0.4444444)(0.4864865 0.5135135)(0.6 0.4)))(((0.3636364 0.6363636)(0.4536082 0.5463918)(0.2727273 0.7272727))((0.5138889 0.4861111)(0.3908046 0.6091954)(0.452381 0.547619))((0.6428571 0.3571429)(0.3469388 0.6530612)(0.5714286 0.4285714)))(((0.4444444 0.5555556)(0.5151515 0.4848485)(0.6 0.4))((0.5128205 0.4871795)(0.4494382 0.5505618)(0.6923077 0.3076923))((0.5 0.5)(0.4166667 0.5833333)(0.0 1.0))))))((((((0.4463277 0.5536723)(0.4618321 0.5381679)(0.4025974 0.5974026))((0.470024 0.529976)(0.4634146 0.5365854)(0.4120879 0.5879121))((0.5606061 0.4393939)(0.490566 0.509434)(0.5121951 0.4878049)))(((0.4212766 0.5787234)(0.4779051 0.5220949)(0.4752475 0.5247525))((0.4340278 0.5659722)(0.4483471 0.5516529)(0.4823009 0.5176991))((0.3411765 0.6588235)(0.4306569 0.5693431)(0.425 0.575)))(((0.4266667 0.5733333)(0.4491525 0.5508475)(0.4782609 0.5217391))((0.4329897 0.5670103)(0.4563107 0.5436893)(0.5421687 0.4578313))((0.56 0.44)(0.4375 0.5625)(0.6 0.4))))((((0.4200743 0.5799257)(0.4648494 0.5351506)(0.4818182 0.5181818))((0.4528926 0.5471074)(0.4553936 0.5446064)(0.4382022 0.5617978))((0.5113636 0.4886364)(0.4517375 0.5482625)(0.3962264 0.6037736)))(((0.4324324 0.5675676)(0.4318707 0.5681293)(0.4822695 0.5177305))((0.4705094 0.5294906)(0.4453823 0.5546177)(0.3850932 0.6149068))((0.504 0.496)(0.4553073 0.5446927)(0.5178571 0.4821429)))(((0.3870968 0.6129032)(0.471223 0.528777)(0.3396226 0.6603774))((0.4349206 0.5650794)(0.4645892 0.5354108)(0.3846154 0.6153846))((0.4722222 0.5277778)(0.440678 0.559322)(0.4444444 0.5555556)))))(((((0.3298969 0.6701031)(0.4462151 0.5537849)(0.5333333 0.4666667))((0.4801762 0.5198238)(0.4435076 0.5564924)(0.3557692 0.6442308))((0.5588235 0.4411765)(0.4639175 0.5360825)(0.3157895 0.6842105)))(((0.5140187 0.4859813)(0.4511041 0.5488959)(0.5294118 0.4705882))((0.4633205 0.5366795)(0.485755 0.514245)(0.4016393 0.5983607))((0.5357143 0.4642857)(0.4198473 0.5801527)(0.375 0.625)))(((0.5833333 0.4166667)(0.4285714 0.5714286)(0.4 0.6))((0.4646465 0.5353535)(0.4541833 0.5458167)(0.4193548 0.5806452))((0.2666667 0.7333333)(0.4772727 0.5227273)(0.25 0.75))))((((0.3508772 0.6491228)(0.4403409 0.5596591)(0.4166667 0.5833333))((0.5254237 0.4745763)(0.4585834 0.5414166)(0.3892617 0.6107383))((0.4576271 0.5423729)(0.5032258 0.4967742)(0.5 0.5)))(((0.4161491 0.5838509)(0.4665072 0.5334928)(0.4032258 0.5967742))((0.4553846 0.5446154)(0.468254 0.531746)(0.4375 0.5625))((0.4492754 0.5507246)(0.4186047 0.5813953)(0.4166667 0.5833333)))(((0.5 0.5)(0.4367089 0.5632911)(0.4 0.6))((0.4583333 0.5416667)(0.4227053 0.5772947)(0.5090909 0.4909091))((0.3125 0.6875)(0.3880597 0.6119403)(0.5 0.5)))))(((((0.4078947 0.5921053)(0.4647303 0.5352697)(0.3823529 0.6176471))((0.3485714 0.6514286)(0.4376238 0.5623762)(0.5 0.5))((0.5483871 0.4516129)(0.3939394 0.6060606)(0.6666667 0.3333333)))(((0.4444444 0.5555556)(0.4504132 0.5495868)(0.5675676 0.4324324))((0.4555985 0.5444015)(0.4492308 0.5507692)(0.4285714 0.5714286))((0.4042553 0.5957447)(0.3831776 0.6168224)(0.5238095 0.4761905)))(((0.4545455 0.5454545)(0.4 0.6)(0.5 0.5))((0.4222222 0.5777778)(0.3991935 0.6008065)(0.4516129 0.5483871))((0.4545455 0.5454545)(0.5405405 0.4594595)(0.1666667 0.8333333))))((((0.4036697 0.5963303)(0.4267516 0.5732484)(0.4347826 0.5652174))((0.4784483 0.5215517)(0.4366197 0.5633803)(0.4255319 0.5744681))((0.4565217 0.5434783)(0.4516129 0.5483871)(0.4545455 0.5454545)))(((0.4201681 0.5798319)(0.4438202 0.5561798)(0.3220339 0.6779661))((0.3946488 0.6053512)(0.4599303 0.5400697)(0.3881579 0.6118421))((0.516129 0.483871)(0.4903226 0.5096774)(0.3333333 0.6666667)))(((0.5 0.5)(0.3577236 0.6422764)(0.3333333 0.6666667))((0.4903846 0.5096154)(0.4195584 0.5804416)(0.4042553 0.5957447))((0.3888889 0.6111111)(0.4067797 0.5932203)(0.6666667 0.3333333)))))))(((((((0.4166667 0.5833333)(0.4327485 0.5672515)(0.6956522 0.3043478))((0.4303797 0.5696203)(0.3917526 0.6082474)(0.2833333 0.7166667))((0.5 0.5)(0.4264706 0.5735294)(0.5714286 0.4285714)))(((0.4262295 0.5737705)(0.3802083 0.6197917)(0.4516129 0.5483871))((0.4357542 0.5642458)(0.4472574 0.5527426)(0.4505495 0.5494505))((0.6666667 0.3333333)(0.5052632 0.4947368)(0.6666667 0.3333333)))(((0.5588235 0.4411765)(0.4197531 0.5802469)(0.5714286 0.4285714))((0.5394737 0.4605263)(0.4787879 0.5212121)(0.4074074 0.5925926))((0.4615385 0.5384615)(0.56 0.44)(0.3333333 0.6666667))))((((0.3595506 0.6404494)(0.4463519 0.5536481)(0.5853659 0.4146341))((0.4052863 0.5947137)(0.4538879 0.5461121)(0.3855422 0.6144578))((0.4102564 0.5897436)(0.5 0.5)(0.4210526 0.5789474)))(((0.5212766 0.4787234)(0.4261745 0.5738255)(0.4 0.6))((0.4509804 0.5490196)(0.4356287 0.5643713)(0.5140187 0.4859813))((0.4444444 0.5555556)(0.4615385 0.5384615)(0.6666667 0.3333333)))(((0.3170732 0.6829268)(0.3883495 0.6116505)(0.5555556 0.4444444))((0.4109589 0.5890411)(0.4330357 0.5669643)(0.4516129 0.5483871))((0.6153846 0.3846154)(0.5277778 0.4722222)(0.4 0.6)))))(((((0.3636364 0.6363636)(0.45 0.55)(0.5294118 0.4705882))((0.46875 0.53125)(0.4037559 0.5962441)(0.2702703 0.7297297))((0.4166667 0.5833333)(0.3793103 0.6206897)(0.375 0.625)))(((0.4736842 0.5263158)(0.4571429 0.5428571)(0.5333333 0.4666667))((0.4470588 0.5529412)(0.4669261 0.5330739)(0.3409091 0.6590909))((0.5 0.5)(0.4594595 0.5405405)(0.3333333 0.6666667)))(((0.5714286 0.4285714)(0.4814815 0.5185185)(0.0 1.0))((0.4137931 0.5862069)(0.4337349 0.5662651)(0.3333333 0.6666667))((0.6666667 0.3333333)(0.35 0.65)(0.5 0.5))))((((0.4594595 0.5405405)(0.4328358 0.5671642)(0.4615385 0.5384615))((0.4895833 0.5104167)(0.4873646 0.5126354)(0.4102564 0.5897436))((0.4444444 0.5555556)(0.4814815 0.5185185)(0.5 0.5)))(((0.3888889 0.6111111)(0.462069 0.537931)(0.5 0.5))((0.4615385 0.5384615)(0.4200542 0.5799458)(0.4509804 0.5490196))((0.375 0.625)(0.442623 0.557377)(0.5 0.5)))(((0.4761905 0.5238095)(0.4571429 0.5428571)(0.2222222 0.7777778))((0.4736842 0.5263158)(0.3981481 0.6018519)(0.4210526 0.5789474))((0.4285714 0.5714286)(0.5172414 0.4827586)(0.5 0.5)))))(((((0.5172414 0.4827586)(0.4534884 0.5465116)(0.5454545 0.4545455))((0.4237288 0.5762712)(0.4611111 0.5388889)(0.5 0.5))((0.5 0.5)(0.5 0.5)(0.4285714 0.5714286)))(((0.4 0.6)(0.359375 0.640625)(0.5652174 0.4347826))((0.3918919 0.6081081)(0.470852 0.529148)(0.4722222 0.5277778))((0.4285714 0.5714286)(0.4102564 0.5897436)(0.25 0.75)))(((0.3333333 0.6666667)(0.3913043 0.6086957)(0.25 0.75))((0.4 0.6)(0.4520548 0.5479452)(0.4166667 0.5833333))((0.25 0.75)(0.625 0.375)(0.5 0.5))))((((0.4615385 0.5384615)(0.4554455 0.5445545)(0.6190476 0.3809524))((0.3636364 0.6363636)(0.4552846 0.5447154)(0.3125 0.6875))((0.4375 0.5625)(0.4318182 0.5681818)(0.25 0.75)))(((0.3863636 0.6136364)(0.4424779 0.5575221)(0.4761905 0.5238095))((0.4095238 0.5904762)(0.4729242 0.5270758)(0.375 0.625))((0.5625 0.4375)(0.5882353 0.4117647)(0.125 0.875)))(((0.6470588 0.3529412)(0.4736842 0.5263158)(0.6666667 0.3333333))((0.4047619 0.5952381)(0.4795918 0.5204082)(0.6428571 0.3571429))((0.125 0.875)(0.3888889 0.6111111)(1.0 0.0))))))((((((0.5045872 0.4954128)(0.4784053 0.5215947)(0.46875 0.53125))((0.4212524 0.5787476)(0.4378378 0.5621622)(0.4853556 0.5146444))((0.4693878 0.5306122)(0.4478764 0.5521236)(0.4761905 0.5238095)))(((0.458042 0.541958)(0.4289544 0.5710456)(0.4 0.6))((0.4448 0.5552)(0.4216125 0.5783875)(0.4208633 0.5791367))((0.3 0.7)(0.4503311 0.5496689)(0.5576923 0.4423077)))(((0.4787234 0.5212766)(0.4193548 0.5806452)(0.5217391 0.4782609))((0.5020747 0.4979253)(0.4601504 0.5398496)(0.3604651 0.6395349))((0.4 0.6)(0.5267857 0.4732143)(0.4814815 0.5185185))))((((0.4886731 0.5113269)(0.4525547 0.5474453)(0.4189189 0.5810811))((0.4675676 0.5324324)(0.439001 0.560999)(0.4620061 0.5379939))((0.504065 0.495935)(0.4519231 0.5480769)(0.5 0.5)))(((0.4891304 0.5108696)(0.4381551 0.5618449)(0.4277457 0.5722543))((0.4241338 0.5758662)(0.4448898 0.5551102)(0.5357143 0.4642857))((0.392638 0.607362)(0.4645477 0.5354523)(0.4666667 0.5333333)))(((0.3739837 0.6260163)(0.4068768 0.5931232)(0.4385965 0.5614035))((0.428115 0.571885)(0.4468085 0.5531915)(0.45 0.55))((0.490566 0.509434)(0.3508772 0.6491228)(0.35 0.65)))))(((((0.4299065 0.5700935)(0.4851485 0.5148515)(0.3392857 0.6607143))((0.4415094 0.5584906)(0.4373259 0.5626741)(0.37 0.63))((0.5333333 0.4666667)(0.3508772 0.6491228)(0.4782609 0.5217391)))(((0.4173913 0.5826087)(0.4624277 0.5375723)(0.4 0.6))((0.433121 0.566879)(0.4305882 0.5694118)(0.4405594 0.5594406))((0.4489796 0.5510204)(0.4774194 0.5225806)(0.4782609 0.5217391)))(((0.4444444 0.5555556)(0.5121951 0.4878049)(0.3333333 0.6666667))((0.4653465 0.5346535)(0.4479495 0.5520505)(0.3783784 0.6216216))((0.1904762 0.8095238)(0.3548387 0.6451613)(0.4 0.6))))((((0.3951613 0.6048387)(0.4267677 0.5732323)(0.4745763 0.5254237))((0.4600551 0.5399449)(0.4492611 0.5507389)(0.4482759 0.5517241))((0.4210526 0.5789474)(0.4363636 0.5636364)(0.5416667 0.4583333)))(((0.490566 0.509434)(0.4527163 0.5472837)(0.6 0.4))((0.4364508 0.5635492)(0.4561102 0.5438898)(0.4090909 0.5909091))((0.3972603 0.6027397)(0.4537037 0.5462963)(0.5 0.5)))(((0.5454545 0.4545455)(0.4072165 0.5927835)(0.5185185 0.4814815))((0.4431138 0.5568862)(0.4090909 0.5909091)(0.4657534 0.5342466))((0.3888889 0.6111111)(0.4179104 0.5820896)(0.5 0.5)))))(((((0.4094488 0.5905512)(0.4981413 0.5018587)(0.2682927 0.7317073))((0.4189189 0.5810811)(0.4650794 0.5349206)(0.516129 0.483871))((0.4722222 0.5277778)(0.4782609 0.5217391)(0.3846154 0.6153846)))(((0.4954955 0.5045045)(0.4411765 0.5588235)(0.4313725 0.5686275))((0.4357143 0.5642857)(0.4522207 0.5477793)(0.496 0.504))((0.4032258 0.5967742)(0.4247788 0.5752212)(0.68 0.32)))(((0.3589744 0.6410256)(0.4375 0.5625)(0.4705882 0.5294118))((0.4921875 0.5078125)(0.4131274 0.5868726)(0.3541667 0.6458333))((0.3571429 0.6428571)(0.3269231 0.6730769)(0.5 0.5))))((((0.4782609 0.5217391)(0.4591029 0.5408971)(0.5208333 0.4791667))((0.420712 0.579288)(0.4256671 0.5743329)(0.4117647 0.5882353))((0.4545455 0.5454545)(0.4817073 0.5182927)(0.5714286 0.4285714)))(((0.4370861 0.5629139)(0.407767 0.592233)(0.4571429 0.5428571))((0.4453552 0.5546448)(0.4331551 0.5668449)(0.4078947 0.5921053))((0.3648649 0.6351351)(0.4556962 0.5443038)(0.5263158 0.4736842)))(((0.440678 0.559322)(0.4859155 0.5140845)(0.34375 0.65625))((0.4222222 0.5777778)(0.4028169 0.5971831)(0.421875 0.578125))((0.4285714 0.5714286)(0.4057971 0.5942029)(0.375 0.625)))))))) ;
}
potential ( Blasdruck ) 
{
  data = ( 0.20892 0.70250 0.08858 );
}
potential ( Blasen | Rohstofffeuchtigkeit Temp_Rohstoff VerunreinRohstoff WDS ) 
{
  data = (((((0.4739138 0.5260862)(0.4706919 0.5293081))((0.4668255 0.5331745)(0.4790981 0.5209019)))(((0.4674438 0.5325562)(0.4739588 0.5260412))((0.4810012 0.5189988)(0.4786811 0.5213189))))((((0.4900133 0.5099867)(0.4693459 0.5306541))((0.4874142 0.5125858)(0.4851552 0.5148448)))(((0.5057604 0.4942396)(0.482968 0.517032))((0.4581725 0.5418275)(0.4865065 0.5134935))))) ;
}
potential ( BlasformteilLeckage ) 
{
  data = ( 0.81337 0.18663 );
}
potential ( Blaszeit ) 
{
  data = ( 0.53546 0.23354 0.23100 );
}
potential ( Butzenabfall | Butzenkammervol Duesengroesse ExtruderRPM Extrusionsdruck Regeneratanteil Schlauchlaufrichtung Schlauchquetsche Temp_Duese Temp_Rohstoff Vorblasdruck Vorblaszeit ) 
{
  data = ((((((((((((0.9 0.1)(0.7142857 0.2857143)(1.0 0.0))((0.8157895 0.1842105)(0.8333333 0.1666667)(0.8823529 0.1176471))((1.0 0.0)(0.5 0.5)(1.0 0.0)))(((0.5 0.5)(0.6 0.4)(1.0 0.0))((0.88 0.12)(0.5555556 0.4444444)(1.0 0.0))((1.0 0.0)(0.5 0.5)(1.0 0.0))))((((0.8333333 0.1666667)(1.0 0.0)(1.0 0.0))((0.72 0.28)(1.0 0.0)(1.0 0.0))((0.0 1.0)(0.5 0.5)(1.0 0.0)))(((0.5 0.5)(1.0 0.0)(0.8333333 0.1666667))((0.8 0.2)(0.6 0.4)(0.75 0.25))((1.0 0.0)(1.0 0.0)(0.5 0.5)))))(((((0.92 0.08)(0.6666667 0.3333333)(0.6666667 0.3333333))((0.7454545 0.2545455)(0.85 0.15)(0.8571429 0.1428571))((0.7 0.3)(0.8 0.2)(1.0 0.0)))(((0.7647059 0.2352941)(0.8 0.2)(0.75 0.25))((0.7777778 0.2222222)(0.7692308 0.2307692)(0.625 0.375))((0.75 0.25)(1.0 0.0)(0.5 0.5))))((((0.8333333 0.1666667)(0.8333333 0.1666667)(1.0 0.0))((0.7692308 0.2307692)(0.8 0.2)(0.875 0.125))((1.0 0.0)(0.6666667 0.3333333)(0.5 0.5)))(((0.7142857 0.2857143)(0.0 1.0)(1.0 0.0))((0.7 0.3)(0.8 0.2)(0.90909091 0.09090909))((0.5 0.5)(1.0 0.0)(0.5 0.5))))))((((((0.7586207 0.2413793)(0.9 0.1)(0.5555556 0.4444444))((0.7826087 0.2173913)(0.84 0.16)(0.8387097 0.1612903))((0.91666667 0.08333333)(0.6666667 0.3333333)(0.5 0.5)))(((0.75 0.25)(0.9375 0.0625)(0.8888889 0.1111111))((0.84 0.16)(0.9375 0.0625)(0.75 0.25))((0.5 0.5)(1.0 0.0)(0.5 0.5))))((((0.7692308 0.2307692)(1.0 0.0)(0.8888889 0.1111111))((0.7288136 0.2711864)(0.8095238 0.1904762)(0.8125 0.1875))((0.8333333 0.1666667)(1.0 0.0)(0.2 0.8)))(((0.5714286 0.4285714)(0.0 1.0)(1.0 0.0))((0.7692308 0.2307692)(1.0 0.0)(0.7777778 0.2222222))((0.3333333 0.6666667)(1.0 0.0)(1.0 0.0)))))(((((0.8529412 0.1470588)(0.92307692 0.07692308)(0.7857143 0.2142857))((0.8352941 0.1647059)(0.7096774 0.2903226)(0.8125 0.1875))((0.8571429 0.1428571)(0.5 0.5)(0.8333333 0.1666667)))(((0.8148148 0.1851852)(0.625 0.375)(0.8181818 0.1818182))((0.8867925 0.1132075)(0.90909091 0.09090909)(0.88 0.12))((0.5714286 0.4285714)(0.5 0.5)(1.0 0.0))))((((0.95238095 0.04761905)(1.0 0.0)(0.9 0.1))((0.8571429 0.1428571)(0.5806452 0.4193548)(0.8181818 0.1818182))((0.8 0.2)(0.0 1.0)(1.0 0.0)))(((0.7333333 0.2666667)(0.7142857 0.2857143)(0.5 0.5))((0.90384615 0.09615385)(1.0 0.0)(0.5833333 0.4166667))((0.8333333 0.1666667)(0.5 0.5)(0.5 0.5)))))))(((((((0.5714286 0.4285714)(1.0 0.0)(0.5 0.5))((0.8 0.2)(0.75 0.25)(1.0 0.0))((1.0 0.0)(0.5 0.5)(0.5 0.5)))(((0.75 0.25)(1.0 0.0)(1.0 0.0))((0.8571429 0.1428571)(1.0 0.0)(1.0 0.0))((1.0 0.0)(0.5 0.5)(1.0 0.0))))((((1.0 0.0)(1.0 0.0)(1.0 0.0))((0.8571429 0.1428571)(0.8888889 0.1111111)(1.0 0.0))((1.0 0.0)(1.0 0.0)(1.0 0.0)))(((0.5 0.5)(1.0 0.0)(0.5 0.5))((1.0 0.0)(0.5 0.5)(1.0 0.0))((1.0 0.0)(0.5 0.5)(1.0 0.0)))))(((((0.5 0.5)(0.0 1.0)(1.0 0.0))((1.0 0.0)(0.8333333 0.1666667)(1.0 0.0))((0.5 0.5)(0.5 0.5)(0.5 0.5)))(((1.0 0.0)(1.0 0.0)(0.5 0.5))((0.8 0.2)(1.0 0.0)(1.0 0.0))((1.0 0.0)(0.5 0.5)(0.6666667 0.3333333))))((((0.5 0.5)(0.5 0.5)(1.0 0.0))((0.8333333 0.1666667)(0.8 0.2)(1.0 0.0))((1.0 0.0)(1.0 0.0)(1.0 0.0)))(((0.75 0.25)(0.0 1.0)(0.0 1.0))((0.75 0.25)(1.0 0.0)(1.0 0.0))((0.0 1.0)(0.5 0.5)(1.0 0.0))))))((((((1.0 0.0)(0.5714286 0.4285714)(1.0 0.0))((0.7931034 0.2068966)(0.6363636 0.3636364)(0.8571429 0.1428571))((0.5 0.5)(0.5 0.5)(1.0 0.0)))(((1.0 0.0)(1.0 0.0)(0.5 0.5))((0.9047619 0.0952381)(0.7142857 0.2857143)(0.8333333 0.1666667))((1.0 0.0)(0.5 0.5)(0.5 0.5))))((((0.5 0.5)(0.5 0.5)(1.0 0.0))((0.90909091 0.09090909)(0.5 0.5)(0.8888889 0.1111111))((1.0 0.0)(0.5 0.5)(1.0 0.0)))(((1.0 0.0)(0.6666667 0.3333333)(0.5 0.5))((0.8888889 0.1111111)(1.0 0.0)(0.6666667 0.3333333))((1.0 0.0)(1.0 0.0)(0.5 0.5)))))(((((1.0 0.0)(0.6666667 0.3333333)(0.8333333 0.1666667))((0.875 0.125)(0.875 0.125)(0.7142857 0.2857143))((0.8 0.2)(0.5 0.5)(1.0 0.0)))(((0.3333333 0.6666667)(1.0 0.0)(1.0 0.0))((0.9375 0.0625)(0.8571429 0.1428571)(0.75 0.25))((0.75 0.25)(1.0 0.0)(0.0 1.0))))((((0.7692308 0.2307692)(0.6666667 0.3333333)(0.6 0.4))((0.9047619 0.0952381)(0.7272727 0.2727273)(1.0 0.0))((0.75 0.25)(1.0 0.0)(1.0 0.0)))(((0.6666667 0.3333333)(1.0 0.0)(1.0 0.0))((0.7777778 0.2222222)(0.75 0.25)(1.0 0.0))((0.75 0.25)(0.0 1.0)(0.5 0.5))))))))((((((((0.8 0.2)(1.0 0.0)(0.5 0.5))((1.0 0.0)(1.0 0.0)(1.0 0.0))((0.75 0.25)(0.0 1.0)(0.5 0.5)))(((0.5 0.5)(0.5 0.5)(1.0 0.0))((0.8571429 0.1428571)(1.0 0.0)(0.5 0.5))((0.0 1.0)(0.5 0.5)(0.5 0.5))))((((0.5 0.5)(0.5 0.5)(1.0 0.0))((1.0 0.0)(1.0 0.0)(0.5 0.5))((1.0 0.0)(1.0 0.0)(0.5 0.5)))(((0.5 0.5)(0.5 0.5)(1.0 0.0))((0.9 0.1)(0.5 0.5)(0.8 0.2))((1.0 0.0)(0.5 0.5)(0.5 0.5)))))(((((0.75 0.25)(0.6666667 0.3333333)(0.75 0.25))((0.8421053 0.1578947)(1.0 0.0)(0.8571429 0.1428571))((1.0 0.0)(1.0 0.0)(0.5 0.5)))(((1.0 0.0)(0.5 0.5)(0.5 0.5))((0.5833333 0.4166667)(0.75 0.25)(1.0 0.0))((1.0 0.0)(0.5 0.5)(0.0 1.0))))((((0.8888889 0.1111111)(1.0 0.0)(1.0 0.0))((0.8 0.2)(1.0 0.0)(0.625 0.375))((1.0 0.0)(1.0 0.0)(0.5 0.5)))(((1.0 0.0)(0.5 0.5)(1.0 0.0))((1.0 0.0)(0.6666667 0.3333333)(1.0 0.0))((1.0 0.0)(0.5 0.5)(1.0 0.0))))))((((((0.6666667 0.3333333)(1.0 0.0)(0.8 0.2))((0.8181818 0.1818182)(1.0 0.0)(0.9 0.1))((0.5 0.5)(0.6666667 0.3333333)(1.0 0.0)))(((0.8571429 0.1428571)(0.75 0.25)(0.5 0.5))((0.92857143 0.07142857)(0.875 0.125)(0.6666667 0.3333333))((0.75 0.25)(1.0 0.0)(0.5 0.5))))((((0.4 0.6)(1.0 0.0)(1.0 0.0))((0.5833333 0.4166667)(0.9 0.1)(0.75 0.25))((1.0 0.0)(0.6666667 0.3333333)(0.5 0.5)))(((1.0 0.0)(1.0 0.0)(1.0 0.0))((1.0 0.0)(1.0 0.0)(0.6666667 0.3333333))((0.0 1.0)(1.0 0.0)(0.5 0.5)))))(((((0.9 0.1)(0.5 0.5)(1.0 0.0))((0.7333333 0.2666667)(1.0 0.0)(0.6666667 0.3333333))((0.0 1.0)(0.5 0.5)(1.0 0.0)))(((0.8 0.2)(1.0 0.0)(1.0 0.0))((0.91666667 0.08333333)(1.0 0.0)(0.8181818 0.1818182))((0.75 0.25)(0.5 0.5)(0.5 0.5))))((((0.8 0.2)(0.5 0.5)(1.0 0.0))((0.7857143 0.2142857)(1.0 0.0)(0.7777778 0.2222222))((1.0 0.0)(0.5 0.5)(0.5 0.5)))(((0.6666667 0.3333333)(1.0 0.0)(1.0 0.0))((0.75 0.25)(1.0 0.0)(1.0 0.0))((0.0 1.0)(1.0 0.0)(1.0 0.0)))))))(((((((0.5 0.5)(1.0 0.0)(0.5 0.5))((0.8333333 0.1666667)(1.0 0.0)(0.5 0.5))((0.5 0.5)(0.5 0.5)(0.5 0.5)))(((0.6666667 0.3333333)(0.5 0.5)(0.5 0.5))((1.0 0.0)(1.0 0.0)(0.5 0.5))((1.0 0.0)(0.5 0.5)(0.5 0.5))))((((0.5 0.5)(0.5 0.5)(0.5 0.5))((1.0 0.0)(0.5 0.5)(0.0 1.0))((0.5 0.5)(0.5 0.5)(1.0 0.0)))(((1.0 0.0)(1.0 0.0)(0.5 0.5))((0.6666667 0.3333333)(1.0 0.0)(0.5 0.5))((0.5 0.5)(0.5 0.5)(1.0 0.0)))))(((((1.0 0.0)(1.0 0.0)(0.5 0.5))((0.8 0.2)(0.75 0.25)(0.5 0.5))((0.5 0.5)(0.5 0.5)(0.5 0.5)))(((0.5 0.5)(0.5 0.5)(1.0 0.0))((1.0 0.0)(1.0 0.0)(1.0 0.0))((1.0 0.0)(0.5 0.5)(0.5 0.5))))((((0.5 0.5)(0.5 0.5)(1.0 0.0))((0.8 0.2)(0.6666667 0.3333333)(1.0 0.0))((0.5 0.5)(0.5 0.5)(0.5 0.5)))(((0.5 0.5)(0.5 0.5)(0.5 0.5))((0.6666667 0.3333333)(0.5 0.5)(0.0 1.0))((1.0 0.0)(0.5 0.5)(0.5 0.5))))))((((((0.3333333 0.6666667)(0.5 0.5)(0.5 0.5))((0.7142857 0.2857143)(1.0 0.0)(1.0 0.0))((0.5 0.5)(0.5 0.5)(1.0 0.0)))(((0.5 0.5)(1.0 0.0)(0.5 0.5))((0.6 0.4)(0.3333333 0.6666667)(1.0 0.0))((0.5 0.5)(0.5 0.5)(0.5 0.5))))((((0.0 1.0)(1.0 0.0)(0.5 0.5))((1.0 0.0)(1.0 0.0)(1.0 0.0))((1.0 0.0)(0.0 1.0)(1.0 0.0)))(((0.5 0.5)(0.0 1.0)(0.5 0.5))((0.3333333 0.6666667)(0.5 0.5)(0.6666667 0.3333333))((0.5 0.5)(1.0 0.0)(0.5 0.5)))))(((((0.25 0.75)(1.0 0.0)(1.0 0.0))((0.90909091 0.09090909)(0.8333333 0.1666667)(1.0 0.0))((1.0 0.0)(1.0 0.0)(0.5 0.5)))(((1.0 0.0)(1.0 0.0)(0.5 0.5))((0.5 0.5)(0.5 0.5)(0.75 0.25))((1.0 0.0)(1.0 0.0)(1.0 0.0))))((((0.5 0.5)(0.5 0.5)(0.5 0.5))((0.8571429 0.1428571)(1.0 0.0)(0.5 0.5))((1.0 0.0)(0.5 0.5)(0.5 0.5)))(((1.0 0.0)(0.5 0.5)(0.5 0.5))((1.0 0.0)(1.0 0.0)(1.0 0.0))((1.0 0.0)(0.5 0.5)(1.0 0.0))))))))((((((((1.0 0.0)(0.0 1.0)(1.0 0.0))((0.8125 0.1875)(1.0 0.0)(0.6666667 0.3333333))((1.0 0.0)(1.0 0.0)(1.0 0.0)))(((1.0 0.0)(0.0 1.0)(1.0 0.0))((0.8888889 0.1111111)(0.5 0.5)(1.0 0.0))((1.0 0.0)(1.0 0.0)(1.0 0.0))))((((0.8 0.2)(1.0 0.0)(0.5 0.5))((0.5 0.5)(0.6 0.4)(1.0 0.0))((1.0 0.0)(1.0 0.0)(0.5 0.5)))(((1.0 0.0)(0.5 0.5)(1.0 0.0))((0.8333333 0.1666667)(1.0 0.0)(1.0 0.0))((0.5 0.5)(1.0 0.0)(0.5 0.5)))))(((((1.0 0.0)(0.8333333 0.1666667)(0.5 0.5))((0.8333333 0.1666667)(0.625 0.375)(1.0 0.0))((0.6666667 0.3333333)(1.0 0.0)(0.5 0.5)))(((0.8 0.2)(1.0 0.0)(0.5 0.5))((0.9 0.1)(0.8 0.2)(0.6 0.4))((1.0 0.0)(0.5 0.5)(1.0 0.0))))((((0.6666667 0.3333333)(0.6666667 0.3333333)(0.5 0.5))((0.7777778 0.2222222)(0.75 0.25)(0.875 0.125))((1.0 0.0)(1.0 0.0)(0.5 0.5)))(((1.0 0.0)(1.0 0.0)(0.5 0.5))((0.8 0.2)(0.6666667 0.3333333)(1.0 0.0))((0.0 1.0)(1.0 0.0)(1.0 0.0))))))((((((0.8461538 0.1538462)(1.0 0.0)(0.6666667 0.3333333))((0.8846154 0.1153846)(0.8461538 0.1538462)(0.8333333 0.1666667))((1.0 0.0)(0.5 0.5)(0.5 0.5)))(((1.0 0.0)(1.0 0.0)(0.6666667 0.3333333))((0.7916667 0.2083333)(0.75 0.25)(0.875 0.125))((0.5 0.5)(1.0 0.0)(1.0 0.0))))((((0.7 0.3)(0.0 1.0)(0.5 0.5))((0.7368421 0.2631579)(0.6 0.4)(0.8571429 0.1428571))((0.6 0.4)(0.0 1.0)(0.5 0.5)))(((0.6 0.4)(1.0 0.0)(0.0 1.0))((0.5833333 0.4166667)(1.0 0.0)(0.8888889 0.1111111))((1.0 0.0)(0.5 0.5)(0.5 0.5)))))(((((0.7272727 0.2727273)(0.875 0.125)(1.0 0.0))((0.8529412 0.1470588)(0.7058824 0.2941176)(0.6111111 0.3888889))((0.8571429 0.1428571)(1.0 0.0)(0.5 0.5)))(((0.6666667 0.3333333)(1.0 0.0)(1.0 0.0))((0.72 0.28)(0.8888889 0.1111111)(1.0 0.0))((0.8 0.2)(0.0 1.0)(1.0 0.0))))((((0.9 0.1)(0.75 0.25)(0.6 0.4))((0.8709677 0.1290323)(0.8181818 0.1818182)(0.3333333 0.6666667))((0.91666667 0.08333333)(1.0 0.0)(1.0 0.0)))(((1.0 0.0)(1.0 0.0)(1.0 0.0))((0.875 0.125)(0.8 0.2)(0.8333333 0.1666667))((0.3333333 0.6666667)(0.5 0.5)(1.0 0.0)))))))(((((((0.5 0.5)(1.0 0.0)(1.0 0.0))((1.0 0.0)(1.0 0.0)(1.0 0.0))((0.5 0.5)(0.5 0.5)(0.5 0.5)))(((1.0 0.0)(0.5 0.5)(1.0 0.0))((0.75 0.25)(0.5 0.5)(1.0 0.0))((0.5 0.5)(0.5 0.5)(0.5 0.5))))((((0.5 0.5)(1.0 0.0)(0.5 0.5))((1.0 0.0)(0.5 0.5)(1.0 0.0))((0.0 1.0)(0.5 0.5)(0.5 0.5)))(((0.5 0.5)(0.5 0.5)(0.5 0.5))((0.6666667 0.3333333)(1.0 0.0)(0.5 0.5))((0.5 0.5)(0.5 0.5)(0.5 0.5)))))(((((1.0 0.0)(0.5 0.5)(1.0 0.0))((0.4444444 0.5555556)(1.0 0.0)(1.0 0.0))((0.5 0.5)(0.5 0.5)(1.0 0.0)))(((1.0 0.0)(0.5 0.5)(1.0 0.0))((0.6666667 0.3333333)(1.0 0.0)(1.0 0.0))((0.0 1.0)(0.5 0.5)(0.5 0.5))))((((1.0 0.0)(0.5 0.5)(1.0 0.0))((0.8 0.2)(0.6666667 0.3333333)(1.0 0.0))((0.5 0.5)(0.5 0.5)(0.5 0.5)))(((0.5 0.5)(0.5 0.5)(0.5 0.5))((1.0 0.0)(1.0 0.0)(0.5 0.5))((0.5 0.5)(0.5 0.5)(0.5 0.5))))))((((((1.0 0.0)(1.0 0.0)(1.0 0.0))((0.6363636 0.3636364)(1.0 0.0)(0.8 0.2))((0.0 1.0)(0.5 0.5)(0.5 0.5)))(((1.0 0.0)(0.5 0.5)(1.0 0.0))((0.7142857 0.2857143)(0.5 0.5)(0.6 0.4))((0.5 0.5)(0.5 0.5)(1.0 0.0))))((((0.8333333 0.1666667)(0.5 0.5)(1.0 0.0))((1.0 0.0)(1.0 0.0)(1.0 0.0))((0.5 0.5)(0.5 0.5)(0.5 0.5)))(((1.0 0.0)(0.5 0.5)(1.0 0.0))((0.8571429 0.1428571)(1.0 0.0)(1.0 0.0))((1.0 0.0)(1.0 0.0)(0.5 0.5)))))(((((0.6666667 0.3333333)(0.5 0.5)(1.0 0.0))((0.6 0.4)(1.0 0.0)(0.3333333 0.6666667))((0.625 0.375)(1.0 0.0)(0.5 0.5)))(((1.0 0.0)(1.0 0.0)(0.5 0.5))((0.75 0.25)(1.0 0.0)(1.0 0.0))((1.0 0.0)(1.0 0.0)(1.0 0.0))))((((0.5 0.5)(1.0 0.0)(1.0 0.0))((0.8888889 0.1111111)(0.5 0.5)(0.7 0.3))((0.5 0.5)(1.0 0.0)(0.5 0.5)))(((1.0 0.0)(0.5 0.5)(1.0 0.0))((0.4 0.6)(1.0 0.0)(0.5 0.5))((0.5 0.5)(1.0 0.0)(1.0 0.0)))))))))(((((((((0.8888889 0.1111111)(1.0 0.0)(1.0 0.0))((0.8076923 0.1923077)(0.8 0.2)(0.8333333 0.1666667))((0.6 0.4)(0.5 0.5)(0.5 0.5)))(((1.0 0.0)(1.0 0.0)(1.0 0.0))((0.8571429 0.1428571)(0.8 0.2)(0.8 0.2))((0.6666667 0.3333333)(0.5 0.5)(1.0 0.0))))((((1.0 0.0)(0.75 0.25)(0.3333333 0.6666667))((0.7 0.3)(0.75 0.25)(0.875 0.125))((0.6666667 0.3333333)(0.5 0.5)(1.0 0.0)))(((0.6666667 0.3333333)(0.5 0.5)(0.5 0.5))((0.5384615 0.4615385)(1.0 0.0)(1.0 0.0))((1.0 0.0)(0.5 0.5)(0.5 0.5)))))(((((1.0 0.0)(1.0 0.0)(0.3333333 0.6666667))((0.8695652 0.1304348)(0.9 0.1)(1.0 0.0))((0.5 0.5)(0.5 0.5)(1.0 0.0)))(((0.8571429 0.1428571)(1.0 0.0)(1.0 0.0))((0.94117647 0.05882353)(0.6 0.4)(0.4285714 0.5714286))((0.6666667 0.3333333)(0.5 0.5)(0.5 0.5))))((((1.0 0.0)(1.0 0.0)(0.5 0.5))((0.8823529 0.1176471)(0.8888889 0.1111111)(0.875 0.125))((1.0 0.0)(1.0 0.0)(1.0 0.0)))(((1.0 0.0)(1.0 0.0)(1.0 0.0))((1.0 0.0)(0.7142857 0.2857143)(0.8333333 0.1666667))((1.0 0.0)(0.5 0.5)(0.5 0.5))))))((((((1.0 0.0)(1.0 0.0)(1.0 0.0))((0.84375 0.15625)(0.7777778 0.2222222)(1.0 0.0))((1.0 0.0)(0.6666667 0.3333333)(1.0 0.0)))(((0.6666667 0.3333333)(0.75 0.25)(1.0 0.0))((0.7058824 0.2941176)(0.6666667 0.3333333)(0.75 0.25))((1.0 0.0)(1.0 0.0)(0.5 0.5))))((((0.7272727 0.2727273)(0.5 0.5)(0.3333333 0.6666667))((0.8461538 0.1538462)(0.8333333 0.1666667)(0.7647059 0.2352941))((0.8 0.2)(0.5 0.5)(0.5 0.5)))(((0.6666667 0.3333333)(0.75 0.25)(1.0 0.0))((0.75 0.25)(1.0 0.0)(1.0 0.0))((0.5 0.5)(1.0 0.0)(0.5 0.5)))))(((((0.6363636 0.3636364)(0.8888889 0.1111111)(1.0 0.0))((0.744186 0.255814)(0.8125 0.1875)(0.75 0.25))((0.91666667 0.08333333)(1.0 0.0)(0.6666667 0.3333333)))(((0.7 0.3)(0.5714286 0.4285714)(0.8 0.2))((0.7741935 0.2258065)(0.92307692 0.07692308)(1.0 0.0))((0.7777778 0.2222222)(0.5 0.5)(1.0 0.0))))((((0.6923077 0.3076923)(0.6 0.4)(1.0 0.0))((0.7666667 0.2333333)(0.8333333 0.1666667)(0.6 0.4))((0.75 0.25)(0.0 1.0)(0.0 1.0)))(((0.8 0.2)(1.0 0.0)(0.8 0.2))((0.94736842 0.05263158)(0.7142857 0.2857143)(0.75 0.25))((1.0 0.0)(1.0 0.0)(0.5 0.5)))))))(((((((1.0 0.0)(0.5 0.5)(1.0 0.0))((0.625 0.375)(1.0 0.0)(1.0 0.0))((0.5 0.5)(0.5 0.5)(0.5 0.5)))(((0.5 0.5)(0.5 0.5)(0.5 0.5))((0.875 0.125)(1.0 0.0)(1.0 0.0))((0.5 0.5)(0.0 1.0)(0.5 0.5))))((((0.0 1.0)(1.0 0.0)(1.0 0.0))((1.0 0.0)(0.5 0.5)(1.0 0.0))((0.5 0.5)(0.5 0.5)(0.5 0.5)))(((0.5 0.5)(0.0 1.0)(0.5 0.5))((1.0 0.0)(1.0 0.0)(0.5 0.5))((0.5 0.5)(0.5 0.5)(0.5 0.5)))))(((((1.0 0.0)(0.5 0.5)(1.0 0.0))((1.0 0.0)(1.0 0.0)(0.8333333 0.1666667))((1.0 0.0)(0.5 0.5)(0.5 0.5)))(((1.0 0.0)(0.5 0.5)(0.5 0.5))((0.8 0.2)(0.0 1.0)(1.0 0.0))((0.5 0.5)(0.5 0.5)(0.5 0.5))))((((1.0 0.0)(1.0 0.0)(1.0 0.0))((0.8 0.2)(0.5 0.5)(1.0 0.0))((0.5 0.5)(0.5 0.5)(0.5 0.5)))(((0.3333333 0.6666667)(0.5 0.5)(0.5 0.5))((1.0 0.0)(1.0 0.0)(1.0 0.0))((1.0 0.0)(0.5 0.5)(0.5 0.5))))))((((((1.0 0.0)(0.5 0.5)(1.0 0.0))((0.90909091 0.09090909)(0.6 0.4)(0.8571429 0.1428571))((1.0 0.0)(0.6666667 0.3333333)(1.0 0.0)))(((0.5 0.5)(0.8 0.2)(0.5 0.5))((1.0 0.0)(0.6666667 0.3333333)(1.0 0.0))((1.0 0.0)(1.0 0.0)(0.5 0.5))))((((0.6666667 0.3333333)(0.5 0.5)(0.5 0.5))((0.8571429 0.1428571)(0.75 0.25)(1.0 0.0))((0.0 1.0)(0.5 0.5)(0.5 0.5)))(((0.75 0.25)(0.5 0.5)(0.5 0.5))((1.0 0.0)(1.0 0.0)(0.5 0.5))((0.5 0.5)(0.5 0.5)(0.5 0.5)))))(((((0.8333333 0.1666667)(1.0 0.0)(1.0 0.0))((1.0 0.0)(1.0 0.0)(0.8181818 0.1818182))((0.5 0.5)(0.5 0.5)(0.5 0.5)))(((0.5 0.5)(1.0 0.0)(1.0 0.0))((0.8571429 0.1428571)(1.0 0.0)(1.0 0.0))((0.5 0.5)(0.5 0.5)(1.0 0.0))))((((1.0 0.0)(0.5 0.5)(1.0 0.0))((0.8181818 0.1818182)(0.8 0.2)(0.75 0.25))((1.0 0.0)(0.5 0.5)(1.0 0.0)))(((0.0 1.0)(0.5 0.5)(0.5 0.5))((0.6 0.4)(1.0 0.0)(1.0 0.0))((0.5 0.5)(0.5 0.5)(0.5 0.5))))))))((((((((1.0 0.0)(1.0 0.0)(0.5 0.5))((0.8333333 0.1666667)(1.0 0.0)(0.5 0.5))((1.0 0.0)(0.5 0.5)(0.5 0.5)))(((0.6666667 0.3333333)(0.5 0.5)(0.5 0.5))((0.3333333 0.6666667)(0.5 0.5)(1.0 0.0))((1.0 0.0)(0.5 0.5)(0.5 0.5))))((((0.5 0.5)(1.0 0.0)(0.5 0.5))((1.0 0.0)(1.0 0.0)(1.0 0.0))((1.0 0.0)(1.0 0.0)(0.5 0.5)))(((1.0 0.0)(0.5 0.5)(0.5 0.5))((0.5 0.5)(0.3333333 0.6666667)(0.5 0.5))((0.5 0.5)(0.5 0.5)(0.5 0.5)))))(((((0.5 0.5)(1.0 0.0)(0.0 1.0))((0.8181818 0.1818182)(1.0 0.0)(0.8 0.2))((1.0 0.0)(1.0 0.0)(1.0 0.0)))(((0.0 1.0)(0.5 0.5)(0.5 0.5))((0.6666667 0.3333333)(0.5 0.5)(0.5 0.5))((0.5 0.5)(1.0 0.0)(0.5 0.5))))((((0.5 0.5)(1.0 0.0)(1.0 0.0))((0.8571429 0.1428571)(1.0 0.0)(1.0 0.0))((1.0 0.0)(0.5 0.5)(0.5 0.5)))(((1.0 0.0)(0.5 0.5)(1.0 0.0))((1.0 0.0)(0.5 0.5)(0.5 0.5))((0.5 0.5)(0.5 0.5)(0.5 0.5))))))((((((0.75 0.25)(0.5 0.5)(1.0 0.0))((1.0 0.0)(0.6 0.4)(0.875 0.125))((1.0 0.0)(0.5 0.5)(0.5 0.5)))(((0.5 0.5)(0.5 0.5)(0.5 0.5))((0.8333333 0.1666667)(1.0 0.0)(1.0 0.0))((0.5 0.5)(0.5 0.5)(1.0 0.0))))((((0.8 0.2)(0.5 0.5)(0.0 1.0))((1.0 0.0)(1.0 0.0)(1.0 0.0))((1.0 0.0)(1.0 0.0)(0.5 0.5)))(((0.5 0.5)(0.5 0.5)(1.0 0.0))((1.0 0.0)(1.0 0.0)(0.5 0.5))((0.5 0.5)(0.5 0.5)(0.5 0.5)))))(((((1.0 0.0)(1.0 0.0)(1.0 0.0))((0.92307692 0.07692308)(0.8571429 0.1428571)(0.8 0.2))((0.8 0.2)(0.5 0.5)(0.0 1.0)))(((0.5 0.5)(1.0 0.0)(0.5 0.5))((1.0 0.0)(0.8333333 0.1666667)(0.7142857 0.2857143))((0.6666667 0.3333333)(0.5 0.5)(1.0 0.0))))((((0.8 0.2)(0.5 0.5)(0.5 0.5))((0.6 0.4)(0.8 0.2)(0.75 0.25))((1.0 0.0)(0.5 0.5)(0.5 0.5)))(((1.0 0.0)(1.0 0.0)(1.0 0.0))((0.75 0.25)(0.5 0.5)(1.0 0.0))((0.5 0.5)(0.5 0.5)(0.5 0.5)))))))(((((((0.5 0.5)(0.5 0.5)(1.0 0.0))((0.0 1.0)(1.0 0.0)(1.0 0.0))((0.5 0.5)(0.5 0.5)(1.0 0.0)))(((0.5 0.5)(0.0 1.0)(1.0 0.0))((1.0 0.0)(1.0 0.0)(0.5 0.5))((1.0 0.0)(1.0 0.0)(0.5 0.5))))((((1.0 0.0)(0.5 0.5)(0.0 1.0))((1.0 0.0)(1.0 0.0)(1.0 0.0))((0.5 0.5)(0.5 0.5)(0.5 0.5)))(((1.0 0.0)(0.5 0.5)(0.5 0.5))((0.0 1.0)(1.0 0.0)(0.5 0.5))((1.0 0.0)(0.5 0.5)(0.5 0.5)))))(((((0.5 0.5)(0.5 0.5)(0.5 0.5))((1.0 0.0)(1.0 0.0)(1.0 0.0))((0.5 0.5)(0.0 1.0)(0.5 0.5)))(((1.0 0.0)(0.5 0.5)(0.5 0.5))((0.0 1.0)(0.5 0.5)(1.0 0.0))((0.5 0.5)(0.5 0.5)(0.5 0.5))))((((0.5 0.5)(0.5 0.5)(0.5 0.5))((1.0 0.0)(0.5 0.5)(1.0 0.0))((0.5 0.5)(0.5 0.5)(0.5 0.5)))(((0.5 0.5)(0.5 0.5)(0.5 0.5))((0.0 1.0)(0.5 0.5)(0.5 0.5))((0.5 0.5)(0.5 0.5)(0.5 0.5))))))((((((0.0 1.0)(0.5 0.5)(1.0 0.0))((1.0 0.0)(1.0 0.0)(0.5 0.5))((0.5 0.5)(0.5 0.5)(0.0 1.0)))(((0.5 0.5)(0.5 0.5)(0.5 0.5))((1.0 0.0)(0.5 0.5)(0.5 0.5))((1.0 0.0)(0.5 0.5)(0.5 0.5))))((((1.0 0.0)(0.5 0.5)(0.5 0.5))((1.0 0.0)(1.0 0.0)(1.0 0.0))((0.5 0.5)(0.5 0.5)(0.5 0.5)))(((0.6666667 0.3333333)(0.5 0.5)(0.0 1.0))((0.5 0.5)(0.5 0.5)(0.5 0.5))((1.0 0.0)(0.5 0.5)(0.5 0.5)))))(((((1.0 0.0)(1.0 0.0)(0.5 0.5))((0.8571429 0.1428571)(0.5 0.5)(0.8 0.2))((0.5 0.5)(0.5 0.5)(0.5 0.5)))(((0.6666667 0.3333333)(1.0 0.0)(0.5 0.5))((0.8333333 0.1666667)(0.5 0.5)(1.0 0.0))((0.5 0.5)(0.5 0.5)(0.5 0.5))))((((0.5 0.5)(0.5 0.5)(0.5 0.5))((1.0 0.0)(0.5 0.5)(0.5 0.5))((1.0 0.0)(0.5 0.5)(1.0 0.0)))(((0.5 0.5)(0.5 0.5)(0.5 0.5))((0.5 0.5)(1.0 0.0)(1.0 0.0))((0.5 0.5)(0.5 0.5)(0.5 0.5))))))))((((((((0.0 1.0)(1.0 0.0)(0.5 0.5))((0.7333333 0.2666667)(1.0 0.0)(0.6666667 0.3333333))((0.5 0.5)(0.5 0.5)(1.0 0.0)))(((0.5 0.5)(0.5 0.5)(0.5 0.5))((0.8 0.2)(1.0 0.0)(1.0 0.0))((1.0 0.0)(0.5 0.5)(0.5 0.5))))((((1.0 0.0)(0.5 0.5)(0.5 0.5))((0.8571429 0.1428571)(0.5 0.5)(1.0 0.0))((0.0 1.0)(0.5 0.5)(0.5 0.5)))(((0.0 1.0)(1.0 0.0)(1.0 0.0))((1.0 0.0)(1.0 0.0)(1.0 0.0))((0.5 0.5)(0.5 0.5)(0.5 0.5)))))(((((1.0 0.0)(0.5 0.5)(0.5 0.5))((0.4285714 0.5714286)(0.8333333 0.1666667)(0.8571429 0.1428571))((1.0 0.0)(0.5 0.5)(1.0 0.0)))(((0.5 0.5)(0.0 1.0)(1.0 0.0))((0.75 0.25)(1.0 0.0)(1.0 0.0))((0.5 0.5)(0.5 0.5)(0.5 0.5))))((((0.5 0.5)(1.0 0.0)(1.0 0.0))((0.8571429 0.1428571)(1.0 0.0)(0.7142857 0.2857143))((0.5 0.5)(1.0 0.0)(1.0 0.0)))(((1.0 0.0)(1.0 0.0)(0.5 0.5))((0.6 0.4)(1.0 0.0)(1.0 0.0))((1.0 0.0)(0.5 0.5)(1.0 0.0))))))((((((0.8 0.2)(0.5 0.5)(0.5 0.5))((0.6666667 0.3333333)(1.0 0.0)(0.3333333 0.6666667))((0.8 0.2)(0.5 0.5)(0.5 0.5)))(((0.5 0.5)(1.0 0.0)(0.5 0.5))((1.0 0.0)(0.5 0.5)(1.0 0.0))((0.0 1.0)(0.5 0.5)(0.5 0.5))))((((0.5 0.5)(0.5 0.5)(1.0 0.0))((0.8 0.2)(0.8 0.2)(0.5 0.5))((1.0 0.0)(0.5 0.5)(1.0 0.0)))(((0.5 0.5)(1.0 0.0)(1.0 0.0))((0.8 0.2)(0.6666667 0.3333333)(0.5 0.5))((1.0 0.0)(0.5 0.5)(0.5 0.5)))))(((((0.9 0.1)(0.6 0.4)(1.0 0.0))((0.8666667 0.1333333)(0.875 0.125)(0.75 0.25))((0.5 0.5)(0.6666667 0.3333333)(0.5 0.5)))(((1.0 0.0)(1.0 0.0)(1.0 0.0))((0.7857143 0.2142857)(1.0 0.0)(1.0 0.0))((0.5 0.5)(0.5 0.5)(0.5 0.5))))((((0.8333333 0.1666667)(1.0 0.0)(1.0 0.0))((0.90909091 0.09090909)(1.0 0.0)(1.0 0.0))((0.8 0.2)(1.0 0.0)(1.0 0.0)))(((0.3333333 0.6666667)(0.5 0.5)(1.0 0.0))((0.7777778 0.2222222)(0.8 0.2)(0.5 0.5))((1.0 0.0)(0.5 0.5)(1.0 0.0)))))))(((((((0.0 1.0)(1.0 0.0)(0.5 0.5))((1.0 0.0)(0.5 0.5)(0.5 0.5))((0.5 0.5)(1.0 0.0)(1.0 0.0)))(((1.0 0.0)(0.5 0.5)(0.5 0.5))((0.0 1.0)(1.0 0.0)(1.0 0.0))((0.5 0.5)(1.0 0.0)(0.5 0.5))))((((1.0 0.0)(0.0 1.0)(0.5 0.5))((1.0 0.0)(0.6666667 0.3333333)(0.5 0.5))((0.5 0.5)(0.5 0.5)(0.5 0.5)))(((0.5 0.5)(0.5 0.5)(0.5 0.5))((0.5 0.5)(1.0 0.0)(0.5 0.5))((1.0 0.0)(0.5 0.5)(0.5 0.5)))))(((((0.0 1.0)(1.0 0.0)(0.5 0.5))((0.8 0.2)(1.0 0.0)(0.6666667 0.3333333))((0.5 0.5)(0.5 0.5)(0.5 0.5)))(((0.5 0.5)(0.5 0.5)(0.5 0.5))((1.0 0.0)(0.5 0.5)(0.5 0.5))((1.0 0.0)(0.5 0.5)(0.5 0.5))))((((0.5 0.5)(0.5 0.5)(0.5 0.5))((1.0 0.0)(0.5 0.5)(1.0 0.0))((1.0 0.0)(1.0 0.0)(0.5 0.5)))(((0.5 0.5)(0.5 0.5)(0.5 0.5))((0.5 0.5)(0.0 1.0)(0.5 0.5))((0.5 0.5)(0.5 0.5)(0.5 0.5))))))((((((1.0 0.0)(0.5 0.5)(0.0 1.0))((0.0 1.0)(1.0 0.0)(1.0 0.0))((0.5 0.5)(0.5 0.5)(0.5 0.5)))(((0.5 0.5)(0.0 1.0)(1.0 0.0))((1.0 0.0)(0.5 0.5)(0.5 0.5))((0.5 0.5)(0.5 0.5)(1.0 0.0))))((((0.6666667 0.3333333)(0.5 0.5)(0.5 0.5))((0.75 0.25)(1.0 0.0)(0.5 0.5))((0.5 0.5)(0.5 0.5)(1.0 0.0)))(((1.0 0.0)(0.5 0.5)(0.5 0.5))((0.5 0.5)(0.5 0.5)(1.0 0.0))((0.5 0.5)(0.5 0.5)(0.5 0.5)))))(((((1.0 0.0)(1.0 0.0)(1.0 0.0))((1.0 0.0)(1.0 0.0)(1.0 0.0))((0.5 0.5)(1.0 0.0)(1.0 0.0)))(((1.0 0.0)(1.0 0.0)(1.0 0.0))((0.5 0.5)(1.0 0.0)(1.0 0.0))((0.5 0.5)(0.5 0.5)(0.5 0.5))))((((0.5 0.5)(0.5 0.5)(0.5 0.5))((0.5 0.5)(1.0 0.0)(1.0 0.0))((0.5 0.5)(1.0 0.0)(1.0 0.0)))(((1.0 0.0)(0.5 0.5)(0.5 0.5))((0.0 1.0)(1.0 0.0)(0.5 0.5))((0.5 0.5)(0.5 0.5)(0.5 0.5)))))))))(((((((((0.0 1.0)(0.5 0.5)(1.0 0.0))((0.92857143 0.07142857)(1.0 0.0)(0.5 0.5))((0.6666667 0.3333333)(0.5 0.5)(0.0 1.0)))(((1.0 0.0)(1.0 0.0)(1.0 0.0))((0.7142857 0.2857143)(0.875 0.125)(0.7142857 0.2857143))((1.0 0.0)(0.5 0.5)(1.0 0.0))))((((1.0 0.0)(0.0 1.0)(0.6666667 0.3333333))((0.8571429 0.1428571)(0.6 0.4)(0.6 0.4))((0.5 0.5)(0.5 0.5)(0.5 0.5)))(((1.0 0.0)(1.0 0.0)(1.0 0.0))((0.75 0.25)(1.0 0.0)(1.0 0.0))((0.5 0.5)(0.5 0.5)(0.0 1.0)))))(((((0.6666667 0.3333333)(1.0 0.0)(1.0 0.0))((0.96296296 0.03703704)(0.8181818 0.1818182)(0.94736842 0.05263158))((0.8888889 0.1111111)(0.5 0.5)(0.5 0.5)))(((0.5 0.5)(0.5 0.5)(1.0 0.0))((0.5 0.5)(1.0 0.0)(1.0 0.0))((1.0 0.0)(0.5 0.5)(1.0 0.0))))((((0.8 0.2)(1.0 0.0)(1.0 0.0))((1.0 0.0)(1.0 0.0)(0.7272727 0.2727273))((0.6666667 0.3333333)(1.0 0.0)(1.0 0.0)))(((0.6666667 0.3333333)(0.75 0.25)(1.0 0.0))((0.8571429 0.1428571)(1.0 0.0)(0.8 0.2))((1.0 0.0)(0.5 0.5)(0.5 0.5))))))((((((0.8333333 0.1666667)(1.0 0.0)(1.0 0.0))((0.7916667 0.2083333)(1.0 0.0)(0.5714286 0.4285714))((0.6 0.4)(0.6666667 0.3333333)(0.5 0.5)))(((0.75 0.25)(1.0 0.0)(1.0 0.0))((0.75 0.25)(0.7 0.3)(0.4 0.6))((1.0 0.0)(0.0 1.0)(1.0 0.0))))((((1.0 0.0)(1.0 0.0)(1.0 0.0))((0.8571429 0.1428571)(0.75 0.25)(0.6666667 0.3333333))((0.75 0.25)(1.0 0.0)(1.0 0.0)))(((0.75 0.25)(1.0 0.0)(0.6666667 0.3333333))((0.75 0.25)(0.5 0.5)(1.0 0.0))((1.0 0.0)(1.0 0.0)(0.5 0.5)))))(((((0.8 0.2)(0.4285714 0.5714286)(1.0 0.0))((0.7941176 0.2058824)(0.92307692 0.07692308)(0.6875 0.3125))((0.8571429 0.1428571)(1.0 0.0)(0.5 0.5)))(((0.7333333 0.2666667)(0.75 0.25)(1.0 0.0))((0.7586207 0.2413793)(0.5 0.5)(0.8571429 0.1428571))((0.8 0.2)(0.5 0.5)(0.6666667 0.3333333))))((((0.8571429 0.1428571)(0.75 0.25)(0.8 0.2))((0.8928571 0.1071429)(0.6521739 0.3478261)(0.8888889 0.1111111))((0.8333333 0.1666667)(1.0 0.0)(0.75 0.25)))(((0.8 0.2)(1.0 0.0)(1.0 0.0))((0.7222222 0.2777778)(0.75 0.25)(0.8571429 0.1428571))((1.0 0.0)(0.0 1.0)(0.5 0.5)))))))(((((((0.5 0.5)(0.5 0.5)(1.0 0.0))((1.0 0.0)(1.0 0.0)(1.0 0.0))((0.5 0.5)(1.0 0.0)(0.5 0.5)))(((0.25 0.75)(0.5 0.5)(1.0 0.0))((1.0 0.0)(0.8 0.2)(1.0 0.0))((1.0 0.0)(0.5 0.5)(0.5 0.5))))((((1.0 0.0)(1.0 0.0)(0.0 1.0))((1.0 0.0)(0.5 0.5)(0.5 0.5))((1.0 0.0)(0.5 0.5)(0.5 0.5)))(((0.5 0.5)(0.5 0.5)(1.0 0.0))((1.0 0.0)(1.0 0.0)(1.0 0.0))((1.0 0.0)(0.5 0.5)(0.5 0.5)))))(((((1.0 0.0)(1.0 0.0)(1.0 0.0))((0.9 0.1)(0.5 0.5)(1.0 0.0))((1.0 0.0)(0.5 0.5)(0.5 0.5)))(((0.6666667 0.3333333)(1.0 0.0)(0.5 0.5))((0.5 0.5)(0.5 0.5)(0.0 1.0))((1.0 0.0)(0.5 0.5)(0.5 0.5))))((((0.75 0.25)(0.5 0.5)(1.0 0.0))((0.75 0.25)(1.0 0.0)(0.5 0.5))((0.5 0.5)(0.5 0.5)(1.0 0.0)))(((0.5 0.5)(0.5 0.5)(0.5 0.5))((1.0 0.0)(0.5 0.5)(1.0 0.0))((0.5 0.5)(0.5 0.5)(0.5 0.5))))))((((((1.0 0.0)(0.5 0.5)(1.0 0.0))((0.8333333 0.1666667)(0.8 0.2)(0.5 0.5))((1.0 0.0)(1.0 0.0)(0.5 0.5)))(((0.0 1.0)(1.0 0.0)(0.5 0.5))((1.0 0.0)(1.0 0.0)(1.0 0.0))((1.0 0.0)(1.0 0.0)(0.5 0.5))))((((1.0 0.0)(1.0 0.0)(0.5 0.5))((0.8 0.2)(1.0 0.0)(0.2 0.8))((1.0 0.0)(0.5 0.5)(0.5 0.5)))(((1.0 0.0)(1.0 0.0)(0.0 1.0))((0.0 1.0)(0.5 0.5)(1.0 0.0))((0.5 0.5)(1.0 0.0)(0.5 0.5)))))(((((0.75 0.25)(1.0 0.0)(1.0 0.0))((0.7142857 0.2857143)(0.9 0.1)(1.0 0.0))((1.0 0.0)(0.5 0.5)(0.5 0.5)))(((0.5 0.5)(1.0 0.0)(1.0 0.0))((0.75 0.25)(1.0 0.0)(1.0 0.0))((1.0 0.0)(0.6666667 0.3333333)(0.5 0.5))))((((0.5 0.5)(1.0 0.0)(0.5 0.5))((1.0 0.0)(1.0 0.0)(0.6666667 0.3333333))((1.0 0.0)(1.0 0.0)(0.0 1.0)))(((1.0 0.0)(1.0 0.0)(0.5 0.5))((0.8571429 0.1428571)(1.0 0.0)(1.0 0.0))((1.0 0.0)(0.5 0.5)(0.5 0.5))))))))((((((((1.0 0.0)(0.5 0.5)(1.0 0.0))((1.0 0.0)(1.0 0.0)(1.0 0.0))((1.0 0.0)(0.5 0.5)(0.5 0.5)))(((1.0 0.0)(0.5 0.5)(0.5 0.5))((0.6666667 0.3333333)(1.0 0.0)(1.0 0.0))((1.0 0.0)(0.5 0.5)(0.5 0.5))))((((1.0 0.0)(0.5 0.5)(0.5 0.5))((1.0 0.0)(0.5 0.5)(0.5 0.5))((0.5 0.5)(1.0 0.0)(0.5 0.5)))(((0.5 0.5)(0.5 0.5)(0.5 0.5))((0.0 1.0)(0.5 0.5)(1.0 0.0))((0.5 0.5)(0.5 0.5)(0.5 0.5)))))(((((0.5 0.5)(1.0 0.0)(1.0 0.0))((1.0 0.0)(1.0 0.0)(0.5 0.5))((1.0 0.0)(0.5 0.5)(1.0 0.0)))(((0.5 0.5)(0.5 0.5)(1.0 0.0))((0.75 0.25)(1.0 0.0)(0.6666667 0.3333333))((0.5 0.5)(0.5 0.5)(0.5 0.5))))((((0.6666667 0.3333333)(1.0 0.0)(0.5 0.5))((1.0 0.0)(1.0 0.0)(1.0 0.0))((0.5 0.5)(0.5 0.5)(0.0 1.0)))(((0.5 0.5)(0.5 0.5)(0.5 0.5))((0.5 0.5)(0.5 0.5)(1.0 0.0))((0.5 0.5)(0.5 0.5)(0.5 0.5))))))((((((0.25 0.75)(1.0 0.0)(1.0 0.0))((1.0 0.0)(0.6666667 0.3333333)(1.0 0.0))((0.5 0.5)(0.5 0.5)(0.5 0.5)))(((0.5 0.5)(0.5 0.5)(1.0 0.0))((0.8571429 0.1428571)(0.5 0.5)(0.5 0.5))((1.0 0.0)(0.5 0.5)(0.5 0.5))))((((1.0 0.0)(0.5 0.5)(1.0 0.0))((0.75 0.25)(1.0 0.0)(0.75 0.25))((0.5 0.5)(0.5 0.5)(1.0 0.0)))(((0.5 0.5)(0.5 0.5)(0.5 0.5))((0.6666667 0.3333333)(0.5 0.5)(1.0 0.0))((0.5 0.5)(1.0 0.0)(0.5 0.5)))))(((((0.8 0.2)(1.0 0.0)(1.0 0.0))((0.85 0.15)(0.75 0.25)(1.0 0.0))((1.0 0.0)(1.0 0.0)(1.0 0.0)))(((0.5 0.5)(0.6666667 0.3333333)(0.5 0.5))((0.75 0.25)(0.5 0.5)(0.8 0.2))((0.5 0.5)(0.5 0.5)(0.0 1.0))))((((0.5 0.5)(1.0 0.0)(0.0 1.0))((0.6666667 0.3333333)(1.0 0.0)(0.5 0.5))((0.0 1.0)(1.0 0.0)(0.5 0.5)))(((1.0 0.0)(0.5 0.5)(0.5 0.5))((0.625 0.375)(0.6666667 0.3333333)(0.5 0.5))((0.5 0.5)(0.5 0.5)(0.5 0.5)))))))(((((((1.0 0.0)(0.5 0.5)(0.5 0.5))((1.0 0.0)(0.5 0.5)(0.5 0.5))((0.5 0.5)(0.5 0.5)(0.5 0.5)))(((0.5 0.5)(0.5 0.5)(1.0 0.0))((0.5 0.5)(0.5 0.5)(1.0 0.0))((0.5 0.5)(0.5 0.5)(0.5 0.5))))((((0.5 0.5)(0.5 0.5)(0.5 0.5))((0.5 0.5)(0.0 1.0)(1.0 0.0))((0.5 0.5)(1.0 0.0)(0.5 0.5)))(((0.5 0.5)(0.5 0.5)(0.5 0.5))((1.0 0.0)(1.0 0.0)(1.0 0.0))((1.0 0.0)(0.5 0.5)(0.5 0.5)))))(((((1.0 0.0)(1.0 0.0)(0.5 0.5))((0.8 0.2)(0.5 0.5)(1.0 0.0))((0.5 0.5)(0.5 0.5)(0.0 1.0)))(((0.5 0.5)(0.5 0.5)(0.5 0.5))((0.5 0.5)(0.0 1.0)(1.0 0.0))((0.5 0.5)(0.5 0.5)(0.5 0.5))))((((1.0 0.0)(0.5 0.5)(0.5 0.5))((1.0 0.0)(1.0 0.0)(0.5 0.5))((0.5 0.5)(0.5 0.5)(0.5 0.5)))(((0.5 0.5)(0.5 0.5)(0.5 0.5))((0.5 0.5)(0.5 0.5)(0.5 0.5))((0.5 0.5)(0.5 0.5)(0.5 0.5))))))((((((0.3333333 0.6666667)(0.5 0.5)(0.5 0.5))((1.0 0.0)(1.0 0.0)(1.0 0.0))((0.5 0.5)(0.5 0.5)(0.5 0.5)))(((0.5 0.5)(1.0 0.0)(0.0 1.0))((1.0 0.0)(0.5 0.5)(0.5 0.5))((0.5 0.5)(0.5 0.5)(0.5 0.5))))((((1.0 0.0)(0.5 0.5)(1.0 0.0))((1.0 0.0)(0.5 0.5)(0.5 0.5))((0.5 0.5)(0.5 0.5)(0.5 0.5)))(((1.0 0.0)(0.5 0.5)(0.5 0.5))((0.5 0.5)(0.5 0.5)(0.5 0.5))((0.5 0.5)(0.5 0.5)(0.5 0.5)))))(((((0.5 0.5)(1.0 0.0)(0.0 1.0))((0.8571429 0.1428571)(0.0 1.0)(1.0 0.0))((0.5 0.5)(0.5 0.5)(0.5 0.5)))(((0.0 1.0)(0.5 0.5)(1.0 0.0))((0.5 0.5)(0.5 0.5)(0.6666667 0.3333333))((1.0 0.0)(0.5 0.5)(0.5 0.5))))((((1.0 0.0)(1.0 0.0)(1.0 0.0))((1.0 0.0)(1.0 0.0)(1.0 0.0))((0.5 0.5)(0.5 0.5)(1.0 0.0)))(((0.5 0.5)(0.0 1.0)(1.0 0.0))((0.6 0.4)(0.5 0.5)(0.6666667 0.3333333))((0.5 0.5)(1.0 0.0)(0.5 0.5))))))))((((((((0.5 0.5)(1.0 0.0)(1.0 0.0))((1.0 0.0)(1.0 0.0)(0.5 0.5))((1.0 0.0)(1.0 0.0)(1.0 0.0)))(((0.0 1.0)(0.5 0.5)(1.0 0.0))((0.8333333 0.1666667)(0.5 0.5)(1.0 0.0))((0.5 0.5)(0.5 0.5)(0.5 0.5))))((((1.0 0.0)(0.5 0.5)(1.0 0.0))((0.8333333 0.1666667)(1.0 0.0)(1.0 0.0))((1.0 0.0)(1.0 0.0)(0.5 0.5)))(((0.5 0.5)(0.5 0.5)(0.5 0.5))((0.0 1.0)(0.5 0.5)(0.6666667 0.3333333))((0.5 0.5)(0.5 0.5)(0.5 0.5)))))(((((0.5 0.5)(0.5 0.5)(0.0 1.0))((0.8571429 0.1428571)(0.75 0.25)(0.75 0.25))((0.5 0.5)(1.0 0.0)(0.5 0.5)))(((0.5 0.5)(1.0 0.0)(0.5 0.5))((0.7142857 0.2857143)(0.6666667 0.3333333)(1.0 0.0))((1.0 0.0)(0.5 0.5)(0.5 0.5))))((((0.5 0.5)(0.5 0.5)(0.0 1.0))((1.0 0.0)(0.6666667 0.3333333)(1.0 0.0))((1.0 0.0)(0.5 0.5)(0.0 1.0)))(((1.0 0.0)(0.5 0.5)(0.0 1.0))((0.5 0.5)(1.0 0.0)(1.0 0.0))((0.5 0.5)(0.5 0.5)(0.5 0.5))))))((((((1.0 0.0)(1.0 0.0)(0.5 0.5))((0.8666667 0.1333333)(1.0 0.0)(0.5 0.5))((1.0 0.0)(0.5 0.5)(1.0 0.0)))(((0.6666667 0.3333333)(0.5 0.5)(0.5 0.5))((0.6666667 0.3333333)(0.3333333 0.6666667)(1.0 0.0))((0.3333333 0.6666667)(0.5 0.5)(0.5 0.5))))((((0.0 1.0)(1.0 0.0)(0.5 0.5))((1.0 0.0)(0.3333333 0.6666667)(0.5 0.5))((0.5 0.5)(0.5 0.5)(1.0 0.0)))(((0.6666667 0.3333333)(1.0 0.0)(0.5 0.5))((0.4 0.6)(1.0 0.0)(1.0 0.0))((1.0 0.0)(0.5 0.5)(0.5 0.5)))))(((((0.75 0.25)(1.0 0.0)(0.8 0.2))((0.7142857 0.2857143)(1.0 0.0)(0.90909091 0.09090909))((0.5 0.5)(1.0 0.0)(0.5 0.5)))(((0.8333333 0.1666667)(0.0 1.0)(1.0 0.0))((0.75 0.25)(1.0 0.0)(1.0 0.0))((0.6666667 0.3333333)(1.0 0.0)(1.0 0.0))))((((1.0 0.0)(1.0 0.0)(1.0 0.0))((0.8888889 0.1111111)(0.6666667 0.3333333)(0.5 0.5))((1.0 0.0)(0.5 0.5)(0.5 0.5)))(((0.75 0.25)(1.0 0.0)(1.0 0.0))((0.6666667 0.3333333)(1.0 0.0)(0.5 0.5))((0.6666667 0.3333333)(0.5 0.5)(0.0 1.0)))))))(((((((0.5 0.5)(0.5 0.5)(0.5 0.5))((0.8 0.2)(0.5 0.5)(0.5 0.5))((0.5 0.5)(1.0 0.0)(0.5 0.5)))(((0.5 0.5)(0.5 0.5)(0.5 0.5))((0.5 0.5)(0.5 0.5)(0.5 0.5))((0.5 0.5)(0.5 0.5)(0.5 0.5))))((((0.5 0.5)(0.5 0.5)(0.5 0.5))((0.0 1.0)(1.0 0.0)(1.0 0.0))((0.5 0.5)(0.5 0.5)(0.5 0.5)))(((1.0 0.0)(0.5 0.5)(0.5 0.5))((1.0 0.0)(0.5 0.5)(0.5 0.5))((0.5 0.5)(0.5 0.5)(0.5 0.5)))))(((((0.5 0.5)(1.0 0.0)(0.5 0.5))((0.5 0.5)(0.5 0.5)(0.5 0.5))((0.5 0.5)(0.5 0.5)(0.5 0.5)))(((1.0 0.0)(0.5 0.5)(0.5 0.5))((0.5 0.5)(0.5 0.5)(0.5 0.5))((1.0 0.0)(0.5 0.5)(0.5 0.5))))((((0.5 0.5)(0.5 0.5)(1.0 0.0))((0.6 0.4)(0.5 0.5)(1.0 0.0))((0.5 0.5)(0.5 0.5)(0.5 0.5)))(((0.5 0.5)(0.5 0.5)(0.5 0.5))((1.0 0.0)(0.5 0.5)(0.5 0.5))((0.5 0.5)(0.5 0.5)(0.5 0.5))))))((((((1.0 0.0)(0.5 0.5)(1.0 0.0))((1.0 0.0)(1.0 0.0)(1.0 0.0))((0.5 0.5)(0.5 0.5)(1.0 0.0)))(((0.5 0.5)(0.5 0.5)(0.5 0.5))((0.5 0.5)(1.0 0.0)(0.5 0.5))((0.5 0.5)(0.5 0.5)(0.5 0.5))))((((1.0 0.0)(0.5 0.5)(0.5 0.5))((0.5 0.5)(0.3333333 0.6666667)(0.5 0.5))((0.5 0.5)(0.5 0.5)(0.5 0.5)))(((0.5 0.5)(0.5 0.5)(0.5 0.5))((0.0 1.0)(0.5 0.5)(0.5 0.5))((0.5 0.5)(0.5 0.5)(0.5 0.5)))))(((((1.0 0.0)(0.5 0.5)(1.0 0.0))((1.0 0.0)(0.5 0.5)(0.5 0.5))((1.0 0.0)(0.5 0.5)(1.0 0.0)))(((1.0 0.0)(1.0 0.0)(0.5 0.5))((0.6666667 0.3333333)(1.0 0.0)(1.0 0.0))((1.0 0.0)(0.5 0.5)(0.5 0.5))))((((0.5 0.5)(0.5 0.5)(0.5 0.5))((1.0 0.0)(0.5 0.5)(0.6 0.4))((1.0 0.0)(0.5 0.5)(0.5 0.5)))(((1.0 0.0)(0.5 0.5)(0.5 0.5))((1.0 0.0)(0.5 0.5)(0.0 1.0))((1.0 0.0)(1.0 0.0)(0.5 0.5))))))))))((((((((((0.7843137 0.2156863)(0.84 0.16)(0.94444444 0.05555556))((0.8074534 0.1925466)(0.8301887 0.1698113)(0.7948718 0.2051282))((0.875 0.125)(0.8333333 0.1666667)(1.0 0.0)))(((0.8 0.2)(0.7692308 0.2307692)(0.8 0.2))((0.8333333 0.1666667)(0.75 0.25)(0.8205128 0.1794872))((0.5882353 0.4117647)(1.0 0.0)(1.0 0.0))))((((0.6285714 0.3714286)(0.6666667 0.3333333)(0.8888889 0.1111111))((0.8715596 0.1284404)(0.75 0.25)(0.6666667 0.3333333))((0.7272727 0.2727273)(1.0 0.0)(0.6 0.4)))(((0.68 0.32)(0.875 0.125)(0.6666667 0.3333333))((0.828125 0.171875)(0.8823529 0.1176471)(0.7407407 0.2592593))((0.8888889 0.1111111)(1.0 0.0)(0.5 0.5)))))(((((0.90140845 0.09859155)(0.7 0.3)(0.8461538 0.1538462))((0.8430493 0.1569507)(0.7472527 0.2527473)(0.7884615 0.2115385))((0.8333333 0.1666667)(0.8461538 0.1538462)(0.8333333 0.1666667)))(((0.8205128 0.1794872)(0.75 0.25)(0.75 0.25))((0.776 0.224)(0.7959184 0.2040816)(0.7666667 0.2333333))((0.8235294 0.1764706)(1.0 0.0)(0.6666667 0.3333333))))((((0.8571429 0.1428571)(0.8 0.2)(0.85 0.15))((0.8227848 0.1772152)(0.90163934 0.09836066)(0.7608696 0.2391304))((0.826087 0.173913)(0.625 0.375)(0.6428571 0.3571429)))(((0.7142857 0.2857143)(0.8 0.2)(0.7368421 0.2631579))((0.8405797 0.1594203)(0.94444444 0.05555556)(0.92857143 0.07142857))((0.93333333 0.06666667)(0.6666667 0.3333333)(0.7142857 0.2857143))))))((((((0.8170732 0.1829268)(0.7826087 0.2173913)(0.8333333 0.1666667))((0.7814815 0.2185185)(0.8571429 0.1428571)(0.7863248 0.2136752))((0.75 0.25)(0.7368421 0.2631579)(0.875 0.125)))(((0.7192982 0.2807018)(0.84 0.16)(0.6818182 0.3181818))((0.8456376 0.1543624)(0.8333333 0.1666667)(0.8064516 0.1935484))((0.8285714 0.1714286)(0.90909091 0.09090909)(0.5384615 0.4615385))))((((0.7432432 0.2567568)(0.8666667 0.1333333)(0.8709677 0.1290323))((0.8341463 0.1658537)(0.7428571 0.2571429)(0.7692308 0.2307692))((0.9047619 0.0952381)(0.7142857 0.2857143)(0.90909091 0.09090909)))(((0.8461538 0.1538462)(0.8333333 0.1666667)(0.90909091 0.09090909))((0.8108108 0.1891892)(0.7894737 0.2105263)(0.8392857 0.1607143))((0.5625 0.4375)(1.0 0.0)(1.0 0.0)))))(((((0.8780488 0.1219512)(0.7346939 0.2653061)(0.7894737 0.2105263))((0.760479 0.239521)(0.8219178 0.1780822)(0.8181818 0.1818182))((0.7758621 0.2241379)(0.8461538 0.1538462)(0.9 0.1)))(((0.875 0.125)(0.7931034 0.2068966)(0.84375 0.15625))((0.8439024 0.1560976)(0.8080808 0.1919192)(0.8679245 0.1320755))((0.7619048 0.2380952)(0.4444444 0.5555556)(0.7857143 0.2142857))))((((0.8089888 0.1910112)(0.7555556 0.2444444)(0.8604651 0.1395349))((0.7984791 0.2015209)(0.7798165 0.2201835)(0.7346939 0.2653061))((0.8461538 0.1538462)(0.8461538 0.1538462)(0.8333333 0.1666667)))(((0.7846154 0.2153846)(0.875 0.125)(0.8 0.2))((0.7851852 0.2148148)(0.754717 0.245283)(0.7903226 0.2096774))((0.90625 0.09375)(0.8 0.2)(0.8125 0.1875)))))))(((((((0.8636364 0.1363636)(0.7142857 0.2857143)(1.0 0.0))((0.9047619 0.0952381)(0.8095238 0.1904762)(0.8421053 0.1578947))((0.8 0.2)(0.5 0.5)(0.6666667 0.3333333)))(((0.875 0.125)(0.75 0.25)(0.5 0.5))((0.84375 0.15625)(0.8823529 0.1176471)(0.7857143 0.2142857))((1.0 0.0)(0.0 1.0)(1.0 0.0))))((((0.7142857 0.2857143)(0.8571429 0.1428571)(0.875 0.125))((0.8684211 0.1315789)(0.7142857 0.2857143)(0.8461538 0.1538462))((0.8 0.2)(1.0 0.0)(1.0 0.0)))(((1.0 0.0)(1.0 0.0)(0.5 0.5))((0.7586207 0.2413793)(0.6 0.4)(0.7777778 0.2222222))((0.4 0.6)(0.5 0.5)(1.0 0.0)))))(((((0.6666667 0.3333333)(0.7272727 0.2727273)(0.5 0.5))((0.7682927 0.2317073)(0.93333333 0.06666667)(0.7419355 0.2580645))((1.0 0.0)(1.0 0.0)(1.0 0.0)))(((0.826087 0.173913)(0.4 0.6)(0.6666667 0.3333333))((0.825 0.175)(0.7777778 0.2222222)(0.8 0.2))((0.875 0.125)(0.75 0.25)(1.0 0.0))))((((0.7894737 0.2105263)(0.6666667 0.3333333)(1.0 0.0))((0.8541667 0.1458333)(0.7777778 0.2222222)(0.8571429 0.1428571))((1.0 0.0)(1.0 0.0)(0.0 1.0)))(((0.75 0.25)(0.8333333 0.1666667)(0.7 0.3))((0.90625 0.09375)(0.8181818 0.1818182)(0.8 0.2))((1.0 0.0)(0.5 0.5)(0.6 0.4))))))((((((0.75 0.25)(0.6666667 0.3333333)(0.8 0.2))((0.8452381 0.1547619)(0.6818182 0.3181818)(0.93181818 0.06818182))((0.8947368 0.1052632)(0.6666667 0.3333333)(0.8571429 0.1428571)))(((0.7894737 0.2105263)(0.8888889 0.1111111)(0.625 0.375))((0.8703704 0.1296296)(0.8181818 0.1818182)(0.8787879 0.1212121))((0.7142857 0.2857143)(1.0 0.0)(1.0 0.0))))((((0.7307692 0.2692308)(1.0 0.0)(1.0 0.0))((0.862069 0.137931)(0.7894737 0.2105263)(0.8 0.2))((0.875 0.125)(0.8 0.2)(0.6666667 0.3333333)))(((0.8181818 0.1818182)(1.0 0.0)(0.75 0.25))((0.88 0.12)(0.8947368 0.1052632)(0.6428571 0.3571429))((0.4444444 0.5555556)(1.0 0.0)(0.75 0.25)))))(((((0.85 0.15)(0.6470588 0.3529412)(0.8823529 0.1176471))((0.8205128 0.1794872)(0.8163265 0.1836735)(0.8070175 0.1929825))((0.8571429 0.1428571)(0.7142857 0.2857143)(0.9 0.1)))(((0.8 0.2)(0.92307692 0.07692308)(0.6666667 0.3333333))((0.8076923 0.1923077)(0.8333333 0.1666667)(0.75 0.25))((0.625 0.375)(0.75 0.25)(0.75 0.25))))((((0.7777778 0.2222222)(0.75 0.25)(0.6666667 0.3333333))((0.8292683 0.1707317)(0.825 0.175)(0.6888889 0.3111111))((0.7272727 0.2727273)(0.8888889 0.1111111)(0.5 0.5)))(((0.8823529 0.1176471)(0.7 0.3)(0.8571429 0.1428571))((0.8372093 0.1627907)(0.8 0.2)(0.7826087 0.2173913))((0.8181818 0.1818182)(0.5 0.5)(0.6666667 0.3333333))))))))((((((((0.8333333 0.1666667)(0.4444444 0.5555556)(1.0 0.0))((0.6888889 0.3111111)(0.9 0.1)(0.7368421 0.2631579))((0.6666667 0.3333333)(1.0 0.0)(0.5714286 0.4285714)))(((0.8461538 0.1538462)(0.3333333 0.6666667)(1.0 0.0))((0.8787879 0.1212121)(0.875 0.125)(0.8461538 0.1538462))((0.8571429 0.1428571)(1.0 0.0)(1.0 0.0))))((((1.0 0.0)(1.0 0.0)(1.0 0.0))((0.7941176 0.2058824)(0.8 0.2)(0.85 0.15))((0.8571429 0.1428571)(1.0 0.0)(1.0 0.0)))(((1.0 0.0)(1.0 0.0)(0.8571429 0.1428571))((0.7916667 0.2083333)(0.8181818 0.1818182)(0.8888889 0.1111111))((1.0 0.0)(1.0 0.0)(0.5 0.5)))))(((((0.9047619 0.0952381)(1.0 0.0)(0.7777778 0.2222222))((0.7945205 0.2054795)(0.8636364 0.1363636)(0.7241379 0.2758621))((0.7 0.3)(0.5 0.5)(1.0 0.0)))(((0.75 0.25)(1.0 0.0)(0.8333333 0.1666667))((0.8684211 0.1315789)(0.4666667 0.5333333)(0.92857143 0.07142857))((1.0 0.0)(0.6666667 0.3333333)(0.5 0.5))))((((0.8636364 0.1363636)(0.8 0.2)(0.6666667 0.3333333))((0.7291667 0.2708333)(0.6875 0.3125)(0.826087 0.173913))((1.0 0.0)(0.5 0.5)(0.75 0.25)))(((0.7272727 0.2727273)(0.0 1.0)(0.6 0.4))((0.6818182 0.3181818)(0.6666667 0.3333333)(0.7368421 0.2631579))((0.8 0.2)(1.0 0.0)(1.0 0.0))))))((((((0.7741935 0.2258065)(0.8823529 0.1176471)(0.94736842 0.05263158))((0.8493151 0.1506849)(0.825 0.175)(0.8529412 0.1470588))((0.5625 0.4375)(0.875 0.125)(0.6666667 0.3333333)))(((0.94444444 0.05555556)(0.5714286 0.4285714)(1.0 0.0))((0.8363636 0.1636364)(0.8518519 0.1481481)(0.8947368 0.1052632))((0.90909091 0.09090909)(0.6666667 0.3333333)(1.0 0.0))))((((0.7368421 0.2631579)(1.0 0.0)(0.8571429 0.1428571))((0.8076923 0.1923077)(0.75 0.25)(0.875 0.125))((0.8 0.2)(1.0 0.0)(1.0 0.0)))(((0.9 0.1)(1.0 0.0)(1.0 0.0))((0.94444444 0.05555556)(0.7058824 0.2941176)(0.7857143 0.2142857))((0.8 0.2)(1.0 0.0)(0.5 0.5)))))(((((0.8717949 0.1282051)(0.8125 0.1875)(0.7647059 0.2352941))((0.8584071 0.1415929)(0.8679245 0.1320755)(0.875 0.125))((0.6315789 0.3684211)(1.0 0.0)(0.8333333 0.1666667)))(((0.7777778 0.2222222)(0.7272727 0.2727273)(0.75 0.25))((0.8214286 0.1785714)(0.7391304 0.2608696)(0.7333333 0.2666667))((0.875 0.125)(0.5 0.5)(1.0 0.0))))((((0.7142857 0.2857143)(0.8 0.2)(0.75 0.25))((0.8513514 0.1486486)(0.8684211 0.1315789)(0.8947368 0.1052632))((0.75 0.25)(1.0 0.0)(1.0 0.0)))(((1.0 0.0)(0.4285714 0.5714286)(0.8 0.2))((0.7391304 0.2608696)(0.75 0.25)(0.8064516 0.1935484))((0.75 0.25)(1.0 0.0)(1.0 0.0)))))))(((((((0.8 0.2)(1.0 0.0)(1.0 0.0))((0.8333333 0.1666667)(1.0 0.0)(0.6666667 0.3333333))((1.0 0.0)(0.5 0.5)(0.0 1.0)))(((1.0 0.0)(1.0 0.0)(1.0 0.0))((0.8125 0.1875)(0.8333333 0.1666667)(0.7142857 0.2857143))((1.0 0.0)(0.5 0.5)(0.5 0.5))))((((1.0 0.0)(1.0 0.0)(1.0 0.0))((0.8571429 0.1428571)(0.8333333 0.1666667)(1.0 0.0))((0.0 1.0)(1.0 0.0)(1.0 0.0)))(((0.5 0.5)(0.5 0.5)(0.5 0.5))((1.0 0.0)(0.75 0.25)(1.0 0.0))((0.5 0.5)(1.0 0.0)(0.5 0.5)))))(((((0.75 0.25)(0.75 0.25)(0.8 0.2))((0.8888889 0.1111111)(0.8 0.2)(0.6428571 0.3571429))((1.0 0.0)(0.5 0.5)(0.5 0.5)))(((0.8333333 0.1666667)(0.6666667 0.3333333)(1.0 0.0))((0.7857143 0.2142857)(1.0 0.0)(0.8 0.2))((1.0 0.0)(1.0 0.0)(1.0 0.0))))((((1.0 0.0)(0.5 0.5)(0.5 0.5))((0.92592593 0.07407407)(1.0 0.0)(0.6666667 0.3333333))((1.0 0.0)(1.0 0.0)(0.5 0.5)))(((1.0 0.0)(1.0 0.0)(1.0 0.0))((0.8181818 0.1818182)(0.5 0.5)(0.75 0.25))((1.0 0.0)(1.0 0.0)(0.0 1.0))))))((((((0.8571429 0.1428571)(1.0 0.0)(1.0 0.0))((0.75 0.25)(0.91666667 0.08333333)(1.0 0.0))((1.0 0.0)(0.0 1.0)(1.0 0.0)))(((0.8571429 0.1428571)(0.8 0.2)(1.0 0.0))((0.6875 0.3125)(0.875 0.125)(0.8666667 0.1333333))((0.3333333 0.6666667)(0.5 0.5)(1.0 0.0))))((((0.6666667 0.3333333)(1.0 0.0)(0.8 0.2))((0.9047619 0.0952381)(1.0 0.0)(0.6666667 0.3333333))((1.0 0.0)(0.6666667 0.3333333)(1.0 0.0)))(((1.0 0.0)(0.6666667 0.3333333)(0.5 0.5))((0.7272727 0.2727273)(0.5 0.5)(0.8 0.2))((0.5 0.5)(1.0 0.0)(1.0 0.0)))))(((((0.9 0.1)(1.0 0.0)(0.8333333 0.1666667))((0.8604651 0.1395349)(0.875 0.125)(0.8888889 0.1111111))((0.5 0.5)(0.0 1.0)(1.0 0.0)))(((1.0 0.0)(1.0 0.0)(0.8571429 0.1428571))((0.7352941 0.2647059)(0.5 0.5)(0.7 0.3))((0.6666667 0.3333333)(1.0 0.0)(1.0 0.0))))((((0.7222222 0.2777778)(0.8333333 0.1666667)(1.0 0.0))((0.90625 0.09375)(0.8823529 0.1176471)(0.7647059 0.2352941))((0.75 0.25)(1.0 0.0)(1.0 0.0)))(((0.5714286 0.4285714)(0.5 0.5)(1.0 0.0))((0.7 0.3)(0.625 0.375)(0.6666667 0.3333333))((1.0 0.0)(0.5 0.5)(1.0 0.0))))))))((((((((0.75 0.25)(0.875 0.125)(0.9 0.1))((0.7580645 0.2419355)(0.8076923 0.1923077)(0.7741935 0.2258065))((0.75 0.25)(0.8333333 0.1666667)(0.90909091 0.09090909)))(((1.0 0.0)(0.3333333 0.6666667)(0.6 0.4))((0.8571429 0.1428571)(0.6923077 0.3076923)(0.5882353 0.4117647))((1.0 0.0)(0.5 0.5)(0.5 0.5))))((((0.7857143 0.2142857)(1.0 0.0)(0.5 0.5))((0.8181818 0.1818182)(0.8571429 0.1428571)(0.8235294 0.1764706))((0.7 0.3)(1.0 0.0)(1.0 0.0)))(((0.7142857 0.2857143)(0.3333333 0.6666667)(0.5 0.5))((0.7727273 0.2272727)(0.75 0.25)(0.6 0.4))((0.5714286 0.4285714)(1.0 0.0)(1.0 0.0)))))(((((0.8333333 0.1666667)(0.8181818 0.1818182)(0.92857143 0.07142857))((0.7837838 0.2162162)(0.8214286 0.1785714)(0.8717949 0.1282051))((0.8333333 0.1666667)(0.8571429 0.1428571)(1.0 0.0)))(((0.91666667 0.08333333)(0.8888889 0.1111111)(0.8333333 0.1666667))((0.7741935 0.2258065)(0.7826087 0.2173913)(0.84 0.16))((0.8333333 0.1666667)(0.5 0.5)(1.0 0.0))))((((0.75 0.25)(0.8333333 0.1666667)(0.6666667 0.3333333))((0.7792208 0.2207792)(0.7619048 0.2380952)(0.92307692 0.07692308))((0.875 0.125)(1.0 0.0)(0.75 0.25)))(((0.92307692 0.07692308)(0.6666667 0.3333333)(0.8571429 0.1428571))((0.6923077 0.3076923)(0.8571429 0.1428571)(0.7777778 0.2222222))((1.0 0.0)(0.5 0.5)(1.0 0.0))))))((((((0.9047619 0.0952381)(0.8666667 0.1333333)(0.8235294 0.1764706))((0.7565217 0.2434783)(0.7843137 0.2156863)(0.7692308 0.2307692))((0.7142857 0.2857143)(0.625 0.375)(0.7 0.3)))(((0.8333333 0.1666667)(0.625 0.375)(0.92307692 0.07692308))((0.8275862 0.1724138)(0.7692308 0.2307692)(0.8 0.2))((0.7692308 0.2307692)(0.8 0.2)(0.6 0.4))))((((0.8636364 0.1363636)(0.8333333 0.1666667)(0.91666667 0.08333333))((0.8630137 0.1369863)(0.8214286 0.1785714)(0.75 0.25))((1.0 0.0)(0.5 0.5)(0.6666667 0.3333333)))(((0.8571429 0.1428571)(0.0 1.0)(1.0 0.0))((0.8857143 0.1142857)(0.7727273 0.2272727)(0.7142857 0.2857143))((0.7777778 0.2222222)(1.0 0.0)(0.8333333 0.1666667)))))(((((0.8541667 0.1458333)(0.75 0.25)(0.8333333 0.1666667))((0.813253 0.186747)(0.7719298 0.2280702)(0.7671233 0.2328767))((0.8333333 0.1666667)(0.8571429 0.1428571)(0.8571429 0.1428571)))(((0.8333333 0.1666667)(0.7692308 0.2307692)(0.8571429 0.1428571))((0.8555556 0.1444444)(0.7317073 0.2682927)(0.7708333 0.2291667))((0.75 0.25)(0.8888889 0.1111111)(0.75 0.25))))((((0.8695652 0.1304348)(0.75 0.25)(0.6818182 0.3181818))((0.7924528 0.2075472)(0.7727273 0.2272727)(0.8666667 0.1333333))((0.7777778 0.2222222)(0.6666667 0.3333333)(0.6666667 0.3333333)))(((0.8 0.2)(0.875 0.125)(0.8571429 0.1428571))((0.8076923 0.1923077)(0.8571429 0.1428571)(0.95833333 0.04166667))((0.8333333 0.1666667)(0.5 0.5)(0.6666667 0.3333333)))))))(((((((0.8181818 0.1818182)(1.0 0.0)(0.875 0.125))((0.75 0.25)(0.7777778 0.2222222)(0.7272727 0.2727273))((1.0 0.0)(0.5 0.5)(1.0 0.0)))(((0.8 0.2)(0.5 0.5)(1.0 0.0))((0.8571429 0.1428571)(0.8333333 0.1666667)(0.5 0.5))((1.0 0.0)(1.0 0.0)(0.0 1.0))))((((0.625 0.375)(1.0 0.0)(0.5 0.5))((0.6363636 0.3636364)(0.8333333 0.1666667)(0.6 0.4))((1.0 0.0)(1.0 0.0)(1.0 0.0)))(((1.0 0.0)(0.5 0.5)(1.0 0.0))((0.92857143 0.07142857)(0.8333333 0.1666667)(1.0 0.0))((0.5 0.5)(1.0 0.0)(1.0 0.0)))))(((((0.8571429 0.1428571)(0.8571429 0.1428571)(0.75 0.25))((0.6764706 0.3235294)(0.8947368 0.1052632)(0.6363636 0.3636364))((1.0 0.0)(1.0 0.0)(0.0 1.0)))(((1.0 0.0)(1.0 0.0)(0.5 0.5))((0.7647059 0.2352941)(0.7 0.3)(0.9 0.1))((0.5 0.5)(0.6666667 0.3333333)(0.0 1.0))))((((0.7777778 0.2222222)(0.75 0.25)(0.8571429 0.1428571))((0.7826087 0.2173913)(1.0 0.0)(0.8461538 0.1538462))((0.5 0.5)(1.0 0.0)(1.0 0.0)))(((1.0 0.0)(0.75 0.25)(1.0 0.0))((0.5454545 0.4545455)(0.6666667 0.3333333)(1.0 0.0))((0.5 0.5)(0.5 0.5)(1.0 0.0))))))((((((0.7 0.3)(0.6923077 0.3076923)(0.7142857 0.2857143))((0.8837209 0.1162791)(0.8235294 0.1764706)(0.84 0.16))((0.8 0.2)(1.0 0.0)(1.0 0.0)))(((0.75 0.25)(1.0 0.0)(1.0 0.0))((0.7894737 0.2105263)(0.92857143 0.07142857)(1.0 0.0))((0.5 0.5)(0.5 0.5)(1.0 0.0))))((((0.875 0.125)(1.0 0.0)(1.0 0.0))((0.7857143 0.2142857)(0.6666667 0.3333333)(0.90909091 0.09090909))((1.0 0.0)(1.0 0.0)(1.0 0.0)))(((0.75 0.25)(1.0 0.0)(0.8571429 0.1428571))((0.7272727 0.2727273)(0.8181818 0.1818182)(0.7 0.3))((1.0 0.0)(0.5 0.5)(0.5 0.5)))))(((((0.8421053 0.1578947)(0.7142857 0.2857143)(1.0 0.0))((0.84 0.16)(0.8888889 0.1111111)(0.7619048 0.2380952))((1.0 0.0)(1.0 0.0)(0.6 0.4)))(((0.94444444 0.05555556)(0.8 0.2)(1.0 0.0))((0.7272727 0.2727273)(0.8571429 0.1428571)(0.8333333 0.1666667))((0.75 0.25)(0.0 1.0)(1.0 0.0))))((((1.0 0.0)(0.6666667 0.3333333)(0.875 0.125))((0.84375 0.15625)(0.8 0.2)(0.6428571 0.3571429))((0.6 0.4)(0.8333333 0.1666667)(1.0 0.0)))(((0.6666667 0.3333333)(0.6666667 0.3333333)(0.8 0.2))((0.88 0.12)(0.8947368 0.1052632)(0.7777778 0.2222222))((1.0 0.0)(1.0 0.0)(0.5 0.5)))))))))(((((((((1.0 0.0)(0.8 0.2)(0.90909091 0.09090909))((0.7631579 0.2368421)(0.8888889 0.1111111)(0.7027027 0.2972973))((0.7222222 0.2777778)(1.0 0.0)(0.8571429 0.1428571)))(((1.0 0.0)(0.7142857 0.2857143)(0.0 1.0))((0.8510638 0.1489362)(0.7368421 0.2631579)(0.625 0.375))((0.375 0.625)(1.0 0.0)(1.0 0.0))))((((1.0 0.0)(0.6 0.4)(0.8333333 0.1666667))((0.7954545 0.2045455)(0.8333333 0.1666667)(0.7826087 0.2173913))((1.0 0.0)(0.5 0.5)(0.5 0.5)))(((0.7368421 0.2631579)(0.5 0.5)(1.0 0.0))((0.8387097 0.1612903)(0.94444444 0.05555556)(0.6666667 0.3333333))((1.0 0.0)(0.75 0.25)(1.0 0.0)))))(((((0.7777778 0.2222222)(0.92307692 0.07692308)(0.91666667 0.08333333))((0.7105263 0.2894737)(0.744186 0.255814)(0.91666667 0.08333333))((0.8695652 0.1304348)(0.75 0.25)(0.6923077 0.3076923)))(((0.7916667 0.2083333)(0.8 0.2)(0.8571429 0.1428571))((0.8717949 0.1282051)(0.6538462 0.3461538)(0.8421053 0.1578947))((1.0 0.0)(0.8 0.2)(1.0 0.0))))((((0.8181818 0.1818182)(0.91666667 0.08333333)(0.8461538 0.1538462))((0.7738095 0.2261905)(0.875 0.125)(0.7575758 0.2424242))((0.7777778 0.2222222)(1.0 0.0)(0.75 0.25)))(((0.8571429 0.1428571)(1.0 0.0)(0.75 0.25))((0.7407407 0.2592593)(0.9047619 0.0952381)(0.7272727 0.2727273))((0.5 0.5)(1.0 0.0)(0.6 0.4))))))((((((0.8142857 0.1857143)(0.8333333 0.1666667)(0.8125 0.1875))((0.7986111 0.2013889)(0.7678571 0.2321429)(0.7301587 0.2698413))((0.85 0.15)(0.90909091 0.09090909)(0.6666667 0.3333333)))(((0.8333333 0.1666667)(1.0 0.0)(1.0 0.0))((0.7792208 0.2207792)(0.91176471 0.08823529)(0.8333333 0.1666667))((0.75 0.25)(1.0 0.0)(0.6666667 0.3333333))))((((0.8421053 0.1578947)(0.6 0.4)(0.7647059 0.2352941))((0.8058252 0.1941748)(0.8095238 0.1904762)(0.8285714 0.1714286))((0.94117647 0.05882353)(1.0 0.0)(0.8 0.2)))(((0.826087 0.173913)(0.7142857 0.2857143)(0.8571429 0.1428571))((0.74 0.26)(0.8333333 0.1666667)(0.91666667 0.08333333))((1.0 0.0)(0.6 0.4)(0.8 0.2)))))(((((0.8253968 0.1746032)(0.94444444 0.05555556)(0.6923077 0.3076923))((0.7938144 0.2061856)(0.8 0.2)(0.7931034 0.2068966))((0.7666667 0.2333333)(0.7857143 0.2142857)(0.8888889 0.1111111)))(((0.7894737 0.2105263)(0.8888889 0.1111111)(0.8421053 0.1578947))((0.7767857 0.2232143)(0.92682927 0.07317073)(0.8823529 0.1176471))((0.6923077 0.3076923)(0.7142857 0.2857143)(0.75 0.25))))((((0.86 0.14)(0.8 0.2)(0.9 0.1))((0.8050847 0.1949153)(0.76 0.24)(0.8269231 0.1730769))((0.95238095 0.04761905)(0.8571429 0.1428571)(0.8333333 0.1666667)))(((0.8 0.2)(0.7272727 0.2727273)(0.5 0.5))((0.8378378 0.1621622)(0.8518519 0.1481481)(0.8421053 0.1578947))((0.75 0.25)(1.0 0.0)(1.0 0.0)))))))(((((((1.0 0.0)(0.875 0.125)(0.5 0.5))((0.8076923 0.1923077)(0.90909091 0.09090909)(0.93333333 0.06666667))((0.5 0.5)(1.0 0.0)(0.5 0.5)))(((0.8888889 0.1111111)(1.0 0.0)(1.0 0.0))((0.6875 0.3125)(0.8 0.2)(0.8 0.2))((1.0 0.0)(0.6666667 0.3333333)(0.5 0.5))))((((1.0 0.0)(1.0 0.0)(0.7777778 0.2222222))((0.9375 0.0625)(0.6 0.4)(0.7777778 0.2222222))((1.0 0.0)(1.0 0.0)(1.0 0.0)))(((1.0 0.0)(1.0 0.0)(1.0 0.0))((0.7 0.3)(0.7142857 0.2857143)(1.0 0.0))((1.0 0.0)(0.5 0.5)(1.0 0.0)))))(((((0.8823529 0.1176471)(0.75 0.25)(1.0 0.0))((0.8297872 0.1702128)(0.6363636 0.3636364)(0.90909091 0.09090909))((1.0 0.0)(1.0 0.0)(0.0 1.0)))(((1.0 0.0)(0.8 0.2)(1.0 0.0))((0.9047619 0.0952381)(0.8421053 0.1578947)(1.0 0.0))((1.0 0.0)(1.0 0.0)(1.0 0.0))))((((1.0 0.0)(0.8 0.2)(0.6 0.4))((0.7931034 0.2068966)(0.7142857 0.2857143)(0.7272727 0.2727273))((1.0 0.0)(1.0 0.0)(1.0 0.0)))(((0.75 0.25)(0.5 0.5)(1.0 0.0))((0.6666667 0.3333333)(0.8571429 0.1428571)(1.0 0.0))((1.0 0.0)(0.5 0.5)(0.5 0.5))))))((((((0.8181818 0.1818182)(0.6666667 0.3333333)(0.75 0.25))((0.744186 0.255814)(0.7647059 0.2352941)(0.90909091 0.09090909))((1.0 0.0)(0.6666667 0.3333333)(1.0 0.0)))(((0.6666667 0.3333333)(0.5 0.5)(0.6666667 0.3333333))((0.7083333 0.2916667)(0.9 0.1)(0.7 0.3))((0.625 0.375)(1.0 0.0)(1.0 0.0))))((((0.85 0.15)(1.0 0.0)(1.0 0.0))((0.8421053 0.1578947)(0.7333333 0.2666667)(0.7 0.3))((1.0 0.0)(1.0 0.0)(0.5 0.5)))(((0.6666667 0.3333333)(0.5 0.5)(1.0 0.0))((0.8666667 0.1333333)(0.8333333 0.1666667)(0.7857143 0.2142857))((1.0 0.0)(1.0 0.0)(1.0 0.0)))))(((((0.8518519 0.1481481)(0.4285714 0.5714286)(0.8461538 0.1538462))((0.8596491 0.1403509)(0.7407407 0.2592593)(0.7368421 0.2631579))((0.8333333 0.1666667)(0.8 0.2)(0.7142857 0.2857143)))(((0.7333333 0.2666667)(1.0 0.0)(0.6 0.4))((0.8125 0.1875)(0.8235294 0.1764706)(0.8695652 0.1304348))((0.9375 0.0625)(0.6666667 0.3333333)(1.0 0.0))))((((0.92307692 0.07692308)(0.6666667 0.3333333)(0.75 0.25))((0.6470588 0.3529412)(0.8571429 0.1428571)(0.90909091 0.09090909))((1.0 0.0)(1.0 0.0)(1.0 0.0)))(((0.875 0.125)(1.0 0.0)(1.0 0.0))((0.7857143 0.2142857)(0.5 0.5)(0.92307692 0.07692308))((0.9 0.1)(1.0 0.0)(1.0 0.0))))))))((((((((0.8235294 0.1764706)(0.8571429 0.1428571)(1.0 0.0))((0.7692308 0.2307692)(0.91666667 0.08333333)(0.91666667 0.08333333))((1.0 0.0)(1.0 0.0)(0.75 0.25)))(((1.0 0.0)(1.0 0.0)(1.0 0.0))((0.6875 0.3125)(1.0 0.0)(0.8333333 0.1666667))((0.5 0.5)(0.5 0.5)(1.0 0.0))))((((0.75 0.25)(1.0 0.0)(0.8 0.2))((0.8947368 0.1052632)(0.6 0.4)(0.75 0.25))((1.0 0.0)(1.0 0.0)(0.0 1.0)))(((0.5 0.5)(1.0 0.0)(1.0 0.0))((0.875 0.125)(1.0 0.0)(0.8571429 0.1428571))((0.5 0.5)(1.0 0.0)(0.5 0.5)))))(((((0.7857143 0.2142857)(1.0 0.0)(0.3333333 0.6666667))((0.8205128 0.1794872)(0.7857143 0.2142857)(0.8666667 0.1333333))((0.75 0.25)(1.0 0.0)(0.5 0.5)))(((0.8888889 0.1111111)(0.0 1.0)(0.6666667 0.3333333))((0.9375 0.0625)(0.8888889 0.1111111)(1.0 0.0))((1.0 0.0)(1.0 0.0)(0.5 0.5))))((((0.91666667 0.08333333)(0.8333333 0.1666667)(0.8 0.2))((0.7142857 0.2857143)(0.6 0.4)(0.6153846 0.3846154))((0.6666667 0.3333333)(1.0 0.0)(0.6666667 0.3333333)))(((0.625 0.375)(0.5 0.5)(0.5 0.5))((0.8181818 0.1818182)(1.0 0.0)(0.7777778 0.2222222))((0.6666667 0.3333333)(0.5 0.5)(0.5 0.5))))))((((((0.94444444 0.05555556)(1.0 0.0)(0.75 0.25))((0.875 0.125)(0.8888889 0.1111111)(0.6923077 0.3076923))((1.0 0.0)(0.5 0.5)(0.5 0.5)))(((0.8571429 0.1428571)(1.0 0.0)(0.8333333 0.1666667))((0.7692308 0.2307692)(0.8888889 0.1111111)(0.625 0.375))((1.0 0.0)(0.5 0.5)(0.75 0.25))))((((0.91666667 0.08333333)(0.8 0.2)(0.5714286 0.4285714))((0.8181818 0.1818182)(1.0 0.0)(0.7333333 0.2666667))((1.0 0.0)(0.5 0.5)(0.0 1.0)))(((0.3333333 0.6666667)(1.0 0.0)(1.0 0.0))((0.7619048 0.2380952)(1.0 0.0)(0.8 0.2))((1.0 0.0)(0.5 0.5)(1.0 0.0)))))(((((0.72 0.28)(1.0 0.0)(0.8 0.2))((0.8181818 0.1818182)(0.7857143 0.2142857)(0.7 0.3))((0.75 0.25)(1.0 0.0)(1.0 0.0)))(((0.7368421 0.2631579)(0.8 0.2)(1.0 0.0))((0.8571429 0.1428571)(0.6538462 0.3461538)(0.8 0.2))((1.0 0.0)(0.5 0.5)(1.0 0.0))))((((0.8947368 0.1052632)(0.5555556 0.4444444)(0.7142857 0.2857143))((0.7692308 0.2307692)(0.8888889 0.1111111)(0.7142857 0.2857143))((0.7 0.3)(1.0 0.0)(1.0 0.0)))(((1.0 0.0)(0.75 0.25)(0.6666667 0.3333333))((0.8571429 0.1428571)(0.625 0.375)(0.5 0.5))((1.0 0.0)(0.6666667 0.3333333)(0.5 0.5)))))))(((((((1.0 0.0)(1.0 0.0)(1.0 0.0))((0.8181818 0.1818182)(1.0 0.0)(0.5 0.5))((0.5 0.5)(0.0 1.0)(1.0 0.0)))(((0.5 0.5)(0.5 0.5)(0.0 1.0))((0.6666667 0.3333333)(1.0 0.0)(1.0 0.0))((1.0 0.0)(0.5 0.5)(0.5 0.5))))((((0.5 0.5)(1.0 0.0)(1.0 0.0))((0.6 0.4)(1.0 0.0)(0.5 0.5))((0.5 0.5)(0.5 0.5)(0.5 0.5)))(((1.0 0.0)(0.5 0.5)(0.5 0.5))((1.0 0.0)(1.0 0.0)(0.6666667 0.3333333))((1.0 0.0)(0.5 0.5)(0.5 0.5)))))(((((0.6 0.4)(1.0 0.0)(0.5 0.5))((0.8 0.2)(0.8 0.2)(0.7 0.3))((1.0 0.0)(0.5 0.5)(1.0 0.0)))(((0.5 0.5)(0.5 0.5)(0.5 0.5))((1.0 0.0)(0.75 0.25)(0.4 0.6))((0.5 0.5)(1.0 0.0)(1.0 0.0))))((((1.0 0.0)(1.0 0.0)(0.5 0.5))((0.8571429 0.1428571)(0.5 0.5)(1.0 0.0))((0.5 0.5)(1.0 0.0)(1.0 0.0)))(((1.0 0.0)(0.5 0.5)(0.5 0.5))((0.8888889 0.1111111)(0.0 1.0)(0.5 0.5))((0.5 0.5)(0.5 0.5)(0.5 0.5))))))((((((0.3333333 0.6666667)(1.0 0.0)(0.0 1.0))((0.8571429 0.1428571)(0.8333333 0.1666667)(0.8 0.2))((1.0 0.0)(1.0 0.0)(0.5 0.5)))(((0.5 0.5)(1.0 0.0)(1.0 0.0))((0.5714286 0.4285714)(0.6666667 0.3333333)(1.0 0.0))((1.0 0.0)(1.0 0.0)(0.5 0.5))))((((1.0 0.0)(1.0 0.0)(0.5 0.5))((0.8181818 0.1818182)(1.0 0.0)(1.0 0.0))((0.0 1.0)(0.5 0.5)(0.5 0.5)))(((1.0 0.0)(0.5 0.5)(0.5 0.5))((0.5714286 0.4285714)(0.5 0.5)(0.0 1.0))((1.0 0.0)(0.5 0.5)(0.5 0.5)))))(((((0.7142857 0.2857143)(1.0 0.0)(1.0 0.0))((0.8888889 0.1111111)(0.7142857 0.2857143)(0.6 0.4))((1.0 0.0)(0.6666667 0.3333333)(0.5 0.5)))(((1.0 0.0)(1.0 0.0)(0.5 0.5))((0.7777778 0.2222222)(1.0 0.0)(0.8888889 0.1111111))((1.0 0.0)(1.0 0.0)(1.0 0.0))))((((1.0 0.0)(1.0 0.0)(1.0 0.0))((0.8181818 0.1818182)(0.7142857 0.2857143)(0.8 0.2))((1.0 0.0)(0.0 1.0)(0.5 0.5)))(((1.0 0.0)(0.5 0.5)(0.5 0.5))((0.875 0.125)(1.0 0.0)(0.6666667 0.3333333))((1.0 0.0)(0.5 0.5)(0.5 0.5))))))))((((((((0.8181818 0.1818182)(0.25 0.75)(0.3333333 0.6666667))((0.8148148 0.1851852)(0.8235294 0.1764706)(0.7368421 0.2631579))((0.7142857 0.2857143)(0.5 0.5)(1.0 0.0)))(((0.5 0.5)(0.6666667 0.3333333)(1.0 0.0))((0.8636364 0.1363636)(0.92307692 0.07692308)(0.7857143 0.2142857))((1.0 0.0)(1.0 0.0)(0.3333333 0.6666667))))((((0.75 0.25)(1.0 0.0)(1.0 0.0))((0.7894737 0.2105263)(0.7272727 0.2727273)(1.0 0.0))((0.75 0.25)(1.0 0.0)(1.0 0.0)))(((1.0 0.0)(0.5 0.5)(1.0 0.0))((0.7916667 0.2083333)(0.5 0.5)(1.0 0.0))((0.5 0.5)(0.5 0.5)(0.5 0.5)))))(((((1.0 0.0)(0.6666667 0.3333333)(1.0 0.0))((0.8378378 0.1621622)(0.5833333 0.4166667)(0.826087 0.173913))((0.875 0.125)(0.5 0.5)(0.8 0.2)))(((0.9 0.1)(1.0 0.0)(0.9 0.1))((0.8095238 0.1904762)(0.8333333 0.1666667)(1.0 0.0))((0.75 0.25)(1.0 0.0)(0.5 0.5))))((((0.75 0.25)(1.0 0.0)(0.7272727 0.2727273))((0.7241379 0.2758621)(0.6153846 0.3846154)(1.0 0.0))((0.8571429 0.1428571)(1.0 0.0)(0.6666667 0.3333333)))(((0.8 0.2)(0.5 0.5)(1.0 0.0))((0.90909091 0.09090909)(0.75 0.25)(1.0 0.0))((1.0 0.0)(1.0 0.0)(1.0 0.0))))))((((((0.7777778 0.2222222)(0.7142857 0.2857143)(0.7272727 0.2727273))((0.8730159 0.1269841)(0.875 0.125)(0.8 0.2))((1.0 0.0)(0.75 0.25)(0.8 0.2)))(((0.75 0.25)(0.7142857 0.2857143)(1.0 0.0))((0.7931034 0.2068966)(0.6 0.4)(1.0 0.0))((0.8333333 0.1666667)(0.5 0.5)(0.75 0.25))))((((0.8125 0.1875)(0.8571429 0.1428571)(1.0 0.0))((0.9 0.1)(0.8666667 0.1333333)(0.7619048 0.2380952))((0.75 0.25)(0.5 0.5)(1.0 0.0)))(((1.0 0.0)(0.6 0.4)(0.5 0.5))((0.75 0.25)(0.6153846 0.3846154)(1.0 0.0))((1.0 0.0)(0.0 1.0)(0.0 1.0)))))(((((0.6666667 0.3333333)(0.7333333 0.2666667)(0.7142857 0.2857143))((0.7901235 0.2098765)(0.84 0.16)(0.8064516 0.1935484))((0.8571429 0.1428571)(1.0 0.0)(0.4 0.6)))(((0.7647059 0.2352941)(0.875 0.125)(0.6666667 0.3333333))((0.8974359 0.1025641)(0.8125 0.1875)(0.8235294 0.1764706))((0.9 0.1)(0.75 0.25)(1.0 0.0))))((((0.8571429 0.1428571)(0.5714286 0.4285714)(1.0 0.0))((0.8769231 0.1230769)(0.8571429 0.1428571)(0.94117647 0.05882353))((0.8888889 0.1111111)(1.0 0.0)(1.0 0.0)))(((0.8333333 0.1666667)(1.0 0.0)(1.0 0.0))((0.875 0.125)(0.91666667 0.08333333)(0.6363636 0.3636364))((1.0 0.0)(1.0 0.0)(1.0 0.0)))))))(((((((0.875 0.125)(0.5 0.5)(1.0 0.0))((0.8571429 0.1428571)(0.5 0.5)(0.8 0.2))((1.0 0.0)(1.0 0.0)(0.0 1.0)))(((0.5 0.5)(1.0 0.0)(1.0 0.0))((0.5 0.5)(0.6666667 0.3333333)(1.0 0.0))((1.0 0.0)(1.0 0.0)(1.0 0.0))))((((1.0 0.0)(0.5 0.5)(1.0 0.0))((0.75 0.25)(0.75 0.25)(1.0 0.0))((1.0 0.0)(0.0 1.0)(0.5 0.5)))(((0.5 0.5)(0.5 0.5)(1.0 0.0))((0.6666667 0.3333333)(1.0 0.0)(0.5 0.5))((0.5 0.5)(0.0 1.0)(0.5 0.5)))))(((((0.6666667 0.3333333)(1.0 0.0)(1.0 0.0))((0.7894737 0.2105263)(1.0 0.0)(0.5714286 0.4285714))((1.0 0.0)(1.0 0.0)(1.0 0.0)))(((0.6666667 0.3333333)(1.0 0.0)(1.0 0.0))((1.0 0.0)(0.8333333 0.1666667)(1.0 0.0))((0.5 0.5)(0.5 0.5)(1.0 0.0))))((((1.0 0.0)(1.0 0.0)(1.0 0.0))((0.7 0.3)(1.0 0.0)(0.6 0.4))((0.6666667 0.3333333)(1.0 0.0)(0.5 0.5)))(((1.0 0.0)(0.5 0.5)(1.0 0.0))((0.75 0.25)(0.0 1.0)(0.6666667 0.3333333))((0.5 0.5)(0.5 0.5)(0.5 0.5))))))((((((0.8 0.2)(1.0 0.0)(1.0 0.0))((0.7333333 0.2666667)(1.0 0.0)(0.4615385 0.5384615))((0.8888889 0.1111111)(0.5 0.5)(0.5 0.5)))(((1.0 0.0)(1.0 0.0)(1.0 0.0))((0.75 0.25)(0.5 0.5)(0.75 0.25))((0.6666667 0.3333333)(1.0 0.0)(0.0 1.0))))((((0.0 1.0)(1.0 0.0)(0.5 0.5))((1.0 0.0)(1.0 0.0)(1.0 0.0))((0.8 0.2)(1.0 0.0)(0.5 0.5)))(((0.5 0.5)(1.0 0.0)(1.0 0.0))((0.9 0.1)(1.0 0.0)(1.0 0.0))((0.5 0.5)(0.0 1.0)(0.5 0.5)))))(((((0.5 0.5)(0.75 0.25)(0.6666667 0.3333333))((0.7575758 0.2424242)(1.0 0.0)(0.8 0.2))((0.6666667 0.3333333)(1.0 0.0)(0.5 0.5)))(((1.0 0.0)(0.25 0.75)(0.4 0.6))((0.8666667 0.1333333)(0.75 0.25)(0.8 0.2))((0.75 0.25)(1.0 0.0)(0.5 0.5))))((((0.7142857 0.2857143)(1.0 0.0)(1.0 0.0))((0.7727273 0.2272727)(0.5 0.5)(1.0 0.0))((0.75 0.25)(0.5 0.5)(0.0 1.0)))(((0.6666667 0.3333333)(0.5 0.5)(0.5 0.5))((0.8 0.2)(1.0 0.0)(1.0 0.0))((0.0 1.0)(0.5 0.5)(0.5 0.5)))))))))(((((((((0.8666667 0.1333333)(1.0 0.0)(0.91666667 0.08333333))((0.8405797 0.1594203)(0.7727273 0.2272727)(0.76 0.24))((1.0 0.0)(0.75 0.25)(1.0 0.0)))(((0.8125 0.1875)(0.625 0.375)(0.8 0.2))((0.7567568 0.2432432)(0.8 0.2)(0.7692308 0.2307692))((0.9 0.1)(0.5 0.5)(0.6666667 0.3333333))))((((0.7058824 0.2941176)(0.875 0.125)(0.8888889 0.1111111))((0.744186 0.255814)(0.5 0.5)(0.85 0.15))((0.8333333 0.1666667)(0.5 0.5)(1.0 0.0)))(((0.7 0.3)(1.0 0.0)(0.75 0.25))((0.8064516 0.1935484)(1.0 0.0)(0.8125 0.1875))((1.0 0.0)(1.0 0.0)(1.0 0.0)))))(((((0.7272727 0.2727273)(0.91666667 0.08333333)(0.75 0.25))((0.8314607 0.1685393)(0.775 0.225)(0.91176471 0.08823529))((0.8125 0.1875)(0.7142857 0.2857143)(0.75 0.25)))(((0.8571429 0.1428571)(1.0 0.0)(0.8 0.2))((0.7959184 0.2040816)(0.6666667 0.3333333)(0.8846154 0.1153846))((0.6666667 0.3333333)(0.75 0.25)(0.5 0.5))))((((0.8095238 0.1904762)(0.8 0.2)(1.0 0.0))((0.8360656 0.1639344)(0.90909091 0.09090909)(0.7407407 0.2592593))((0.8181818 0.1818182)(0.5 0.5)(1.0 0.0)))(((0.8 0.2)(0.6666667 0.3333333)(0.8571429 0.1428571))((0.7586207 0.2413793)(0.7857143 0.2142857)(0.8823529 0.1176471))((0.75 0.25)(0.8 0.2)(1.0 0.0))))))((((((0.8518519 0.1481481)(0.7142857 0.2857143)(0.8 0.2))((0.8119658 0.1880342)(0.893617 0.106383)(0.7317073 0.2682927))((0.7777778 0.2222222)(0.8333333 0.1666667)(0.6 0.4)))(((0.8181818 0.1818182)(0.8888889 0.1111111)(0.875 0.125))((0.7910448 0.2089552)(0.7333333 0.2666667)(0.8214286 0.1785714))((0.6666667 0.3333333)(0.6666667 0.3333333)(0.5 0.5))))((((0.8076923 0.1923077)(0.8888889 0.1111111)(0.92307692 0.07692308))((0.7875 0.2125)(0.7037037 0.2962963)(0.7894737 0.2105263))((0.8333333 0.1666667)(0.8 0.2)(0.8571429 0.1428571)))(((0.8571429 0.1428571)(0.8 0.2)(1.0 0.0))((0.744186 0.255814)(0.8 0.2)(0.7368421 0.2631579))((0.8 0.2)(1.0 0.0)(1.0 0.0)))))(((((0.7962963 0.2037037)(0.8125 0.1875)(0.91666667 0.08333333))((0.8280255 0.1719745)(0.8064516 0.1935484)(0.8611111 0.1388889))((0.7916667 0.2083333)(0.8 0.2)(0.6666667 0.3333333)))(((0.8461538 0.1538462)(0.7 0.3)(0.7333333 0.2666667))((0.8089888 0.1910112)(0.78125 0.21875)(0.7894737 0.2105263))((0.92857143 0.07142857)(0.9 0.1)(0.7142857 0.2857143))))((((0.7878788 0.2121212)(0.6666667 0.3333333)(0.75 0.25))((0.8295455 0.1704545)(0.7058824 0.2941176)(0.8 0.2))((0.6363636 0.3636364)(0.8571429 0.1428571)(1.0 0.0)))(((0.826087 0.173913)(0.5 0.5)(0.8888889 0.1111111))((0.7580645 0.2419355)(0.7368421 0.2631579)(0.8571429 0.1428571))((0.7 0.3)(1.0 0.0)(0.5 0.5)))))))(((((((0.7272727 0.2727273)(1.0 0.0)(1.0 0.0))((0.84 0.16)(0.75 0.25)(0.9 0.1))((0.6666667 0.3333333)(1.0 0.0)(1.0 0.0)))(((0.8 0.2)(0.5 0.5)(0.5 0.5))((1.0 0.0)(1.0 0.0)(0.8333333 0.1666667))((0.6 0.4)(1.0 0.0)(0.5 0.5))))((((1.0 0.0)(1.0 0.0)(0.6 0.4))((0.7692308 0.2307692)(1.0 0.0)(0.7777778 0.2222222))((1.0 0.0)(1.0 0.0)(1.0 0.0)))(((1.0 0.0)(1.0 0.0)(0.6666667 0.3333333))((1.0 0.0)(1.0 0.0)(1.0 0.0))((1.0 0.0)(1.0 0.0)(1.0 0.0)))))(((((0.91666667 0.08333333)(0.7777778 0.2222222)(0.8333333 0.1666667))((0.7941176 0.2058824)(0.8333333 0.1666667)(1.0 0.0))((0.8 0.2)(1.0 0.0)(1.0 0.0)))(((0.7 0.3)(0.5 0.5)(1.0 0.0))((0.8235294 0.1764706)(1.0 0.0)(0.8333333 0.1666667))((0.25 0.75)(1.0 0.0)(0.5 0.5))))((((0.8 0.2)(1.0 0.0)(1.0 0.0))((0.7391304 0.2608696)(1.0 0.0)(0.8 0.2))((1.0 0.0)(1.0 0.0)(1.0 0.0)))(((0.625 0.375)(1.0 0.0)(1.0 0.0))((0.7777778 0.2222222)(0.8 0.2)(0.75 0.25))((0.75 0.25)(1.0 0.0)(0.5 0.5))))))((((((0.8181818 0.1818182)(0.5 0.5)(1.0 0.0))((0.8292683 0.1707317)(0.5 0.5)(0.7857143 0.2142857))((0.5 0.5)(1.0 0.0)(0.5 0.5)))(((0.75 0.25)(1.0 0.0)(0.75 0.25))((0.6818182 0.3181818)(0.75 0.25)(1.0 0.0))((0.0 1.0)(0.5 0.5)(1.0 0.0))))((((0.75 0.25)(1.0 0.0)(1.0 0.0))((0.8095238 0.1904762)(0.875 0.125)(0.8666667 0.1333333))((0.8 0.2)(1.0 0.0)(1.0 0.0)))(((0.8333333 0.1666667)(1.0 0.0)(1.0 0.0))((0.8461538 0.1538462)(0.7777778 0.2222222)(0.6666667 0.3333333))((1.0 0.0)(0.5 0.5)(0.5 0.5)))))(((((0.8571429 0.1428571)(0.5 0.5)(0.90909091 0.09090909))((0.8958333 0.1041667)(0.7727273 0.2272727)(0.7727273 0.2272727))((0.8181818 0.1818182)(0.75 0.25)(1.0 0.0)))(((0.75 0.25)(0.6666667 0.3333333)(0.8333333 0.1666667))((0.6857143 0.3142857)(0.9375 0.0625)(0.7333333 0.2666667))((1.0 0.0)(0.8 0.2)(1.0 0.0))))((((0.94117647 0.05882353)(0.6666667 0.3333333)(0.8571429 0.1428571))((0.8333333 0.1666667)(0.875 0.125)(0.8421053 0.1578947))((1.0 0.0)(0.75 0.25)(0.4 0.6)))(((0.7142857 0.2857143)(0.0 1.0)(1.0 0.0))((0.8888889 0.1111111)(0.8 0.2)(0.75 0.25))((1.0 0.0)(1.0 0.0)(1.0 0.0))))))))((((((((0.8571429 0.1428571)(0.25 0.75)(0.75 0.25))((0.7826087 0.2173913)(0.7777778 0.2222222)(1.0 0.0))((1.0 0.0)(1.0 0.0)(0.3333333 0.6666667)))(((0.8 0.2)(1.0 0.0)(0.75 0.25))((0.8333333 0.1666667)(1.0 0.0)(0.5 0.5))((1.0 0.0)(1.0 0.0)(0.5 0.5))))((((0.6 0.4)(1.0 0.0)(1.0 0.0))((0.7857143 0.2142857)(0.6666667 0.3333333)(1.0 0.0))((0.3333333 0.6666667)(1.0 0.0)(1.0 0.0)))(((0.5 0.5)(1.0 0.0)(1.0 0.0))((0.8333333 0.1666667)(1.0 0.0)(0.5 0.5))((0.5 0.5)(1.0 0.0)(1.0 0.0)))))(((((0.91666667 0.08333333)(1.0 0.0)(1.0 0.0))((0.8666667 0.1333333)(0.7142857 0.2857143)(0.93333333 0.06666667))((1.0 0.0)(1.0 0.0)(1.0 0.0)))(((0.5714286 0.4285714)(0.5 0.5)(1.0 0.0))((0.8571429 0.1428571)(0.625 0.375)(0.5 0.5))((1.0 0.0)(0.5 0.5)(0.5 0.5))))((((0.8333333 0.1666667)(1.0 0.0)(1.0 0.0))((0.93333333 0.06666667)(0.5 0.5)(0.7777778 0.2222222))((1.0 0.0)(1.0 0.0)(1.0 0.0)))(((0.6666667 0.3333333)(1.0 0.0)(1.0 0.0))((0.7272727 0.2727273)(0.8333333 0.1666667)(1.0 0.0))((0.5 0.5)(1.0 0.0)(1.0 0.0))))))((((((0.7777778 0.2222222)(1.0 0.0)(1.0 0.0))((0.90625 0.09375)(0.625 0.375)(0.7692308 0.2307692))((1.0 0.0)(0.5 0.5)(0.5 0.5)))(((1.0 0.0)(1.0 0.0)(0.75 0.25))((0.8518519 0.1481481)(1.0 0.0)(0.6153846 0.3846154))((0.6666667 0.3333333)(1.0 0.0)(0.5 0.5))))((((0.7142857 0.2857143)(1.0 0.0)(0.5 0.5))((0.8518519 0.1481481)(0.8 0.2)(0.8235294 0.1764706))((0.75 0.25)(1.0 0.0)(1.0 0.0)))(((0.75 0.25)(1.0 0.0)(1.0 0.0))((0.8571429 0.1428571)(0.8571429 0.1428571)(0.91666667 0.08333333))((1.0 0.0)(0.5 0.5)(0.5 0.5)))))(((((0.7368421 0.2631579)(0.6 0.4)(1.0 0.0))((0.75 0.25)(0.6956522 0.3043478)(0.8518519 0.1481481))((0.75 0.25)(0.6 0.4)(0.5 0.5)))(((0.8888889 0.1111111)(1.0 0.0)(0.8 0.2))((0.8333333 0.1666667)(0.92307692 0.07692308)(0.6666667 0.3333333))((1.0 0.0)(1.0 0.0)(0.6 0.4))))((((0.5 0.5)(0.25 0.75)(1.0 0.0))((0.8333333 0.1666667)(0.6666667 0.3333333)(0.7857143 0.2142857))((0.7777778 0.2222222)(1.0 0.0)(1.0 0.0)))(((0.5714286 0.4285714)(1.0 0.0)(1.0 0.0))((0.7407407 0.2592593)(0.8 0.2)(0.75 0.25))((1.0 0.0)(1.0 0.0)(0.5 0.5)))))))(((((((1.0 0.0)(1.0 0.0)(0.5 0.5))((0.8333333 0.1666667)(0.3333333 0.6666667)(0.6666667 0.3333333))((1.0 0.0)(1.0 0.0)(0.5 0.5)))(((1.0 0.0)(1.0 0.0)(0.0 1.0))((1.0 0.0)(0.0 1.0)(1.0 0.0))((0.5 0.5)(0.5 0.5)(0.5 0.5))))((((1.0 0.0)(1.0 0.0)(1.0 0.0))((0.8571429 0.1428571)(1.0 0.0)(0.6666667 0.3333333))((1.0 0.0)(0.5 0.5)(0.5 0.5)))(((0.0 1.0)(0.5 0.5)(0.5 0.5))((0.6666667 0.3333333)(0.5 0.5)(0.5 0.5))((1.0 0.0)(0.5 0.5)(0.5 0.5)))))(((((0.5 0.5)(1.0 0.0)(1.0 0.0))((1.0 0.0)(1.0 0.0)(1.0 0.0))((1.0 0.0)(0.5 0.5)(0.5 0.5)))(((1.0 0.0)(1.0 0.0)(1.0 0.0))((0.6428571 0.3571429)(1.0 0.0)(1.0 0.0))((1.0 0.0)(0.5 0.5)(0.5 0.5))))((((1.0 0.0)(1.0 0.0)(1.0 0.0))((0.6666667 0.3333333)(1.0 0.0)(1.0 0.0))((0.5 0.5)(0.0 1.0)(0.5 0.5)))(((1.0 0.0)(1.0 0.0)(0.5 0.5))((0.5 0.5)(0.5 0.5)(0.5 0.5))((1.0 0.0)(0.5 0.5)(0.5 0.5))))))((((((1.0 0.0)(0.5 0.5)(0.0 1.0))((0.8461538 0.1538462)(1.0 0.0)(0.8333333 0.1666667))((1.0 0.0)(1.0 0.0)(1.0 0.0)))(((1.0 0.0)(0.5 0.5)(0.5 0.5))((1.0 0.0)(1.0 0.0)(0.6666667 0.3333333))((1.0 0.0)(0.0 1.0)(0.5 0.5))))((((0.5 0.5)(0.0 1.0)(0.5 0.5))((0.6666667 0.3333333)(0.75 0.25)(1.0 0.0))((1.0 0.0)(0.5 0.5)(1.0 0.0)))(((0.3333333 0.6666667)(1.0 0.0)(1.0 0.0))((0.5 0.5)(0.5 0.5)(1.0 0.0))((0.5 0.5)(0.5 0.5)(1.0 0.0)))))(((((1.0 0.0)(0.6666667 0.3333333)(1.0 0.0))((0.7368421 0.2631579)(1.0 0.0)(0.7777778 0.2222222))((1.0 0.0)(0.5 0.5)(0.5 0.5)))(((1.0 0.0)(0.5 0.5)(0.5 0.5))((0.8 0.2)(1.0 0.0)(1.0 0.0))((0.0 1.0)(1.0 0.0)(0.5 0.5))))((((1.0 0.0)(0.5 0.5)(0.5 0.5))((1.0 0.0)(1.0 0.0)(0.4 0.6))((1.0 0.0)(0.5 0.5)(0.5 0.5)))(((1.0 0.0)(0.5 0.5)(0.5 0.5))((0.8333333 0.1666667)(1.0 0.0)(1.0 0.0))((1.0 0.0)(0.5 0.5)(0.5 0.5))))))))((((((((0.8333333 0.1666667)(0.8 0.2)(0.5 0.5))((0.6956522 0.3043478)(0.5555556 0.4444444)(1.0 0.0))((0.6666667 0.3333333)(1.0 0.0)(1.0 0.0)))(((0.75 0.25)(1.0 0.0)(0.6666667 0.3333333))((0.7777778 0.2222222)(1.0 0.0)(1.0 0.0))((1.0 0.0)(1.0 0.0)(1.0 0.0))))((((0.6 0.4)(1.0 0.0)(0.25 0.75))((0.8095238 0.1904762)(0.75 0.25)(0.8181818 0.1818182))((1.0 0.0)(0.5 0.5)(0.5 0.5)))(((0.5 0.5)(0.5 0.5)(1.0 0.0))((0.7777778 0.2222222)(1.0 0.0)(1.0 0.0))((1.0 0.0)(0.5 0.5)(1.0 0.0)))))(((((0.7272727 0.2727273)(0.8571429 0.1428571)(1.0 0.0))((0.925 0.075)(0.8 0.2)(0.5294118 0.4705882))((1.0 0.0)(0.5 0.5)(1.0 0.0)))(((0.6666667 0.3333333)(1.0 0.0)(1.0 0.0))((0.6060606 0.3939394)(0.6363636 0.3636364)(1.0 0.0))((1.0 0.0)(1.0 0.0)(0.75 0.25))))((((0.8181818 0.1818182)(1.0 0.0)(1.0 0.0))((0.875 0.125)(0.90909091 0.09090909)(1.0 0.0))((1.0 0.0)(1.0 0.0)(1.0 0.0)))(((1.0 0.0)(0.75 0.25)(0.5 0.5))((0.7333333 0.2666667)(0.7 0.3)(1.0 0.0))((0.5 0.5)(0.5 0.5)(0.5 0.5))))))((((((0.8571429 0.1428571)(0.5 0.5)(0.8333333 0.1666667))((0.8 0.2)(0.75 0.25)(0.8095238 0.1904762))((1.0 0.0)(1.0 0.0)(0.5 0.5)))(((1.0 0.0)(1.0 0.0)(0.75 0.25))((0.8333333 0.1666667)(0.8 0.2)(1.0 0.0))((0.75 0.25)(1.0 0.0)(0.5 0.5))))((((0.90909091 0.09090909)(1.0 0.0)(1.0 0.0))((0.862069 0.137931)(0.5625 0.4375)(0.90909091 0.09090909))((0.9 0.1)(0.5 0.5)(1.0 0.0)))(((0.8 0.2)(1.0 0.0)(0.75 0.25))((0.8235294 0.1764706)(1.0 0.0)(0.8 0.2))((1.0 0.0)(1.0 0.0)(0.0 1.0)))))(((((0.6875 0.3125)(0.8181818 0.1818182)(0.9 0.1))((0.7241379 0.2758621)(0.84375 0.15625)(0.78125 0.21875))((0.6666667 0.3333333)(0.5 0.5)(0.75 0.25)))(((0.8571429 0.1428571)(0.8333333 0.1666667)(1.0 0.0))((0.7659574 0.2340426)(0.8235294 0.1764706)(0.6666667 0.3333333))((0.8333333 0.1666667)(0.5 0.5)(0.75 0.25))))((((0.90909091 0.09090909)(1.0 0.0)(0.25 0.75))((0.8043478 0.1956522)(0.8333333 0.1666667)(0.85 0.15))((0.7272727 0.2727273)(1.0 0.0)(1.0 0.0)))(((0.8571429 0.1428571)(0.5 0.5)(1.0 0.0))((0.7435897 0.2564103)(0.8461538 0.1538462)(0.875 0.125))((0.8 0.2)(1.0 0.0)(1.0 0.0)))))))(((((((1.0 0.0)(0.5 0.5)(1.0 0.0))((0.9 0.1)(0.75 0.25)(0.6666667 0.3333333))((1.0 0.0)(1.0 0.0)(0.5 0.5)))(((1.0 0.0)(0.5 0.5)(0.5 0.5))((0.8333333 0.1666667)(1.0 0.0)(1.0 0.0))((0.5 0.5)(0.5 0.5)(0.5 0.5))))((((0.6666667 0.3333333)(1.0 0.0)(1.0 0.0))((1.0 0.0)(0.5 0.5)(0.5 0.5))((1.0 0.0)(1.0 0.0)(0.5 0.5)))(((0.5 0.5)(1.0 0.0)(1.0 0.0))((1.0 0.0)(1.0 0.0)(1.0 0.0))((1.0 0.0)(0.5 0.5)(0.5 0.5)))))(((((0.8 0.2)(1.0 0.0)(1.0 0.0))((0.8666667 0.1333333)(0.6666667 0.3333333)(0.8333333 0.1666667))((1.0 0.0)(0.5 0.5)(1.0 0.0)))(((0.5 0.5)(0.6666667 0.3333333)(0.5 0.5))((1.0 0.0)(1.0 0.0)(0.6666667 0.3333333))((0.5 0.5)(0.5 0.5)(0.5 0.5))))((((0.6666667 0.3333333)(0.5 0.5)(0.5 0.5))((0.625 0.375)(1.0 0.0)(1.0 0.0))((0.5 0.5)(0.5 0.5)(1.0 0.0)))(((1.0 0.0)(0.0 1.0)(1.0 0.0))((0.8888889 0.1111111)(0.5 0.5)(1.0 0.0))((1.0 0.0)(0.5 0.5)(0.5 0.5))))))((((((0.6666667 0.3333333)(0.6666667 0.3333333)(1.0 0.0))((0.7647059 0.2352941)(1.0 0.0)(0.6666667 0.3333333))((1.0 0.0)(0.5 0.5)(0.5 0.5)))(((1.0 0.0)(1.0 0.0)(1.0 0.0))((0.7777778 0.2222222)(0.8333333 0.1666667)(1.0 0.0))((1.0 0.0)(0.5 0.5)(0.5 0.5))))((((0.8333333 0.1666667)(1.0 0.0)(0.6666667 0.3333333))((0.8888889 0.1111111)(0.75 0.25)(0.8 0.2))((1.0 0.0)(0.5 0.5)(0.5 0.5)))(((1.0 0.0)(1.0 0.0)(1.0 0.0))((1.0 0.0)(0.5 0.5)(1.0 0.0))((1.0 0.0)(0.5 0.5)(0.5 0.5)))))(((((1.0 0.0)(1.0 0.0)(0.0 1.0))((0.6551724 0.3448276)(0.90909091 0.09090909)(0.7 0.3))((0.6666667 0.3333333)(0.6666667 0.3333333)(0.5 0.5)))(((1.0 0.0)(1.0 0.0)(0.8 0.2))((0.7058824 0.2941176)(0.8333333 0.1666667)(1.0 0.0))((1.0 0.0)(0.5 0.5)(0.5 0.5))))((((0.6666667 0.3333333)(1.0 0.0)(1.0 0.0))((0.8235294 0.1764706)(0.6666667 0.3333333)(0.7142857 0.2857143))((1.0 0.0)(1.0 0.0)(1.0 0.0)))(((1.0 0.0)(1.0 0.0)(0.5 0.5))((0.8 0.2)(0.8 0.2)(0.0 1.0))((1.0 0.0)(0.5 0.5)(0.5 0.5)))))))))))(((((((((((0.7894737 0.2105263)(0.75 0.25)(0.7777778 0.2222222))((0.8888889 0.1111111)(0.6818182 0.3181818)(0.8571429 0.1428571))((1.0 0.0)(1.0 0.0)(0.6 0.4)))(((1.0 0.0)(1.0 0.0)(0.4 0.6))((0.7428571 0.2571429)(0.8571429 0.1428571)(0.8125 0.1875))((0.7142857 0.2857143)(0.5 0.5)(1.0 0.0))))((((0.6666667 0.3333333)(1.0 0.0)(0.75 0.25))((0.8235294 0.1764706)(0.8947368 0.1052632)(0.9 0.1))((1.0 0.0)(1.0 0.0)(0.5 0.5)))(((0.8333333 0.1666667)(1.0 0.0)(1.0 0.0))((0.8571429 0.1428571)(0.8125 0.1875)(0.8888889 0.1111111))((1.0 0.0)(1.0 0.0)(1.0 0.0)))))(((((0.6842105 0.3157895)(0.75 0.25)(0.8333333 0.1666667))((0.7837838 0.2162162)(0.84375 